{"layers":[{"out_depth":3,"out_sx":32,"out_sy":32,"layer_type":"input"},{"sx":5,"sy":5,"stride":1,"in_depth":3,"out_depth":16,"out_sx":32,"out_sy":32,"layer_type":"conv","filters":[{"sx":5,"sy":5,"depth":3,"w":[-0.13137335214634796,-0.07654330134260573,-0.026656169296705206,-0.2001046877236517,-0.04204698477784714,0.08116040717321628,-0.18690176039520673,-0.036566977660456614,0.08157796339609417,-0.17995563486968738,-0.04085881785881464,0.049918049423117915,-0.13377722924038374,-0.021381990323817466,0.0425812341390976,-0.0323893329232016,0.10715942679884236,0.20811811353998064,-0.04153212012252181,0.21725688835274296,0.36144978339674383,-0.06335242091816555,0.19478462052581968,0.370808757746644,-0.07385571157961227,0.15854037132324617,0.32131794818719733,-0.061981048948686814,0.1478801465509731,0.26224716757268957,-0.14034637427534927,0.00920082406777845,0.15799334337007548,-0.1865531119367742,0.07422321273743611,0.2724614358742469,-0.2537092942756618,0.03655205318165747,0.24564502206347125,-0.25554624246074487,0.016950537916204093,0.20677675755318498,-0.20927025355618847,-0.0012710399163755755,0.17480124257927002,-0.13304392794342992,-0.029659601434011956,0.03243864593813509,-0.20450167102251876,-0.012153075062614595,0.08840818586190669,-0.27182581462488203,-0.040437182044076904,0.0674078451291257,-0.22537369520986192,-0.03797909944024257,0.0952268813498851,-0.14026252021151314,-0.006217189856533105,0.09741750017905026,-0.0979127843532678,-0.06455897735565394,-0.01620345693592816,-0.1336582572235182,-0.025802254166199263,0.09071168592884278,-0.17949353350414224,-0.047096803635445876,0.05872833463164608,-0.15707137436609778,-0.08173178698623514,0.05378628333238908,-0.10686549828479781,-0.024099025526679953,0.03284537410977169]},{"sx":5,"sy":5,"depth":3,"w":[-0.02833435411404995,-0.004841341562681035,0.012904020913768029,-0.02925089240400417,0.03906530730863436,0.008640346961294206,0.11195392743592286,0.18475869247122445,0.13603540243328685,-0.06793070359705891,0.018512339232743442,-0.020473425701884342,-0.1263961760767538,-0.02906447164252558,-0.04696916451973431,-0.08868989345130832,-0.05596802912397476,-0.05663710327610088,-0.23070858145518633,-0.17858177372538164,-0.1881176053353922,-0.0004035014305373649,0.07812557515388303,0.06094971245013259,0.09636558560293033,0.1783625273523669,0.12313812497589284,-0.011654349351561292,0.09825826277348162,0.06592001891286972,0.09840184565626194,0.07837507728896405,0.06137295231656663,-0.25336377998237475,-0.22454996800435748,-0.2684401877846658,-0.2764316123507712,-0.21432107758379063,-0.2551168635572389,-0.12971700710634512,-0.06397566785248875,-0.10279438429934253,-0.12002323817837147,-0.018453948125898595,-0.06536224402985716,0.279840341324891,0.26337954201650937,0.20378264230307405,0.1419921393945787,0.14224247223017836,0.11532803976164896,-0.0864757443624605,-0.03523851058445561,-0.10481676349974975,-0.10350937151898877,-0.04471749251477068,-0.10203798331162556,-0.057855363709432825,0.016480103259348768,-0.05287162896807446,0.04301446060201444,0.0022008268706004757,-0.02143867280668963,0.15169824678976557,0.1421493611745646,0.061113045936245315,0.11668779740562712,0.1104691371932384,0.04661079806976595,0.03653076768502131,0.0774805796345888,-0.015162067484896251,0.007256532508217742,0.0645496813772634,-0.014310802338305784]},{"sx":5,"sy":5,"depth":3,"w":[0.0048258180866422185,-0.03917800492799503,-0.1162605987695736,0.0954549816993577,0.006578595451940438,-0.1167023941593849,0.13335348851194226,0.05173366025681267,-0.11546207177082356,0.16045813493557223,0.04866281044365506,-0.09533452688412467,0.07442855310382626,-0.009178573396847694,-0.10179090466008024,0.2057440391338723,0.13665573288772379,0.1012889700894444,0.33025490984023814,0.21888016911276914,0.19670110033398253,0.3728206024433685,0.279145763321124,0.24178720688349362,0.3651399746499885,0.2371440251785975,0.204425129814898,0.20437591983944972,0.10791044096844694,0.10956316850817646,-0.0827504377753537,-0.09800034120123027,-0.09695533387035515,-0.25240792571451076,-0.2950117988362999,-0.2506743511216661,-0.39910013467973565,-0.4339239937773925,-0.3248877319447182,-0.3920695870829083,-0.4154930302549112,-0.29185712788014345,-0.27435491342606483,-0.269031952949437,-0.17287116661563712,-0.06808371914107382,-0.047730529301485296,-0.033368660485741164,-0.17232460656688126,-0.12190096335039036,-0.06628975713861428,-0.21399033798996192,-0.1406293938480817,-0.07665074871773972,-0.2093075463576273,-0.1297194068450343,-0.0075231103452581055,-0.16942377525660354,-0.10707819168119641,-0.009024001896557492,-0.059816871079448886,-0.00974339502350244,0.04181019815789436,0.07866482314565566,0.19793788831189946,0.21033220938397718,0.11220652752403106,0.2917385107931527,0.3019154977688805,0.08683157870121076,0.2810631810734185,0.32621912969116656,-0.025658078138962502,0.0608775130796824,0.11889732292543942]},{"sx":5,"sy":5,"depth":3,"w":[0.00045303179287805293,0.055986623417282305,0.03490618017640466,0.08244061580233467,0.14803175986451958,0.1141871133101491,-0.2491102164653101,-0.27477983317213717,-0.2482008598375325,-0.07868113546860699,-0.2093600767627754,-0.13990433961364224,0.22015188356419219,0.13953504384154047,0.10744202895198676,0.00783202667762008,0.06385055059852932,0.024776525777848748,0.2959594197637699,0.3547172657198907,0.3213813081966369,-0.22424928815841555,-0.2300512671863673,-0.185416560173337,-0.33884198008306465,-0.4175178378061351,-0.3285736832584054,0.29333658415189856,0.2458340959901889,0.22272431496171854,-0.04150585677507901,-0.007134147910395661,-0.032119446556595176,0.32727436017931877,0.37692890965706266,0.353890457461466,-0.0759024386934228,-0.07521514415596878,-0.031995986133514204,-0.44853111575287874,-0.4885231270121904,-0.398940198975105,0.22854241713308243,0.22560668256214528,0.17973472935289764,-0.0951302684601362,-0.0449776893984186,-0.027176857767265826,0.2568236066536304,0.2653117144947121,0.26929028111579995,0.03297779258825229,0.028784760751645194,0.05428736195365342,-0.3248589272433974,-0.35368065369768864,-0.27837506426020353,0.08635478746578693,0.08061286113916426,0.07361399468379078,-0.045881734823090714,-0.027647152013818174,0.001232880997334934,0.10659431028503337,0.12365936027800643,0.136032491198477,0.03813504974510388,-0.014055346531977618,0.0060016982730637155,-0.14663697359007843,-0.2123721709312071,-0.14844023999445202,0.025096630941324322,-0.030732776218301807,-0.009620965950367705]},{"sx":5,"sy":5,"depth":3,"w":[-0.0677957472793266,0.1664664530327959,-0.025019709207035543,-0.12166143131478063,0.11061945559270872,-0.11268277980261387,-0.12245263004359787,0.10812441586916664,-0.08941176706414379,-0.08220049004936436,0.1608173546441846,-0.05330102889422912,-0.09045742816899892,0.11553840556694125,-0.06226631163162154,-0.08715896625004828,0.21643883223952565,-0.057901008775535424,-0.15352053540612684,0.15247192433584686,-0.12825096520222123,-0.16764641233515495,0.09912192872209245,-0.185874420886325,-0.13548404938405836,0.15271657968551355,-0.14535786969112943,-0.1236291621530362,0.13549700441644946,-0.12662326515985403,-0.016402135872611717,0.3033357836149048,0.011548760399864908,-0.05292795545976251,0.2552427710615496,-0.05473614748357585,-0.14788042053359357,0.17502873249720322,-0.1657866307071122,-0.17776326735542772,0.10080959436036942,-0.24102625535894714,-0.16960279054729388,0.08375042682011286,-0.23575889482407036,-0.04827919649951594,0.2780701954974309,0.009369946900893732,-0.04644964620264377,0.24085830660729696,-0.05680891739444736,-0.06351678750996735,0.2350565752929943,-0.10741816261574806,-0.06751961938956476,0.2015412635733452,-0.12724367108967613,-0.12492234797969971,0.1365699810788396,-0.19388006113328576,-0.0847619575730912,0.19339189937576448,-0.054394337314400784,-0.0848689901998998,0.1854592115755463,-0.0682777703819045,-0.058941314282797884,0.21191653544692737,-0.09231019919023922,0.0391245926691719,0.29294890045044364,-0.043336551868380674,-0.009665384519628704,0.24065839481127888,-0.07831353845168747]},{"sx":5,"sy":5,"depth":3,"w":[-0.02819729022278585,0.0038281757582121247,-0.02103874351333166,-0.11142435827783677,0.02157695415378922,0.04498304640653551,-0.1321179140318718,0.020569706916934365,0.07226045910548134,-0.1194643244982061,0.035961144819832314,0.05906859284782254,-0.0968702567478775,0.03107163814943631,-0.004128476184490062,-0.009125184284871352,0.02880462697208684,0.050039220477388076,-0.10752617656687134,0.04656631523851268,0.1256000293461298,-0.1488856349542197,0.03626498426560321,0.15600252000163192,-0.11679059572445352,0.05599745294184434,0.14424367394536888,-0.08561760935588847,0.027336179526833405,0.059767499955056695,-0.07096363876319907,-0.014204010059409357,0.015451001744385498,-0.16355979478820526,-0.02627245767960194,0.08694349711494179,-0.20324494089726552,0.013928621167773903,0.11440088120421858,-0.16118615126422461,0.01052095397195589,0.0968069254210622,-0.12428711384551723,0.013889935211121578,0.047755826328308576,-0.01025506123942458,0.0416338385703794,0.07435719233757208,-0.10678511811514685,0.022216004242335125,0.1306810731869165,-0.1431426258956,0.01263116421011101,0.13526030108450363,-0.12305445148449319,0.026903966087686196,0.12248458712532853,-0.06352502997888103,-0.004194038941097923,0.06544743062144934,0.04921922779467269,-0.014406115451461761,-0.026970858196263842,-0.027003667638379737,-0.01710281310055714,0.05746510143835794,-0.08189992150287564,0.0007245747063013879,0.08307686824836225,-0.05607534797940978,-0.0069340967013001055,0.07807225735729793,-0.029918330440669338,-0.008152067236187393,0.022137008574220098]},{"sx":5,"sy":5,"depth":3,"w":[0.09327909503433192,-0.01783010619981536,-0.0840223190382097,0.2067528603042094,0.1148500577388014,0.04207492286878856,0.3006508189961661,0.2228360867674433,0.15092798169736754,0.17841419421658564,0.10454972755018424,0.07333444706449574,0.022369551200936613,-0.051035043110377834,-0.05688855746076367,0.11070968403937419,0.022658701892497905,-0.008239697897475893,0.21476346778417973,0.10491196891482947,0.11142377311824837,0.30395361018268474,0.19269425508780863,0.2138901379771444,0.2503419878540331,0.17378062905788402,0.1844824777728094,0.18495455267019503,0.11812687664682701,0.1314622133543234,-0.04380730561350548,-0.10943852478760449,-0.03246667972290968,-0.1641206119282014,-0.2077591350743448,-0.11653830296339016,-0.22398714593174862,-0.3125878092891822,-0.1963323141015332,-0.16084332812859006,-0.21085691358693293,-0.09787258934045825,0.01991498130708722,-0.029397807929826877,0.06361046015320086,-0.012452200557555467,-0.015037106487721282,0.030903001117106154,-0.11125544788514077,-0.12340185544877369,-0.02510570627554996,-0.2166554931753143,-0.23131714586391727,-0.09663822271919963,-0.2140214643568042,-0.18609633869099476,-0.06714918710516085,-0.06134484118930714,-0.008557713224475395,0.06043382508045187,-0.08799060055835693,-0.03819983556528993,-0.003110310748784175,-0.07037829965988351,0.001077311196007869,0.045989025312474466,-0.09258873602130764,-0.017879121002782345,0.06513297256197818,-0.15391528637847507,-0.084753489191349,-0.007776371055567984,-0.11689718161957847,-0.050213066092858125,0.03729910317285296]},{"sx":5,"sy":5,"depth":3,"w":[0.06872296863928663,-0.11151969980356867,0.03256994635559347,0.15629233444685994,-0.15897723174534628,-0.04808383553847254,0.22934517200975232,-0.1611816649610641,-0.10491699967668967,0.1989172157680896,-0.1748489861527628,-0.08604294924021674,0.14975220704275313,-0.13679336457757846,-0.01283035947276144,0.09300411535574857,-0.132188539962457,0.019854464649419458,0.22962163360718554,-0.1880060040104148,-0.11031655023276865,0.31032450495226904,-0.19971912312330123,-0.19139896039640017,0.3047929340282583,-0.18749786338830268,-0.19084395488699116,0.22097637773920792,-0.16140468291444537,-0.09290926282212417,0.03465358061717821,-0.099101832925469,0.04422420169013102,0.14665265408467906,-0.16474816629580777,-0.08227767185806643,0.23047888438904124,-0.175669959082272,-0.16749425068678817,0.21560092762080796,-0.19616908144237985,-0.1548214635850592,0.12451713781690348,-0.1510725790962731,-0.06660787406691086,-0.040143773163509706,-0.033222930516648166,0.1360224204792188,0.03519825069808814,-0.04852686662193195,0.04139044186904677,0.06982546903701994,-0.07032916333931065,-0.01805012245780911,0.09130242097132349,-0.09296197375426965,-0.0120535739318813,0.02386285228742281,-0.07979986437412875,0.037129324427717506,-0.13847752301512972,-0.010533353263628047,0.1749940947267739,-0.09323729005621771,-0.04930424089778276,0.10006937273618892,-0.05863223101379553,-0.056642712983687456,0.06344848889574421,-0.07330098438876717,-0.08067804026243618,0.06674205534203875,-0.12817995489199466,-0.05769457393126875,0.11328913810889683]},{"sx":5,"sy":5,"depth":3,"w":[-0.12864928747357088,-0.08759475924250378,-0.08956083929212048,-0.014133974336148667,0.023631276431805816,0.026891311044267556,0.11903670807489251,0.14420276211224156,0.12676622135419902,0.15363948624534227,0.132990228388036,0.1523359121464806,-0.06912844108943231,-0.09514995784202238,-0.10486781558658329,-0.03840431306776195,-0.0006631605023294255,-0.004596152462843612,0.20510996791575442,0.19975004995523127,0.20208577217428209,0.24617199032475526,0.2398120999307461,0.2142048866392487,-0.05048800424868298,-0.0776413989278837,-0.07884941446463903,-0.28986054081968543,-0.27236254216590794,-0.2626018852181736,0.13064012571174347,0.15576975043897445,0.13659761164645284,0.2693188497269779,0.27273625794873074,0.26623412317679057,0.0010600427063444105,-0.017316848267216765,-0.024185959711890567,-0.34301507430246553,-0.35285463606779255,-0.3586972087152947,-0.14813417528040748,-0.1390926892869556,-0.14126738288422003,0.19579892435208926,0.16722800293792295,0.1766718385444195,0.04027614213129717,0.01961479938918565,0.014678058470628945,-0.24961785220932073,-0.3039794558168399,-0.3151756506308767,-0.19468028892021716,-0.2020026030650388,-0.21425551312032728,0.13735955498467534,0.15369993132778043,0.12488739384986733,0.06615310772341906,0.05743032599866976,0.05047467382784386,-0.1207605055920119,-0.17866261292116117,-0.15713405258946173,-0.12376261047949991,-0.1662566373997879,-0.17662476260055948,0.12208302295153554,0.08936926197505016,0.08404103640080698,0.13499284990759683,0.15983783035402543,0.11827286696179766]},{"sx":5,"sy":5,"depth":3,"w":[-0.04178939114326537,-0.027631184243224204,-0.01189328208725724,-0.22253451835841875,-0.2039981249481011,-0.15642236890407055,-0.09240865923559997,-0.09533966180738798,-0.03759811673759287,0.34027115127371593,0.3497772960770065,0.3155933126624926,0.03840197582702636,0.08678813784128497,0.0015450359677696868,0.14998843930565978,0.15187991307143622,0.14040645070392566,-0.1079558013057996,-0.08670713845999438,-0.07761870037111639,-0.5505469964798932,-0.5215787951043495,-0.4543606540016044,0.02296097103816382,-0.0053128488270275,0.031908026358217594,0.3844672703939184,0.36813967323075614,0.3303592456975096,0.18027733682181565,0.14978053394092658,0.12018171434688366,0.28277776045062586,0.2785541259034696,0.27918387724029764,-0.2553148517318929,-0.28521890349557827,-0.2305851100498508,-0.42505147737672666,-0.42529573672862336,-0.39250588263950065,0.21355932479189163,0.17223155806691226,0.15754467605000072,-0.09839712062623654,-0.1350444555804196,-0.08903290030454616,0.25431683787863074,0.20401662321217748,0.23870984005651205,0.2167808007379619,0.19796384990066415,0.2525165787602591,-0.25848128244263713,-0.274347263823172,-0.20553085064760135,-0.20224793910046793,-0.22791325184568587,-0.20982401796203834,-0.12227940895110227,-0.18311352342073584,-0.0923117024830486,-0.03531678603611677,-0.0902793832351941,-0.03385829688229141,0.21268950500677408,0.15788400223249302,0.2196291426585802,0.12355299148790959,0.06931757175606446,0.11465102032130149,-0.0381308317325883,-0.08837596988659005,-0.0870386755021774]},{"sx":5,"sy":5,"depth":3,"w":[-0.02336416794932327,-0.14069229175126205,-0.1685359463852336,-0.08703403219127298,-0.09887587031806687,-0.05947129784021592,-0.007902704631685227,0.052435479657437306,0.10208561137584832,0.05686158747014567,0.17908978793596925,0.1753800875768102,-0.06018228302880341,0.06695867316155632,0.03161436211299337,-0.06382879190198058,-0.1723826976641115,-0.13893334060023751,-0.12957764018751922,-0.1379632146223678,-0.05427236527080816,0.033497356594385755,0.10480660904724463,0.16376849438640814,0.07203880530468776,0.20088061253222544,0.2237186175244189,-0.03872775602878946,0.10671343532397692,0.10181970034018847,-0.07982817645312051,-0.17667206267371222,-0.11070776921781283,-0.10816546442140197,-0.12822327050719257,-0.023874588981162705,0.032651904422614675,0.12365934792918183,0.17720463937793027,0.05348563475683881,0.17927823728585576,0.18012913787198806,-0.005000000555268703,0.13234410345301512,0.10270195016470982,-0.022180977580831557,-0.13205759676401674,-0.08202434040799676,-0.09646643085579978,-0.11415356177107991,-0.01896924937869473,-0.0035513114972388444,0.05447665552084941,0.10069345627019499,-0.02067498317734097,0.08594502685950876,0.08189816636443423,-0.07563235715048316,0.06622562126105425,0.0018709151284427323,0.1712626314594932,0.005387827327440637,0.03975066250463757,0.04029332741729853,-0.045620717342544276,0.01928774505766255,0.07400480259794974,0.03849008385166269,0.08938524567418667,0.04788654502845748,0.10281574157178207,0.0642687619636589,-0.015110286768477588,0.04734692987353064,-0.018259990128004534]},{"sx":5,"sy":5,"depth":3,"w":[-0.0233977388954291,-0.03996650637599367,0.05603582951963173,-0.027717413021801206,0.0057955631773219515,0.07300143329507403,-0.04139421243502467,-0.01255265214691965,0.06619451385281126,-0.07204836801768517,-0.06052664894417577,0.034764779748981206,-0.06512852280754482,-0.06574465411551063,0.05998989580614163,-0.018860459224339498,-0.08045839747181273,0.0010794129902351455,-0.1157978808139966,-0.12882940200060927,-0.02287939471131146,-0.1411152548557832,-0.1659272579807981,-0.051397800329741616,-0.1606273395836229,-0.16249294669896316,-0.06464159543642399,-0.05651966668781121,-0.08497252258561129,0.027578796327300256,-0.0812949083594755,-0.14475975667375723,-0.06839435571400262,-0.182902407642768,-0.2196686911681823,-0.16272325998621437,-0.253669504751573,-0.2981013384799402,-0.20458399050834075,-0.1686554734862811,-0.21193135756379167,-0.12232379691409347,-0.019614479253495763,-0.09109097164054597,0.003325876315670723,0.06471018450175395,-0.041220336415231186,0.03218636667461375,0.10930217581887602,0.03653083336665988,0.03313807397867061,0.1666403666792989,0.056000854481905844,0.10489406471805578,0.16971433399926703,0.05875734306555447,0.1334146076817873,0.14523762505940802,0.005269065887458357,0.09590310300288458,0.15013427991604894,-0.009259218461427144,0.08907676119961876,0.20480597538078496,0.09662932654617121,0.14535310054102377,0.2634589863166013,0.13578209769047747,0.1633052740418186,0.24514233299597754,0.09048880563626822,0.1571379750445707,0.14598773675492818,-0.013560423936928676,0.09488288199372828]},{"sx":5,"sy":5,"depth":3,"w":[-0.10769496601294884,0.03023212981884719,0.020386902240789637,-0.03220938054307357,0.1290454160764058,0.053388560498838764,0.05947922012764912,0.2341819073569752,0.15104172086936501,-0.07865773871118464,0.1250816646515315,0.06321921629767932,-0.1860963050629001,-0.001701474750266471,-0.041394568628758135,-0.09758547744102423,0.04218198096832065,-0.014767320547345935,-0.08061411763855947,0.12015567142241937,0.01649648590259788,-0.09776298704448301,0.1025755936265992,0.005934307143898126,-0.3014291034279384,-0.09226366181885122,-0.18516415273364467,-0.21163833088940237,-0.02298769231457039,-0.10316835780084589,-0.10042863221418998,0.05414171125375021,-0.030412714373762695,-0.21970315277535746,-0.044792071014567635,-0.22336350248100034,-0.3311608844997271,-0.13468144540277366,-0.3115404212014056,-0.2706079186067543,-0.07269274137324609,-0.21659603699167623,0.05210283031016276,0.20417277382882526,0.054515873720609974,-0.0080036481553937,0.09262001723346264,-0.03547266992590993,0.007016406939403294,0.11394220090524391,-0.10245663108978428,-0.02942824087084735,0.08389814131370818,-0.14180401364435816,0.11310799136093075,0.2369667894734809,0.01460778439184743,0.23296303004918037,0.30272231139773675,0.1141807387984826,-0.02285707696738568,0.01081990528075939,-0.1442217828341948,0.15339855168429245,0.17005163132718626,-0.04205573568970577,0.21436987223654339,0.21697558372116663,0.014021333688493943,0.16456841552519796,0.1799192415322336,-0.028179216608981306,-0.02389723576084263,-0.009852156555418178,-0.17969424884430896]},{"sx":5,"sy":5,"depth":3,"w":[-0.1420418906961685,-0.071680605162278,-0.047201035966294644,0.04405845459827953,0.09926260507487508,0.11260680840940426,0.029681536730785274,-0.028429522258195176,0.041357826663553074,0.03371195823029269,-0.0820766801832533,-0.03679290497175322,0.01950234602363521,-0.04107508392126478,-0.029966495482559016,-0.07921262969763841,0.01940973192655998,-0.024115260906220574,0.1966551845942957,0.2376083521760066,0.2797353449894545,-0.0043719224968342355,-0.07073276933235047,-0.014621862099803613,-0.20812991278211548,-0.25805419694664766,-0.20778605920569898,0.06588998475538645,0.04984096485798825,0.014632970345902302,0.06542796359671882,0.09187061781000526,0.0957871310160096,0.2481010629457074,0.25823230402904307,0.3133181998160226,-0.2329628146679078,-0.3106164065990754,-0.19509268842618863,-0.3188695020287574,-0.3743801938445802,-0.30619458276513306,0.2577836810672736,0.22909292980649923,0.1875490355954148,0.10592445111457749,0.14129801024315733,0.18591448937254934,0.07593902738478912,0.06613033459785227,0.15665905228736965,-0.34745175930831773,-0.3989967022973776,-0.3402892648434377,-0.12274140034366304,-0.15745482987988446,-0.16218591464500198,0.3323099680485579,0.34333647773925047,0.26991501853315547,-0.010652134859865492,-0.014030626062288488,0.055953058327173406,-0.09385222723185263,-0.11041152065923182,-0.05215773498792255,-0.21665063563433853,-0.26651109357540514,-0.20417630260542854,0.08724811033174586,0.03955346695900157,0.055790445925745356,0.22107875747564915,0.2282169402188364,0.15974368330351585]},{"sx":5,"sy":5,"depth":3,"w":[-0.016406230061041107,-0.01738729249870412,0.0008720102315272093,-0.0329744906127815,-0.029155815081405263,-0.00470167224913188,-0.07328673398903261,-0.020578751659241033,0.005892363692699645,-0.0331281143880367,-0.025705326811299455,0.009538168891046753,-0.0254381300129658,0.004216996978519783,0.03989699594042413,-0.03443919748372089,0.006232508484057661,0.02103510917776281,-0.06725383483887394,-0.017513734250745473,0.0152386564116929,-0.07733880129022697,-0.048351535868614376,0.008197394778484935,-0.08203738949203317,-0.021477783112041245,0.007536386721288316,-0.04724648476073025,-0.005141852124750947,0.04144047179472557,-0.0577727352929692,-0.014948253771883194,0.023756501768647256,-0.10416525792889113,-0.0416742337668125,-0.00118072524800618,-0.10539011197916273,-0.03493614140064247,0.005720302892848455,-0.08776955079968757,-0.0069334156861301345,-0.006371362846214496,-0.06637946977553855,-0.004429155949272709,0.018246452088552214,-0.04685570751696587,-0.04698051819280446,-0.012725617992277264,-0.08412375620851663,-0.057381043816232845,-0.01722858930818443,-0.0929030819637791,-0.014703231914083585,-0.0241454981034253,-0.06306370384102608,-0.030646290684609945,-0.03601304485829204,-0.04893449576881619,-0.007693583803127155,-0.018376679974140834,-0.03900888554226314,-0.021189038211174516,0.006808150176531713,-0.05759715511256897,-0.02965091568269608,-0.00789379577651415,-0.0626681163801029,-0.029369724039157323,-0.0023700571211329744,-0.05062412352375037,-0.0006352107859131834,0.008202984982575963,-0.014485672402136137,0.006709451536162399,0.020331664321320175]},{"sx":5,"sy":5,"depth":3,"w":[-0.014764542027597513,-0.027098876625813638,-0.01141096885268651,-0.08255975651166922,-0.04876522522325253,0.053478848340845986,-0.13797043122986657,-0.05901288969876435,0.07305629225839105,-0.12050914560034495,-0.0762672420266985,0.07308151016767601,-0.08882281161029058,-0.04210213356559549,0.009963523007363431,0.006775319934019922,-0.03325920704727811,0.060395524007208115,-0.04672359929936502,-0.019347938087574873,0.15032292135500788,-0.0990393558378364,-0.005402834063024806,0.15932114917343282,-0.07143126698706967,-0.009329822778644328,0.1533661989436504,-0.029789550693576982,-0.004039689784625763,0.08171981975300818,-0.012447315868884194,-0.060350091154788614,0.060388350470612986,-0.08115231259889537,-0.04563158433636891,0.13478496251647576,-0.13061872584953538,-0.03427843447058202,0.1469323649526115,-0.0916542227592566,-0.029133295906578874,0.11410707121857779,-0.0496367813171758,-0.04407852518014255,0.07684498799871065,0.04914412699354468,-0.040131489384985675,0.052698334450812845,-0.013302454792806399,-0.0053610071019012506,0.13301210795847276,-0.04585450625925377,0.0019956982564016176,0.18909747375927335,-0.042390477849352994,0.007219653645186114,0.13392348781987984,-0.013485049915977172,-0.01706127718202026,0.11029332629098655,0.04736522248836855,-0.08680465539883651,-0.029079824548393148,-0.009946795718993762,-0.06429786885240782,0.031987878953636036,-0.02879273397328834,-0.06802092788426224,0.04754562109283951,-0.006977906714430502,-0.03960155344959298,0.06889569339711403,0.02124595247555445,-0.06694726257620702,0.03662418877947751]}],"biases":{"sx":1,"sy":1,"depth":16,"w":[0.12210035115484641,0.07758972658722699,0.05163935604171145,-0.027462681350378902,0.01140181763938545,0.27006298546753854,-0.11895385396980351,0.29355860805029077,0.03673089479944808,0.06807550429428469,-0.32639782992449806,-0.03621242242322215,0.07454380265104232,0.007013001023841766,0.5184910531557109,0.1802654154429272]}},{"sx":3,"sy":3,"stride":2,"in_depth":16,"out_depth":16,"out_sx":16,"out_sy":16,"layer_type":"pool"},{"sx":5,"sy":5,"stride":1,"in_depth":16,"out_depth":32,"out_sx":16,"out_sy":16,"layer_type":"conv","filters":[{"sx":5,"sy":5,"depth":16,"w":[-0.026531586874076717,0.001024585129042525,-0.05953685243844202,0.03244452613613789,0.04484829241003154,0.05011687612232327,-0.14794531154059556,0.017583542853443015,0.06021315018490891,-0.022283602954032554,-0.06047109016386164,0.04167290801056791,0.05207306546288624,0.06020457948942514,0.05494606726915111,0.01038314897353173,0.003325753660739993,0.024963761372253205,-0.006487166107563548,-0.010261920872858035,-0.007689971710221167,0.0386424679204512,0.011702897454593122,-0.012717435475704543,0.04419102939199762,0.04566886600394893,-0.040700861816090006,0.012322010049465665,0.027228300838647197,-0.04578677702547646,0.005473526692417878,0.038470522397740695,0.02543310326842612,0.02776829732205251,-0.006539034222713447,-0.0519840755492147,-0.07779949145765855,-0.0024404302928692353,0.05540861555121095,0.019031272235073757,-0.07907564726062483,0.03485187016598905,-0.09274657808622215,-0.10094771150208967,-0.06972523537568072,-0.043684423063200785,-0.01961455670250993,0.006807107791267456,0.03227490691857563,-0.0026461149578850263,-0.022618852702819672,-0.018703906584235562,-0.028679502154667847,0.025155347579440115,0.023757305276267175,-0.010309953781657593,-0.07195414564481237,0.0012721166631070734,0.018617341632997664,-0.11927174185126098,-0.05444151869034373,-0.06928094345968518,-0.002540789089270689,-0.0007747268398963193,0.037001460058493425,-0.009121081148844648,0.05217101964152454,-0.0497696094007038,0.015228381320096367,0.007099431328195998,0.003913226165955526,-0.030677862278764657,-0.08535979777922646,-0.034637931008263276,0.05145071761605546,-0.0449286756890579,0.022650372925565015,-0.08320129130014055,0.0024861213497744065,0.024982858943035296,-0.05240771089065674,-0.025375154724805307,-0.1327344823010356,0.03366021536667822,0.02590128153925613,0.03428887622207597,-0.1511990298674317,-0.01399723353622079,0.02120639816018331,0.0006889872815988917,0.019270770817574435,0.010326877519462516,0.02377185284319069,0.021077991634271525,0.006063716312870274,0.02626329409414159,-0.07869195782122912,0.034136513384552286,-0.10877590249889052,0.11029786917396817,0.029290531353885436,0.021941011362610126,-0.08546349176393948,0.028531871001985575,0.04338720326293326,0.07707790594209565,-0.09656443642340273,-0.005205785367722443,0.0024028093877687035,-0.037528811842657134,0.0023126485194557202,0.010863097408148078,-0.04724211872739223,0.07555359829792048,-0.021927901754082543,0.0033822885518620628,-0.025304481700322578,-0.012342341636992818,0.03850014917915084,0.05226964072125415,-0.020387563771708996,0.07786189852593722,-0.1721422778470592,-0.06263564733612402,-0.04413684897811521,-0.008065327590001923,0.0018010679696638507,-0.01641107627898721,0.03734086494780109,0.05503799806271008,-0.024572600578464512,-0.04404976457149792,-0.019500582850506407,0.03505541751125282,0.10737401267205768,0.02357227241531298,-0.10521674814474659,0.04377796563279746,-0.020379059311546273,-0.016618769195559366,-0.023700068836082715,-0.09256244768639839,0.049357608192202355,0.002885595747938158,0.08538678601750414,-0.002324056091928355,-0.020309289842947716,-0.1249509122188317,-0.06757763933245992,-0.010019068814598924,0.049684274205536116,-0.023769161550133464,-0.08495797096032051,-0.10014536652144082,0.029493059244140297,0.00941521874085109,0.025331068996511375,-0.04487776826659338,0.026375967532182305,0.018536111614348396,0.05700298683438781,-0.057859341738564586,-0.11658883397617337,0.009734695110283558,-0.021177010409702154,0.022768342930027583,-0.11161288970397724,-0.0770290305912314,-0.01375326717881243,0.026454179163632272,0.04545713409488121,-0.04418207837128727,-0.08422191487210744,-0.050855056188407445,0.008720015211295179,0.02247911543697424,-0.03754922690838863,-0.03433149236744979,-0.14401244593790477,0.10804063461643142,0.01839510515053764,0.0015248070709381748,-0.1569175774264967,-0.003523519413574546,0.09136525964562443,0.0420964933698822,-0.033014916957757746,-0.05920504407699136,-0.06149999866664025,-0.015216253196881227,0.00464439385851226,-0.01666198732262564,-0.08911950840800188,0.05715848985368325,-0.0010208082243776716,0.05572626874255478,0.025427199153935185,-0.0588718175022305,-0.049720332375580635,0.05170435327787821,0.056067357230509804,0.09085658395876411,-0.22700430540828784,0.016918232841024877,0.013486235794387192,0.047102778573989576,0.04388229774733522,-0.06267927456084406,0.040396226323696285,0.08988566722646284,0.13830731107576302,0.02079337857025148,0.016472502182640503,-0.0016968948453682155,0.11015408929011702,0.07315009716225618,0.01817708974358681,0.05384998291937092,-0.09165883824713494,0.04341320137182449,0.013348518857264836,-0.01023092630024044,0.08631875443288001,-0.017486551908981043,0.11001581465987685,0.03809544459734642,0.13019395037137743,-0.06211080408949431,-0.07215843790268976,0.008757546323749196,0.10772026815861083,0.03754610314382254,-0.1725173675043743,-0.011349156478478877,0.05246933465054432,0.03475479468246512,0.02271989652781609,-0.0489421205442349,0.047409453620128605,-0.002840910159010577,0.061831552949002035,-0.04781978383385968,-0.058601717319472495,-0.022647308432133632,-0.06412514419675418,0.039649611429504746,-0.02786747928236712,-0.06974801945927062,-0.03736668555281499,0.01767766101926508,0.03664246904315709,-0.07770174175629575,-0.11621679577112387,-0.07341844033612704,-0.00825063240445988,0.012700131780048463,-0.042133670429433175,-0.024408370071071214,-0.06116318994071663,0.039670354455995344,0.0015878129756468967,0.00835275963671823,-0.10195265509837984,-0.05033860600927887,0.08541196256816944,-0.032959518921695685,0.02446066970291817,-0.04754927732632781,-0.06215323838726463,-0.043496290993938896,-0.027180027708553222,0.0030509051534965454,-0.1460862333299811,0.039191583412908584,-0.04196891496370414,-0.046011970283216755,0.049076448125710714,-0.045879937140460104,-0.1389422566823758,0.041575067327615935,0.04677886823995048,-0.021521049965280196,-0.16968317509992353,0.0044505967772546446,-0.01999276267475004,0.03816508253833578,0.032233703305950066,-0.037239096285066206,-0.0949549757002193,0.036451366701461756,0.012821217547259236,0.027890212627281565,0.059950019653703376,-0.029848628087446673,0.003467668135553114,0.09464719877090871,0.08664377258027406,-0.0090988760761829,-0.10541011415952749,0.03226294935833897,-0.004790820954361545,0.009900238407662298,0.09245994276896483,-0.02421864902723046,-0.044391222839277183,0.011646681156123837,0.03954945652964535,-0.04177080319502157,-0.0695025139511553,-0.006728541769861262,0.06747651632458541,0.04876022546418181,-0.14392960123087925,0.0299002864611513,0.05525380538578989,0.05078329071525227,-0.013517684122987355,-0.05895820582937293,0.0581879465251284,-0.015318041681826475,0.07682250625081138,-0.024698399891609792,-0.0006925805186143284,-0.022449728549082275,-0.01923242898013393,0.036970878667476836,-0.021106609374237802,-0.09620833641953618,0.018779883760324648,0.0027990566232511693,0.011002602076889663,-0.001421376989636803,-0.05313883111372796,-0.02793041905103133,0.013035556861243261,0.033184944732946,0.0820736015724686,-0.06039542047180596,-0.016848381054183105,-0.011217382778735675,-0.013922986668425901,0.005100464799342932,0.016699403728052623,-0.08388192889506382,0.09951987234090581,-0.10711749843765839,0.08445818022039768,-0.02583236131696593,-0.06632464691738181,0.007133448277629352,-0.0062770612290636105,0.03452574842578045,0.006743704200509973,0.019471592192152765,-0.04250464482427062,-0.059853451297993424,0.015000699630554148,-0.01578134373925927,-0.029609691131998066,-0.04398190296269583,0.0709364192416222,-0.047022982957289024,-0.08797443375804459,0.03163869340922568,-0.03173760247795893,0.05226620662235047,0.03353163623950031,0.009785443134744623,-0.026892881687947078,0.058807252430373276,-0.019083634270104767,0.0354273042926992,0.037499557050573194,-0.019044723230231805,-0.03399051012413487,-0.017700855772517253,0.0964234091453546,0.0006597511008842264,-0.024492008846421432,0.08339037509894005,0.014849707797316302,0.03781313441159554,0.07130592047881866,-0.005623775404941499,-0.03819992459753789,0.0074501312247937605,-0.029510391005544274,-0.03272082316136105,-0.03241181043824151,-0.006216084145804881,-0.07158560343779528,-0.060968720188627715,-0.06477500619128074,0.006180672228085751,0.10201268611169562,0.07374709675000288,-0.017240189726470494,-0.037417320158717265,0.07815602026724668,0.010611002145609356]},{"sx":5,"sy":5,"depth":16,"w":[0.014619026385998355,0.0278498347940533,-0.01642466762348961,-0.08145875373780946,0.05567834735773121,-0.007833564147529355,-0.02260390450232336,-0.013621180473833962,-0.05297413834230533,0.0018540655108202381,0.05878030319098235,-0.04647695789900278,-0.004695479032800348,-0.06719691448802904,0.0247537548914579,0.004571589253798441,0.039417156721530434,0.0006024665032072222,0.013797584530681115,-0.05320682461115454,0.045309534605489296,-0.015909605636143083,0.024680080077999995,-0.008858882378154267,-0.0018025314547991764,0.013142745748726333,0.041293894314238626,-0.009535287604286702,0.019790288083483196,-0.03080129702935741,0.009909764098395231,-0.0031587703195512917,0.02296703324924943,0.020439967720284696,-0.011725919318593578,-0.03554347945128906,0.01927464745518357,-0.006588961738130096,-0.03246991079346996,0.0037832579298989226,-0.05846732228087798,0.023343379061135067,-0.010259305082213727,-0.004700567102561455,0.05090267731233366,-0.025057253706581684,-0.01766981812576327,-0.0020091933890880645,0.025746911036638197,0.0049305543848664505,-0.05264026169059823,-0.00043074280018887926,0.048443548399526165,0.018728210848380396,-0.09133539932593389,0.016739286455870993,-0.030326537115910844,0.032239236547101556,0.03334809075446405,-0.013577743540645506,0.027791634897807102,-0.03313061963607654,-0.021934960032068004,0.014570487990185727,0.0650070827299823,-0.012378935608916423,-0.034190692663700416,0.03380011822882327,0.051642820614197615,0.03300403492414624,-0.03865335652969903,0.03512422015061027,-0.0021126307207654307,0.015559778168163098,-0.015944815871546898,-0.05230963374163964,-0.05254183406563272,-0.012921153595640212,0.0007057717689251431,0.023629755081727627,0.01890402357350362,0.037162903221131895,0.050117888128276424,-0.04163577530219157,0.024847651458339576,-0.023540057433089127,0.009478307013281399,-0.024276165951722963,0.0366052799382147,0.017322996604355004,-0.019978832523033622,-0.0380533963280603,0.037546234025962126,0.01149443017088849,0.018187010980772692,0.01697757072871696,0.04778651445211796,0.025065975577346165,0.07646150085495686,0.02259765102220621,0.016118760035309206,0.011032957454343356,0.03598167557287555,-0.02637529692809192,-0.0034940534579926074,0.022751475269966043,0.021746300616252785,-0.01825610700285934,0.05036719741535497,0.020326719299612044,-0.016000182389466933,0.011254956709009183,0.003112690787365508,0.01101393499824221,-0.06963447384900859,-0.03587102808850903,-0.02555396279856175,-0.004631974263930871,-0.028009500386265596,0.020372192131680365,-0.07317939540680293,0.023419315471211406,-0.0032591490496173396,-0.037268771999105936,-0.015427638420978078,-0.02530337410326482,-0.017798748643882086,0.012042944927181496,0.011489952196036527,-0.038466554205439873,-0.09846371963794821,-0.0199719840006844,-0.04527898173011199,0.015464139771636257,0.010196273266908421,0.04239004087466276,0.06987694983278496,-0.04440256244649769,-0.03312062413105514,-0.08263119874696911,-0.06538481648362635,0.026430369184619735,0.005205725536817096,0.014044662301257844,-0.0012377339587551917,-0.0650594989639706,-0.0471877762649877,-0.03630753428915385,-0.01448563478617497,0.029015568929339822,-0.010318811342096891,0.02296485935000542,0.02771452795326128,-0.016609761958573634,-0.0858652375701742,-0.03060584462321998,0.004233055644768442,0.04855097603116781,0.004554757488888352,0.02651083923351905,-0.03958420949356943,0.03191826216344625,0.01291105512603915,0.019332009299061655,0.040809209548175,0.007269689788483805,-0.09924578835090861,-0.04386235650353025,-0.01068888255002258,-0.0018578775125790213,-0.030117433306277176,0.020174670918087625,0.038396056365601366,0.020833374411386465,-0.003256394722511748,0.016232833423057078,-0.09113412253274096,0.0002178694358946268,-0.048262931835400896,0.07788155896775094,-0.032376566003154465,-0.0018590515807260762,-0.11061882707320927,-0.0014416220228359625,-0.09673811507286602,0.09164540625779809,0.013720027228342825,-0.003495708292271369,0.010478929427944287,-0.056161244318397495,-0.00744790408996014,0.012548743652943681,-0.06589106457543284,-0.005883269641249052,-0.09482361665231091,-0.03282410793764829,-0.07804739949348223,0.0004885990139108882,-0.025803497212133413,0.05262947202922732,0.018134263710409906,0.03457664314917059,-0.05302425245098517,-0.05768512830988862,-0.09693534577955479,0.018819369419492717,-0.0007374135721429705,-0.0009908104230437595,-0.041581689165866985,-0.06385495111992902,0.03230795186515306,-0.0033848016687437472,-0.08252745502860455,0.002316118001035023,0.00487402926885181,0.03700784411619108,0.17306971414994363,-0.04118368522698384,-0.061813207868469326,-0.004857692653302225,0.05240355839576835,0.1316059458621224,0.027811054944489783,0.005637447446930537,-0.09882975889692723,-0.02394331921216806,0.03282875454033928,-0.08751675791292156,-0.09134351363361187,0.009935371248729228,-0.09068912001318201,-0.007464495349637707,0.010384479420742727,-0.013751806573762638,0.020881693102896892,0.06942492498066684,0.08034131815209349,0.059385822059197305,0.028521191634885028,0.04194526238071874,0.013742247705226052,0.03663607241276798,-0.08467748893237796,0.0501145215721839,0.014442829009407559,0.035130614802322185,0.005109170836107674,-0.026839168548650726,-0.009191135389226914,0.06050680537153619,0.04122651874858007,0.039395652825628444,-0.027002442459923823,0.02658788853604156,0.00034791416917515246,0.02295016270545561,0.010720888361728213,0.0040264843095774725,-0.038726830544100185,0.022929404581693853,-0.052482421858563555,0.011095350782317567,0.04120642218625391,0.0225001655075254,0.15143384141007718,0.0644408363021354,0.054007794256555025,-0.039594233268555636,-0.08079513354914974,0.08924600161495964,0.002264584102184953,0.024711746307187525,-0.001249226277561524,-0.011325565132444764,0.06508725534907159,0.056376902477286654,-0.07169394396817848,-0.011929439250526246,0.07912445540471265,0.02658418573459824,0.1506598405704687,0.00913536918840292,-0.10522939867258087,0.012436594878812575,0.04368054234686401,0.18632598511632867,0.03459582622524397,-0.0029521743285407607,-0.024911476110040427,-0.033529784537624674,0.0778092804433318,-0.03780173014667152,-0.10263802273596632,-0.00110032979297112,0.020588970415876266,0.015907407501801182,0.1479184026654952,0.02004550756618752,0.012665010450416661,0.07336326790024834,0.08830534607875137,0.16997069459264222,0.05365005103553403,0.01684709228789253,0.00538183938055239,-0.002449798104130822,-0.0563455969980761,-0.04340306242490763,-0.08131267624600433,0.013695486397713086,-0.08479008836473734,-0.014881620414565458,-0.004735048077772793,0.031157631761633435,0.10184722553539467,-0.0029932549038503855,0.05718517493966269,0.006559283602682893,0.02317443213959376,0.03260979681386498,0.016162848966176147,-0.02339161141068916,-0.005050239418517278,-0.0210956267051813,-0.04512081666321074,0.0037146985093710443,-0.0717430723223379,0.009198147728899599,0.06892564195493171,-0.039402574806918465,-0.017487110957145002,0.0137522252565341,-0.06798164278728076,0.01176955940487301,0.01818229043806968,0.007920530157590346,0.02464475134471966,-0.03780807842460334,0.061790964557453185,-0.08832225040820707,-0.06299484692397234,-0.004780564330695646,-0.031862708869442154,-0.0015691900240001918,0.06247977939867332,-0.12139007813565074,-0.012829559914807038,0.012419127943273843,0.017513757000337412,0.0547373262238446,0.03947812290021508,-0.004454816427715113,-0.046311339835327786,-0.08032429664632877,0.030011327455896443,-0.1348297281595293,-0.09171330056065886,-0.03338307060638565,-0.05954925323372549,0.009119287608526516,-0.04044427077254785,-0.10492187051430392,-0.07250637322509106,0.05912260568776179,0.05803838571545304,0.027446635326389326,0.025906585886532427,-0.02594746819378095,-0.044501567831445384,-0.04209235520656298,-0.07133087079078551,-0.17320451132590448,-0.0828801609308263,-0.025597665059003058,-0.07257571302417472,-0.02354111520718702,-0.07868483986196088,-0.025891662374324928,0.052240675381199635,0.02648129180617018,0.03839293170359019,-0.09338612764596113,0.02973011163091247,-0.0006432692783386443,0.03262578674825919,-0.09129656356429701,-0.0975357811166202,-0.1011357898152726,-0.0006763890707540955,-0.034935829848552744,0.04579341004812783,-0.08869242557640622,0.00006772774407946667,-0.0654678388764773,0.028379334087201804,-0.08021954639903599,-0.048272847425962974,-0.06695034534000534,0.003812872889624813,-0.017898191169749438]},{"sx":5,"sy":5,"depth":16,"w":[0.009443950063388336,-0.06931891554448172,0.0024139682750768774,0.05715518986732654,-0.05522252553072278,0.019535813171738192,-0.03155778674852829,0.004337484607574684,0.010297234356409073,-0.042206649464134376,0.09861604494953771,-0.01155718264947872,-0.013095888494577893,0.06691296150430726,-0.014372467620439575,0.048089467431169625,-0.0012992559542138974,-0.019479297107292317,0.0047034832516743615,-0.004547824587218355,0.0027045434389033653,0.052616185339676144,-0.029848241623375044,-0.023568763319186777,-0.012466515170853074,-0.05354341202948827,0.0629957405092206,0.021775382215813304,0.02181769851569831,-0.008518010799220809,-0.024802762643316816,0.0416758444060819,0.006370569219154296,0.0006727328827468495,0.03535198030035785,-0.053218156608888914,0.03318702406436755,0.05139404942328924,-0.007354770746651573,-0.03329186495638757,-0.07948804517733273,-0.05825068340646946,-0.019359941680783928,0.03698791942321187,0.039234083700355325,-0.09482278205547252,-0.02205484877043855,0.05160582152442136,0.03847365869760023,-0.016635982796567753,-0.002252505409020086,0.01310568588679469,0.04097882333269127,0.06336908507276134,0.0013124044428038354,-0.06259910507546734,-0.040630072563813555,-0.044904510040928006,-0.023192967548072724,0.03979900636645158,0.02206070816207396,-0.039998572397344105,-0.0034167822530689796,0.04790138494443788,-0.024210635872338935,-0.0020570988928137394,-0.02926798724173788,-0.08375827125071608,0.03659979874234273,0.0477514929771293,-0.02392281668719643,-0.04500730007046488,-0.11587115559619551,-0.0633789704322237,0.03027782879711768,0.01106770002907504,-0.0027364095831749202,-0.0874372983654803,-0.02384871454479897,0.021142700146083285,-0.05788857287226288,-0.01886387273070938,-0.06780920610356755,0.06089695583734453,-0.026365342029628647,0.01580121993660055,-0.13551043107072297,-0.002017472297213054,0.013824490023390666,-0.03400447943395638,0.05744825868506719,-0.08407830584368751,0.01524522764886405,0.07701826908283678,-0.0012950380049619186,0.02257656958632024,-0.07256022862146219,-0.0035106002665052424,-0.04074930683455665,-0.004158127735546993,0.026211324867386723,0.005769092729305959,-0.12050575320894652,-0.030371391702954526,-0.01785708148542306,-0.04995734286967159,0.035695467544633354,-0.039256184350879665,0.04903209844315844,0.008763360507930569,-0.02785259274742892,0.012812388819689173,-0.04923163738335788,-0.004210084864499541,-0.0031338234781204065,-0.022912463039771003,0.023218268090544236,0.022074688858129493,-0.07710797338435221,-0.029258010500994434,-0.0698236896284072,-0.08474298313561303,-0.04226290152256227,0.0019003260619038845,0.051372554884728056,-0.06134942054633376,-0.016258500473058518,0.012062597871978342,-0.051530329870545,0.019814281305273795,-0.03202192164986743,0.057422429642890106,0.04483693509682331,0.03829253339781782,-0.042675111558715284,-0.02490830230864286,-0.0004575380329692478,-0.030611391326079256,-0.06400175023656986,0.012846451777114187,0.029457772505862245,-0.005332348092990264,-0.026460498478740158,0.020416037227846396,-0.08258007198826912,0.03852503900020607,-0.05967436711655394,-0.047303720577317646,0.03318094821084488,0.005016990194031685,-0.04372804335044806,-0.04889420648458588,-0.10811333856450671,-0.00913176465061238,0.006891460814285464,-0.0063608802629191614,0.020280639426422397,-0.09940855422853861,-0.035833365830115003,0.006508612479994776,-0.051435548396715,-0.02936018874950701,-0.08456177580895916,0.050458087070742966,-0.046674007897501396,-0.027841658617032836,-0.12862163250732972,-0.00847730701005323,-0.022036932185492325,-0.018867343587955495,0.04791940086103574,-0.026343119924035343,0.005133734416946764,0.09417231390683434,-0.020580955418205933,-0.029610722282260638,-0.05564469165287826,-0.03535264218140147,-0.07042698849203599,-0.025493854953244476,-0.034757483641885814,-0.0407891590972526,-0.08341920097131995,-0.02727723410477026,-0.03192486066314889,-0.012625651993130602,0.012188393420145851,-0.013066250429360212,0.019445695764578188,-0.011122558818909124,-0.027617876869306605,-0.05293451890798414,-0.021814206326075596,-0.0020362428720660315,-0.04342002025723208,-0.10025995498349238,-0.044627383189213984,-0.02091455260301085,-0.06440228915315577,0.004484843851276042,-0.07021228787353316,-0.09241965587144522,-0.10521743305812874,0.020992998125514337,-0.0075982958829451525,-0.06025814999569151,-0.016106246341125983,-0.02834917723746022,0.010480145354504101,-0.010355830814300448,-0.0243872483817604,0.011025226568023721,0.0005485112490722815,-0.025043328028651043,-0.052266055393284924,0.0004082682502658579,-0.04388064579084811,-0.044294723219826075,-0.11394043473805679,0.022359333056483494,-0.025843705740618197,0.006159629772852096,-0.027260790971201848,-0.0196530830230345,-0.026261281338441418,-0.004917755721572724,-0.12015028547072604,-0.06079210131696696,-0.009855780559947227,-0.041125467184252563,-0.08813332729307827,0.00018548018980598592,-0.13739935941852208,-0.0068204293195592,-0.012468964916421937,0.01504870580447887,-0.019092514545969188,-0.06871898227973121,-0.037768154735417635,-0.03731616326375384,-0.000620679630844875,-0.023693957834147277,0.0551857531597818,-0.0023179593209205606,-0.06872337677291905,-0.008287112820834615,0.011142525564723308,0.008211936050186901,0.010066929164611972,0.007093574125868596,0.006154069471748566,-0.0006959738193487525,-0.01650638479643477,0.07811338151427513,0.014501567404089977,-0.019661499444422543,0.015017456306123889,-0.027001249629176476,0.09593743729772758,0.000323878480610238,-0.057188835783139234,-0.04076882371607739,0.061767117636592525,0.01805962272456519,-0.020644027460069943,-0.03164856248842174,-0.030810609972409246,0.003501236898321224,-0.020635528712797904,0.015298027157364459,-0.007619912144554652,-0.05443338706576137,0.0169581781971002,0.007959630446204423,0.13809425619772167,-0.05251838327362035,-0.07386720622137767,-0.02940835303855906,0.14347219720656876,0.026665777652274514,-0.03607177091121055,-0.07331372835606607,-0.1576252410525459,0.03304887765820752,-0.032700381479364354,-0.042268568634180395,-0.007909146022110913,-0.025579192412913468,0.07150065589844451,-0.012553965705977376,0.18087672034735353,0.00625586582630485,-0.05859293450826901,-0.015123687978748704,0.18658340153547337,0.04166539020766642,-0.016714369494914023,-0.016326704350519666,-0.12243952036209971,0.023713167481957453,-0.02029938725189739,0.007478088385923188,-0.010868696234812734,-0.016753886060932664,0.043678059611134946,-0.0021469787460453088,0.06709119657678544,-0.02855452307757084,-0.053529636087156676,-0.02683121565555513,0.10963548377853342,0.03711033022900669,-0.08730260947664875,0.01672403085973038,0.02435324250998264,0.023728455470430714,-0.0688175113425937,-0.030729710692352436,-0.022594593228238095,-0.03646312167267064,-0.016603482009960386,0.0008879035162693183,-0.057860912197627005,0.02721894953763443,-0.04290837522732596,0.009507344314611697,-0.0453358489112088,-0.0299894155719397,0.01840819626512502,0.007674874315727852,0.005793243693125818,-0.0010047948534239975,-0.014355085061093816,0.09473321952557649,0.020244734706463412,0.012936813969027095,-0.029921513654979595,-0.026952177070480917,-0.04042193056139647,0.06216121116556833,-0.035650753013934354,0.024498615962116763,-0.025231132423821696,0.01918467692452275,0.0489144785194302,-0.03875273576233774,-0.03534742765051451,-0.027911056317692726,-0.02675369762156367,0.07977895030663165,0.01146067916972732,0.007144736306612844,0.018442232474531223,0.017472765801853456,0.022595520647373316,0.07339961891420087,0.004538112685402926,0.030085327591137093,0.025612923227549864,0.024912793418784954,0.009943332832260648,-0.016371313988163497,-0.13911796644121846,-0.030464221365308148,-0.039899110745306464,0.048256761954948504,-0.0031832656475637706,0.033164365537476835,0.04276899832783948,0.02606182244471008,0.03877017613920479,0.05613570552905782,0.01852707744297914,0.04431732873991786,0.04558568649908112,0.022866994622652223,0.01004471815936265,-0.005111472348184507,-0.09149655397629657,0.01402943538130887,-0.026789514933648895,0.020999695251477154,0.01141526817168982,-0.0025366920822353545,0.018897961963440953,0.02896941722200542,-0.04110095570646105,0.028131336239043573,-0.02845804479002086,-0.005518740275873551,-0.013954319346752219,-0.009085971405395148,-0.028421442157572436,0.06339876393260507,0.034600091954667636,-0.03404906254230959,-0.024209179281667083,0.046978174551170135,-0.002401803532798767,-0.018229166232767016]},{"sx":5,"sy":5,"depth":16,"w":[0.029427004268348055,0.04067177192099477,0.05180045189668326,-0.08314263628801703,0.006238057508645681,0.012916251802583592,0.002544499528296007,-0.021637043631349002,-0.05983316379813251,-0.021807702564394824,-0.0411769616728765,0.05956358003086976,0.06356794647906307,-0.03039934810653293,-0.015390920778368409,-0.007279158516197665,-0.013423613744194526,0.01006883953461351,0.0669735347736802,-0.03995679078769981,0.0179342682614494,-0.010654790648015146,0.0020659197578999674,0.01208567924110262,-0.037581820705567016,-0.004142009050603538,0.01599229487766267,0.04709410226084803,0.08247948209294713,-0.09077684981137288,-0.030967177273091735,-0.0368745512535991,-0.024568639672324578,0.05850480914180619,0.07003619345208044,0.07411091610491313,0.011242345283274518,-0.005682037610121395,0.012957911766549597,0.04707772166541159,0.06801827371501798,0.07865059738708519,-0.05628161338438615,-0.007961656334052098,0.017976364574498884,0.0389995379307261,-0.013854221189132054,-0.024115775333931316,0.02937905191330604,0.017601547914863812,-0.004716020330691925,-0.05445968633483912,-0.07761661260333694,0.009982327667910707,0.0006959236541491414,0.052776386909630886,-0.015509126738975093,0.00015305047134677322,-0.0032560326638086117,-0.08693728974612969,-0.04794668327197714,-0.036153192409830094,-0.02433833218477961,-0.012862825394228077,0.042241959804110246,-0.021039473957150674,0.06371553159325344,0.01653912077653603,-0.06294978813486717,0.024051817146216434,0.023604386664120652,0.024257136028853755,0.0006523484490540616,0.016776843349669814,-0.012943338287581247,-0.07024468259009925,-0.03583866340055511,0.050893956343375575,-0.03178079005392986,0.012757062256706456,-0.02428183630545164,-0.0026181618454082746,0.026318832887817056,-0.09664352995264903,0.0018490881034679135,0.014722924296069619,-0.021624184681225445,-0.025927083167440468,-0.06348018908795483,-0.032543650224716135,-0.05224521033204635,0.05157750805638754,0.0605302308967297,-0.04020933689624341,0.010582633569939187,-0.018845275804179558,-0.02963727106295822,0.005742810733034113,0.06274860883211757,-0.0482359683616016,0.0072954078443049864,-0.026140803249862534,0.0016406476260524222,0.01782621906544018,-0.021341222789639396,-0.019439287548308187,-0.0028774259953619043,0.041129267808370874,0.04809151261866553,-0.10202141073086962,-0.015483247935786282,-0.013230251292808226,-0.041756255295466234,0.01089365815123477,0.0118493404887467,0.0663331054559099,0.015533242326958971,-0.005281986819272817,-0.011085519722209886,0.04708415367210154,0.036937516716801774,0.04064438005211827,-0.10895441424432037,-0.03945719284914538,-0.0220206629437376,0.04405098813630173,-0.016105668227411333,-0.009193139740236058,-0.009308170924702642,0.014936470294675364,-0.06531665515789173,0.0020433626184612904,-0.08637727070488473,0.007820009321670957,-0.06831164486554052,0.014199254002273337,-0.018598736752008026,0.06259576123896995,-0.012126387649634262,-0.10843337774036459,-0.07114680137442861,0.011618462577547716,0.002089393653680954,0.03265358923811847,0.027498022071537898,-0.021329529650348136,-0.0536685376503367,0.03329570733252641,-0.06713478863055239,0.021609468768022038,-0.0222027441281561,0.02755240338485116,-0.024225990168069134,0.024489615303453588,0.017516117522192547,-0.10586083128383876,-0.06716515647800818,0.041578235426950494,0.004554049705841834,0.001902521394099505,-0.05115067419351135,-0.007401141000233719,0.0365582133743145,-0.07420517396320517,-0.0018985051679678098,-0.03868641959125539,-0.06789645730872314,-0.01665655574055804,-0.03434134352579448,-0.06927674026965286,-0.02653974674007322,0.05145510731614431,0.03517923605250804,-0.05523177387586037,-0.016696300708596325,-0.015134237439761139,-0.0764494065528135,-0.006472225170265153,0.050133234642662484,-0.07349940128353306,0.006422005902984138,-0.03281794926593925,-0.009033128378046172,0.01817308162447201,-0.07587202098172662,-0.06102780348577605,-0.02867914802106807,0.07116430419807705,0.0391870084824756,-0.10534082861284205,-0.013721197898926063,-0.022378743488561,-0.09048079404652627,0.04524755387609051,0.04719052554138753,0.014352113003615188,0.025883990111130177,-0.010072970441757964,-0.0029511550079459625,0.022699954095805677,0.015203275814522667,0.04431435002340192,-0.12044258591135337,0.0757995229725184,0.006921153677555344,-0.021350930976781562,-0.0052502360433448105,-0.01152888598071478,-0.043502109603882115,0.05627790055196478,-0.034602832655684576,0.008700895553114298,-0.011648141705856608,-0.005079618377672486,-0.04721717805452421,0.015222649648883552,-0.001706518415782661,0.06723441524792743,-0.03056898981739895,-0.035948255416186785,-0.03652054033675489,-0.02468471948050391,0.010384492036196189,-0.0005872769269510644,0.007282916090352551,0.03268510622511355,-0.03748439169876597,0.039939035902500496,-0.05649211438034876,0.03542833807590011,-0.009924285106630557,-0.028903129324297165,-0.015542847377541835,0.0460640313542445,0.02469210750334825,-0.049941128932418734,-0.02158933103421354,0.03574371787842651,-0.008976358642359194,0.016284443344419836,-0.010414399572578123,-0.033355449872694086,-0.05889472436472211,-0.0799750464663598,-0.025254625933168465,-0.023796082346494548,0.02330710585018127,-0.03476634251228396,-0.03500487495019926,-0.11119788638214471,-0.02793959863999499,0.044971992896634984,-0.012870717354253658,-0.05976469590686088,-0.017738623642077643,-0.01513380589649221,-0.0018864891587538008,-0.038434843465167,-0.03830693586748014,-0.08000750478328135,-0.03127315841365092,-0.06587503095362461,0.040856454036580586,-0.01005922933951507,-0.08992811136593386,-0.10764006364882013,0.018392396697596566,0.06667995289585155,0.015209533785340922,-0.0984255492178022,-0.012309049977575112,-0.03437735427798025,0.014570947722380207,0.003768475514694715,-0.011482462422365029,0.012681857295447406,0.036207417144721296,-0.06531562726699401,0.05443538626891763,0.04097618294212212,-0.007887591735840695,0.03295143093859725,-0.08417458737329919,0.07224045309033168,-0.014077938283464044,-0.03605215757315576,-0.039435079635894,-0.020479559981492618,0.011731144767700619,0.07947329815076833,-0.040422196168099576,0.01845485892654313,0.02445424735249124,0.003221631795323701,-0.0038466734620423155,-0.025109498367987593,0.01416385105979952,0.06710561307126578,-0.03141229896269249,0.033925905856151024,0.012378785702770219,-0.02454731519903642,0.0028544473885819717,-0.0010340395045495407,0.07710733473641836,0.0784211967759202,-0.02404321375072389,0.029402126255228186,0.012469263176584075,0.02113245009813339,0.044142572162943566,-0.03635883919179094,0.008090429854308858,0.08207918355610341,0.02870114972692274,0.017465428746141393,0.018558268877203406,0.0018590616977920019,-0.003627442524207561,0.02654520785370163,-0.02113043500555273,-0.020287693252605404,-0.016679664180281092,-0.040787259149588945,-0.05319871639395417,-0.006824641754157899,-0.0002301273038367382,-0.02271099454201858,-0.024874749015966882,-0.068331424588859,-0.020643412625473784,-0.0007811119806940169,-0.04354897283544909,0.015972304794849696,0.003090777300975848,0.006807795026896736,-0.024363507218428046,-0.05563094700712881,-0.03141945200628349,-0.04360830911909898,-0.021672279170665425,-0.010842899003767385,0.04336174990235875,-0.006430007219499083,-0.02112370461103692,-0.08440587330860426,-0.00549187947921073,-0.0017651948745457443,-0.02051434431919592,-0.038618025554619385,-0.0060201563672145665,0.009442518195923117,-0.015658911260759037,-0.034141908178694995,-0.030747137238341746,-0.04411255329285873,0.002031314516344179,-0.0077072541804351765,0.011908666691188704,0.017199358520938558,0.03623158075031552,-0.03660861229322849,-0.076914507892663,0.011695512144157092,-0.05322060615699395,-0.00009782172768431916,-0.017529131576774343,-0.0017281992772827095,-0.02763492788398005,0.006535982239150797,-0.027524739864528414,0.005901135366361687,0.03440576722050836,0.010843137097941137,-0.02971128353876099,-0.01450024352225806,0.038850847019091035,0.03752257085904429,-0.09094539085143524,0.014204166714257572,-0.013963008897389155,0.0005349497579851629,0.0077125469383546455,0.0108578043424819,-0.03476687917450589,0.055364682613820916,-0.024873889495983494,-0.004603531449282833,0.013985190923387908,-0.00258250549389334,-0.06228931872637335,-0.023950503447066594,0.013142537151863466,0.08335895438241955,-0.046096803019884995,0.026714384622299345,0.025955353623257287,0.007593063375011691,0.02203133768913063,0.04028524053740644]},{"sx":5,"sy":5,"depth":16,"w":[-0.0069155494001639254,0.0461617651432238,0.02225704309565281,0.03482644565481573,-0.023180441583604428,-0.05500753414364919,0.021144115649805145,0.06294506616978442,0.026987510109385517,-0.0037927521610868816,-0.08385884699097632,0.029224710246308957,-0.03453190907225655,0.04817776183300872,-0.009179896029379287,-0.017414404334284386,-0.01430635205579734,0.012679673779614008,0.015588351227844605,0.02478483705055692,-0.004490997189847341,0.0037566061500907393,-0.011552958785877511,0.04885177113333248,0.06579387737566507,-0.012208049774835788,-0.01545862652164274,0.03186075913012123,0.004529312452012475,0.0418049428004239,0.01800131231149522,-0.010108579568339524,-0.025101465007931693,0.02442196909557237,0.03459502678067994,-0.026011428120962018,0.005517674018661211,0.018691046547421885,-0.029917592182682716,0.02545172943249486,0.010082658140012036,-0.029233014155862016,-0.0005108139689869525,0.027528818978044073,0.02677574957873375,0.046632955622964,0.021074054969111973,-0.007162735900692842,-0.02167433618561593,-0.013635199056244203,0.021997358412717362,-0.02805857161133866,0.009924928159033305,0.0221426475923754,-0.06472124052769226,-0.00741577106959804,0.03027357537287978,-0.024753889658917786,0.041461706802491186,0.0428005585765721,0.023275664738266186,-0.018717872717630823,0.029000381899332434,0.00048663694666490953,-0.013968019831377274,-0.011082915626515203,-0.009230688969341913,-0.05114561018475523,0.028957027811281687,0.02783718431571753,-0.04359280527605617,-0.005085726005601771,0.05566886849604966,-0.07940265049997407,0.030514858349733987,0.01916424786566097,-0.018741048574839533,-0.03519191871807854,0.03614742299265669,0.03002670727612461,-0.024090881907842115,-0.025323073105958244,0.01703918927277303,-0.0395766779961733,-0.03628493546355612,-0.02996808265367573,0.0808227774769152,0.048921838443105416,-0.0042452856839269625,-0.061570764441498324,-0.06844991946876026,-0.01003693841264536,0.00265910056396662,-0.038777758381041985,0.004847261805767945,-0.0338248509705354,-0.050848919906396096,-0.03166492177146178,0.019326062823928732,-0.06379016404759645,-0.003473462921806225,-0.0122679813142534,-0.025992392149617106,0.023707238977369198,-0.0094724200745087,-0.10171893065097963,-0.03683081729171749,0.026458160731082488,0.04855592700387072,-0.033259653803324074,0.013922311211637924,-0.01713475434317309,-0.031077720096018974,-0.01673573939051373,-0.04294845725009271,-0.11961975947179888,0.008248211796896956,0.0019042920843447113,-0.11594705864116671,0.004934758198257238,-0.013195973626171652,-0.08788006378092034,-0.020040451110939456,0.07110549339098302,0.06599292968028084,-0.06611955412209089,0.015224276102728654,-0.012317639147732035,0.013330494591532852,-0.059084033418968125,-0.031728791980001336,-0.12790877877286186,0.021159639169728413,0.020969948125777557,-0.01450268752863419,0.019879412565140867,0.02621673356543518,-0.11448710517751219,0.004444835701934351,0.019093152388460814,0.051747544501508806,-0.05684991076342792,0.019234239691300538,0.015910745041644456,0.031657704523874765,-0.044681641365742875,0.008615738528381128,-0.08572476676068612,0.008854099360632077,0.03385865842438127,0.0461771341078276,0.006303097892968678,0.055587430563008175,-0.10022498833634967,-0.0378843731032533,-0.023394401416611775,-0.013458326790592041,-0.05543918535484463,0.0008184962781721632,0.004856179892487718,-0.06638970339373305,-0.011793879917802586,0.009363307769882633,-0.09311100436773113,0.0026221099730562767,-0.012729494657222054,-0.09804821354264384,0.012442227446380743,-0.024745379139242393,-0.11214150343830818,-0.04455176512233961,0.013351607774496685,0.08062111362422286,-0.07028597874584598,0.0037816450045478375,-0.027616511193853818,-0.003261557142559783,-0.05074969148077197,-0.04822440043065139,-0.08216302256135177,0.006004421314932656,-0.0013969085762820911,-0.12486746778801665,-0.015128332906205385,-0.006960981706473878,-0.09055360577985319,-0.015864999745846438,0.03130334396372427,0.06281024120370843,-0.06403606323360414,0.017224230761829794,0.01090715828440072,0.07190043191732212,-0.10287636119183138,-0.0001222974046457253,-0.102204345945221,0.0007529581611753418,0.020050684262316862,0.014216706309113028,-0.03391121024046105,0.08229016674114008,-0.11349631643939674,-0.0509851646171516,-0.0007711746198427905,0.0419638324617403,0.043483255741950395,0.028333882504502448,0.02667112053754552,0.09890352438295241,-0.10081003559212118,0.06511320845921621,-0.08329567406417898,0.022959670687798462,0.05027465405252372,0.10965990230310409,-0.02629844000443496,0.14056441918950666,-0.08236069361495732,-0.0266971228415103,-0.032879910847026225,0.02070412059520668,0.022607006543649284,0.031054777499140124,0.036701021933548385,0.08178452158560627,-0.0587742943066494,0.008625653682657695,-0.0638673721435929,0.044288022531181644,0.03601731631123881,0.10445542241531294,-0.06524295845609376,-0.0013647187252790922,-0.05708858976417258,-0.06953515076576869,-0.03107030243144715,0.0017087729711254495,-0.04535972643048286,0.02217522753261262,0.03271060037749259,-0.020152966904811866,0.020019015242343886,-0.003081892254271282,-0.05562329517381504,-0.002726491906913329,-0.02914476770891417,-0.105894261126246,-0.02199682890251218,0.029598745960640833,-0.0689141542066035,-0.028922178043658705,0.07378269885259775,0.059245503947651844,-0.07179169916803668,-0.021620798224864332,-0.010518804232352283,0.03265925402157048,-0.06374234052948996,0.015357773650725945,-0.0002724469833655747,0.009454153847199814,0.008209090484253008,-0.059470146866206594,-0.01512059982368916,0.190767276499134,-0.09729832061259511,0.015248912472565114,-0.023276040989228263,0.007043532241211499,0.13043434746594312,0.02922712278118412,0.002236988903366459,0.050562933206261804,-0.07951385510808466,0.08079925501627175,-0.07560929751554551,0.0015739211039781213,0.017974891807015503,0.029328180281439593,-0.004853686525497928,0.1989674570959767,-0.10648486942407563,-0.06283142703540083,-0.04728774655527974,0.016973886308900954,0.13008985235010997,0.02459904188167774,0.005259983456830363,0.0017166003283484508,-0.02160676769064451,0.07942746033429453,-0.04228144360631134,0.005406912188835197,0.02541564863754215,0.03043464877178238,-0.03359139574127342,0.10395529908354048,-0.050989917383537496,-0.04022640329037867,-0.0602276409050517,0.01809688467253222,0.017278145711434795,0.041424899785629465,0.020532095895724457,-0.02837221309953109,-0.010703015899750024,-0.10314265508881809,-0.02136953777912346,0.00054851096147207,0.020237894598560558,-0.050824772467154146,-0.05065526913028494,-0.06666282155303499,0.028521156493283125,-0.03825761429276685,-0.08353084499062939,-0.03001804492110852,-0.06684601973474087,0.03265592712088444,0.02188581435684798,0.06663207504930552,-0.005001365891552899,0.0912633695909284,-0.0495674677345801,-0.022005822078555587,-0.016687594278687896,0.06032344139526509,-0.004549268298025434,0.1046895288894565,-0.0713738324601335,-0.044228490340711246,-0.017323418974255676,0.01003774539364589,0.012926972221156028,-0.0027875132031259815,-0.01821682698748616,0.044768595058776686,-0.042490465784124805,0.0649730658381067,0.047731237187043175,0.035991052866116244,-0.018954287479662425,0.029116145412931112,0.03863689158174398,0.18795909402013938,-0.07476527849283778,-0.030019137494039987,-0.012605061329996814,0.02830816934707229,0.12745680944891902,0.019520186485223426,-0.013081694332904974,-0.028951465894988072,-0.027138237254580432,0.028779136077357718,0.03841642180764533,0.0008846236253281547,-0.0041983245007245875,-0.024818839228129767,0.019811863048494104,0.07288061554848002,-0.02805316873701092,-0.07238800623548938,-0.02081847794472754,0.03109890356288028,0.1136190471582692,0.024970482769612532,-0.002836871947318306,-0.02573818328439121,0.0289260653401401,-0.047682452947053706,-0.006942232520602642,-0.008400333565414603,0.0063492198615238546,-0.10757988647870659,-0.015964350651981842,0.03684028778145073,0.019244131043359952,-0.005587622551314044,-0.08469251629586749,0.010017919303706468,-0.02791782336723519,0.033629434455400425,0.003804936795856477,0.010087415097039327,0.004912570011976177,-0.08721951793259883,0.05930723991217539,-0.026496193232971987,-0.0204108106103011,-0.07440085718226556,-0.0718436380931043,0.027481628279244937,0.043413905899823295,-0.022076387739209176,-0.08861268387200535,0.019743913079492144,0.03734574654665098,0.04015314822291023,0.0034042387591990894]},{"sx":5,"sy":5,"depth":16,"w":[0.030085423684108648,-0.010968581657865887,0.02732981631123386,-0.060818424317815145,0.06956763027792573,0.019823824452615702,0.05047322637763151,0.07995510089851356,0.0036223504551794812,-0.0817997206267392,0.004926089954905133,-0.004785865113304921,0.049729125994050945,-0.003219266995340681,0.024181421238732587,-0.022716788186119163,-0.01728121953458111,-0.03649103495160724,0.04398874313875888,-0.024533126084176144,-0.00816408564069612,-0.015828756737650194,0.011261350909296685,0.024731203567240317,0.05037113660996544,-0.07397271350184187,0.03105389070123503,-0.022563542166618284,0.045025336493421116,0.08167531524737673,0.011486484316463874,-0.029603955467248276,-0.058674206318006815,-0.029702460095098283,0.062086540911662824,0.03210883210133862,-0.060352953463721486,-0.028634039517222452,0.05305404629668736,0.004218677702719678,0.0726680942682027,-0.011661195994765622,-0.022827667439764995,-0.06284547947411037,0.011446724644005531,0.031625394003732335,-0.005488748042759829,-0.01863390808041506,-0.01624702660670577,0.03992406841058832,0.07891102011246187,0.05268430672614533,-0.028866630652012587,-0.04585671660342106,0.07569160464895035,0.020573895634603687,-0.03431279988019824,0.07656534666466297,-0.056445923078101,-0.05833413745919364,-0.036964106005684116,0.0051793763541532695,-0.008966625342733348,-0.02683554387696152,0.04931700970565521,0.04819100788230832,0.012826209361618416,0.06347207358024115,-0.01293599496878279,-0.008700330662126153,0.043963488641818815,0.02130405813801111,-0.09264491624886927,0.027614035872723132,-0.0009840733464393946,-0.006927020461688325,-0.0026393714238788697,-0.048801999583083074,-0.025872106490756313,-0.012883411175588692,0.0286845532457873,0.0000762760625225865,-0.00891671169065024,0.013850128704302977,0.05824417410204161,-0.00725369118997516,0.04725168547088449,0.07524660446383509,0.015239701371281536,-0.020392924592826628,-0.012989441645127851,0.005395220251244584,-0.01686946476739127,0.03184921976364856,0.008768200719696573,0.006751376910800892,0.023828240781171066,0.004304098019095439,-0.03455035887040241,0.11321965477115485,-0.06291465560512638,0.017363413673313982,0.0199675025226202,0.010580464624884905,0.05285794078616701,0.03677355152236089,0.023043418258711628,-0.0800999570615385,-0.024369184800504116,0.1332118734425243,-0.0008708231854296883,0.02084908251334789,-0.012547820216195802,-0.027004869269801886,-0.05770778156188868,0.07310077024616266,-0.09365641491226845,-0.028661814701319073,-0.041983289585033626,-0.06445575579459904,0.08672302988022225,0.04778745659768985,0.0231327663793515,-0.10172845830543607,-0.03700840443869118,0.12237722946013518,0.008914688663094963,-0.024800838038927308,0.002488166294050528,-0.02589948412279131,-0.04828769868425548,0.15156606399048572,-0.08949290643345223,-0.014615731841376607,-0.04077311350029253,-0.000583691627726285,0.0811858396588725,0.05599049758049131,-0.05257541236613241,-0.10071298173250254,-0.03853683158104494,0.1516763268705919,-0.003523194512430394,-0.004495233844690921,0.0759817090747262,-0.004919829029846698,0.005978608274974659,0.05316175804302948,-0.0783337657044285,0.03377043676589127,0.018647895092704432,0.004231112469087364,0.008046561373931598,-0.043486846452493004,0.028918400408012218,-0.03360659911966996,-0.023023162681189775,0.07853881737898494,-0.0029556547608986057,0.025188770511440563,-0.06387108752720155,-0.00740074718534309,0.00521606916867617,0.04009656358162944,0.05205515254061025,0.025914616768877116,-0.04729301443260615,-0.006779997346244158,0.02745455568304526,0.0701806943487905,-0.038489809137627874,0.02144405080535617,-0.05015229596434535,-0.022263552500214945,0.015729550599983256,-0.017096624894640127,-0.06482246681367398,0.05781915992032147,0.06741867576439269,0.14483276399456105,-0.03572230258604211,0.008198044226817684,-0.0649264311225332,-0.059649720964404074,0.017039338827010798,0.20145267231732952,-0.007294493514538788,0.004628204107701411,-0.041521006142427305,0.08806947084519885,0.002431312634629378,0.022212974253561238,-0.09786314454807452,0.051618367175425235,0.029964332213448148,0.02767839061867732,-0.11682194924009616,0.006258434625258067,-0.10414544262734848,-0.12698062113471767,0.0068241499215114165,0.11819831694027565,0.0917255831260778,-0.012919522685903155,0.020348954799209177,0.04063910551004814,0.013452556259475437,-0.00991504175636154,-0.0537196383249132,-0.03319911662686472,0.03700416474302718,0.19711338979713708,-0.05626459541235119,-0.022778605619755497,-0.09239202715572774,-0.08008992024127923,0.1692808258303098,0.042497068076556,0.024245327679705515,0.008222458061354377,-0.0031202249986472864,0.17285819950834352,0.011454720591468395,-0.01621195232721615,0.042050623970773325,-0.026334304167498847,0.015240928161366735,0.02244713800171808,-0.09258886976725171,0.015347361822679095,0.01845687412881697,-0.04153909889997125,0.07073285454796654,-0.0321968171886405,0.0755641886402355,-0.036847517161159096,-0.049555661587738296,0.07381221061059329,-0.0078476016788821,0.026294543019056916,-0.053458932880805714,-0.006680591725188273,-0.02367605018016535,0.013624832655020526,0.008249878673190315,0.03224012857755765,-0.014500916552515886,-0.023988932586885784,-0.022446315931946997,0.041357139939509506,-0.01622501924980196,0.046566234622633124,-0.007358731729512405,-0.05071983662680196,0.007007393140175988,-0.0013449414992591682,-0.06942734328953033,0.014244898066011265,-0.031070587996351727,0.03160426258447488,-0.013851053389637857,0.01140497457555502,-0.06301355818271916,-0.06474764256025284,-0.055338397153233354,0.11902681831736554,-0.03747562383099215,0.07716223130159901,0.017048826635520327,-0.05902169626699635,0.023998148252870256,0.01893562377314666,-0.06480141355033897,0.039644125290127244,-0.01970918719173823,-0.11145001568657685,-0.06728532983848762,-0.024335686494748047,-0.08142941234305485,-0.08384459570402397,-0.07705191224826488,0.008329497620985848,0.01954865744849658,0.07690365337878634,0.06787236671344815,-0.10243433128110727,-0.013436994488518662,0.0030519405143432728,-0.0552730412063793,-0.02277830213096085,-0.020407042861943236,0.008029129906666026,-0.03616820961688791,-0.01592201143673266,-0.04909817706818497,-0.027567173785874335,0.10813602243531785,-0.060749542053787194,-0.012491691115350888,0.05028532251187969,0.07304325595872643,0.04501796179031949,0.02136829852714243,-0.01157836780768899,0.03662693351710594,-0.011432822866751215,-0.0770069722491391,0.004282521311694707,-0.04310089831194277,0.009952303394869409,-0.026268603806934247,-0.03316686351344944,-0.0007567861386819075,-0.057336421388463565,-0.005330756252190729,0.02684195152846645,-0.021358720599533476,-0.008036730928753335,0.028186615935171563,0.007827124289885821,0.04753319780499068,-0.03413459374185053,-0.10758262896443224,-0.10993780025537839,-0.0043654151668080605,0.023865182163021657,-0.0487804952846512,0.04079330868028394,-0.09276468890805294,-0.08385881501073093,-0.03177666044035852,0.04866145636327372,0.005049102151994147,-0.10793387266020611,0.01240521682407197,0.027162382744869,0.04801842825585537,-0.027137692816488895,-0.0643154116181083,-0.14794715739099262,-0.03301867742277403,-0.006874742108856119,-0.0635947605752106,0.03392597640755073,-0.14695211512181125,-0.048933385341547106,-0.047835674016445257,0.045604429904719794,0.011759002070940022,-0.1321292328668436,0.0053644866816607625,0.027701482602664713,0.04515101701796639,-0.04546344104846139,-0.069134975732679,-0.23410542382853763,-0.060499813411973635,-0.014057801429637674,-0.0287320170709229,0.030571977922680696,-0.1445072939713544,-0.14336234177093432,-0.027614310552623703,0.04892557513727205,0.025240176693355293,-0.1849786129309559,0.021320985990422595,0.030341853217792442,0.05579725115156913,-0.0661519219068594,-0.05365253280581017,-0.16826883917099547,-0.031541209078095045,-0.015925732001698317,0.008873528028865853,0.07181284778759615,-0.05081120856614208,-0.17253770051697226,-0.04607720863652079,0.039519181994924296,0.043443340290889323,-0.11853210472651736,0.03041149419652964,-0.006374970170586357,0.0787322705914203,-0.0025322030343543607,-0.04471211428558658,-0.11359199876640753,0.016674068913861223,0.03190008388866969,-0.05966591691888505,0.06890285574987907,-0.022210579568825873,-0.11505829441655424,-0.04255692945360922,0.05330391925585898,0.025686335222342142,-0.10978220137105747,0.03390665769204133,0.04817039340803002]},{"sx":5,"sy":5,"depth":16,"w":[0.018980868783732723,-0.01862410872768086,-0.043566870493189296,-0.08334482011788588,-0.02199487551747384,-0.011140488995330504,0.006919136137460777,-0.08798520986111694,-0.09658790079388921,-0.00032167051993891915,0.025372277886763443,-0.09160735038383179,-0.06609768878575496,-0.09938984602354599,-0.01316321986695872,-0.003922036673391899,-0.020718918871604045,-0.010474472423654574,-0.009851337515535408,-0.01502993095298709,-0.027790570031572055,-0.014180667904079755,0.03661537384199986,-0.053788785363162714,-0.04128134680578965,0.02190474994099286,-0.0424870436337309,-0.009835200687139462,-0.031690806754775584,0.0008694703863593392,-0.02561575327304377,-0.027786632082488997,-0.06910374515807348,-0.011281761944887184,-0.019925264324758774,0.03967327724625172,-0.01752852770778983,-0.041124413110950206,0.0007942859280338623,-0.0701870424255838,0.008898281759862412,0.0525147743527399,0.06557007552419318,0.0005952482500961735,0.01244360564025683,0.03207187737569652,-0.018696087058276894,-0.009203827183385256,-0.07047572446079385,-0.009675549736138218,0.0022314838765745736,-0.037641296671637986,-0.04842399020019395,-0.04301926534430446,0.029788742784693206,-0.06791997391063968,0.02169740935255597,-0.017183843949568223,0.09311754177821915,0.025954853109113964,0.026381912916355756,0.05061728740901766,-0.05159873437585404,-0.015836156511249224,-0.03916428978494444,-0.033392259930173106,0.02774640968481758,-0.006992546172405134,-0.07040182565216027,-0.03311234534108001,0.04633606690728476,-0.061694846925718125,0.013051181470673905,-0.06524805529227097,0.062324748409429566,0.012865156371895382,-0.056842424255968964,-0.005300684956025303,-0.04753564059623851,-0.0019514111530909931,0.05137823207968488,-0.004887347331284116,-0.0838852774676628,-0.07715117813314841,0.031709880992733974,0.015265120941820691,-0.008436450909595728,-0.07959387059115329,-0.048071499597825175,-0.014953081053201868,0.018401129226309605,-0.04087725069786093,0.005652841181005386,-0.03692366712167176,0.0026818262455272314,0.009849204012125658,-0.03416193939702193,0.00847906459751445,-0.006575408101342592,-0.057484741981712585,-0.031903063133283886,-0.01763927138441081,0.01766284713648664,-0.03464562817956278,-0.015218674153437722,-0.006565615941375798,-0.011253360178491037,0.027805363292551392,0.059457270496958294,0.03848362867460469,-0.019414491185098554,-0.006957132321221072,-0.03832315516631703,-0.002184388472257816,-0.0204827104861035,0.05358324665811283,-0.041007311728949294,-0.005859970035065933,0.010670382420260931,0.00012188130682813477,0.06493595906505692,0.013668116671298395,0.08394767068443472,0.050130565485366395,0.04371198408997081,0.06461339082375814,-0.01817361702488568,-0.018689340331836734,-0.08139546579233409,0.0009200531737872045,-0.021838956089720418,0.0029907959141631476,-0.044892263013564054,-0.022438156724684712,0.005603814148229102,0.02132555580065018,0.047572968450166946,0.00273341463346205,0.09718589060818301,-0.003725621316743333,-0.0011440358295534722,0.048925357945504705,-0.02938468736457595,-0.00259276573212599,-0.077655538344473,0.006584383003867301,-0.0344472680384286,0.005636842205833029,-0.08886292153147579,-0.01736553609097325,0.03804973542850867,-0.0069785506902901185,-0.04325788438946608,-0.0037294347538990003,0.04836386866649449,-0.02294081431609661,-0.06846357674141894,-0.013562073860784665,-0.01457050408148086,-0.004975529571577673,0.018453667272135522,0.008986487909016209,0.02420620013932002,-0.004984044392671579,0.060050755132187064,0.005340406114703056,-0.054535096234024284,-0.005552523880878375,0.002970313263340923,-0.0013745077112303108,-0.009936337368796665,0.0033324399888909795,0.006872507922543694,-0.016503311726661106,-0.028848555007040148,-0.004851668100031528,0.001650612889437718,0.0008936714792552243,0.017550265761294415,-0.05781023578369786,-0.034138128358355384,-0.0038824468186330124,-0.10840718169196335,0.041746614104583586,0.0006324634715539494,-0.02340815884891057,-0.014356519648739841,0.07405828240577433,0.037577714518727316,0.015573251469409136,-0.02715572903088289,-0.010641000338595986,0.013856359867189317,-0.04208633751901148,0.023425925994722888,-0.030177536710815998,-0.09426547752138896,-0.023570682796720165,-0.012034060353506449,0.08859440295254328,0.057010329072557715,-0.0067854750797441375,0.03408248369975786,0.06858538336017767,0.037225845672362846,0.024377923309262767,-0.00792230771633317,0.006903621103541342,0.03536595137868936,-0.09012378729459633,0.031044645256619294,-0.03181282401224296,-0.07287900293638123,-0.004284357501812558,0.0396663117197812,0.10441328723598084,0.03248132435760316,0.0036949352313663045,0.11248082713416119,0.022779274100496266,-0.04689464568547366,0.04662347997099114,-0.004380473728553868,0.01261339499730858,0.02136925333499463,-0.052352795694676435,0.031066253773039672,-0.037764340022643735,-0.08514568304339488,-0.0017345273686404266,0.05958976574795672,0.05877383409118754,0.020978340583152035,-0.012257845599685447,0.07982803094876854,0.008814082105535982,-0.035559065606100754,0.04369840329493711,-0.0005901540935149938,0.00025687516756136766,-0.013632708385179094,-0.009132099438081505,-0.04753502435281096,0.031763289037187066,0.07088404177638205,0.036096868377500646,-0.09283206759245659,0.03752010372503649,0.013083015449836791,-0.009729367195886154,-0.009500073836943276,-0.0708500924334004,0.007084566540549789,0.034201825740397734,-0.017115288609739678,-0.0055305020680862385,-0.01396635534812084,-0.015715171014056888,0.021859703307222464,0.0031905015274995927,-0.007949540636236456,0.019902513642228902,-0.053302807721963705,0.08126998382115616,0.01340623100476667,-0.03688990856184433,-0.023615154868099328,-0.026031407606423813,0.030593596807472093,0.02946590490153794,-0.010708869055997586,-0.007701191788614456,0.06449383427816119,-0.053554004736188626,0.08467579667531183,-0.04404080200701911,-0.06456828257555584,0.02799047366990616,0.05337242904693571,0.10918127539124584,0.003461436112143013,-0.08005849959102788,-0.04716425544692572,0.031366088214360245,0.020875628321203037,0.0004063907402720039,-0.017045473337895956,0.013687252470187653,0.08221424585296615,-0.033619900394723436,0.09946292179646586,-0.04342853220659866,-0.08370170724891167,0.029469833089083342,0.0439248345178675,0.10526322471924111,-0.010671664462856896,-0.027078167629782136,-0.010118913385534332,0.08716413148029208,0.058048903824079096,0.01659713695037941,0.011359579451361698,0.024307997132693628,0.08163257880535336,0.008328386949326685,0.04299066048621339,-0.04384071017473186,-0.05443548409851882,0.017429596352893165,0.044015951552562674,0.06874861754981422,0.003006290784448729,-0.025621533601033652,0.027083187301937525,0.053974255569379834,0.005337745728136946,0.018173966535756873,0.026765107752479943,0.028921689773614694,0.0683819116111285,-0.02686574473746302,-0.032026863461777876,0.02241605435824426,0.07544096819379305,0.0330453149632389,-0.01775096535106572,-0.07490265423928379,0.08848279975134085,-0.05345484042428801,-0.016589622492881775,-0.09395350699372854,0.024646012645059032,0.06524022771201964,0.0037488412612701593,-0.019734839662032117,0.016113387963855686,-0.007347840095463122,0.04326549552957859,0.005667504567790866,0.0659882785577543,0.009828918190942667,-0.013457843094175548,-0.04359992672665623,-0.01712429242904641,-0.04453659807451103,-0.022318076857413202,0.00007555673751898698,0.06096436833412717,-0.00754448900293817,-0.017861224485712267,-0.023601067730682542,-0.047180257494401606,0.04318513328722058,0.15199885098952276,-0.03435267649065925,0.03815988115497554,-0.0041939065545399355,0.014812707181967696,-0.0476568332171385,-0.047197492283985905,-0.05122716886929977,-0.07939989371925513,0.006149018849104616,0.09259319990507939,-0.030708370955766198,-0.0010298509531876583,-0.04162029328204339,-0.04139223403750578,0.05007944691224748,0.09388856514285959,-0.03303238967637776,0.00216403584303624,-0.003506722924598206,0.0252279203426022,-0.012523866205550457,0.012064334528377027,-0.02534911949302038,-0.056847955687542674,0.007115004731456513,0.06431001060375359,-0.004040990071515726,0.01741200380505584,-0.01258811598363076,-0.01389366862091586,0.03288905534513106,0.03460604128765381,-0.006388145506053649,0.012460604965933493,-0.004732002495183631,0.019997789897918006,-0.001717011098738941,0.023026610059894516,-0.006335032274347368,-0.02815650763241792,-0.0678528562510542,0.02494278153505356,0.02724222097800934,0.030666639643600835,-0.012552233554962652]},{"sx":5,"sy":5,"depth":16,"w":[-0.011054971608494071,-0.009096228519560497,0.023830930689153484,-0.002594299149659756,-0.03712468172794359,-0.004651946537721529,-0.018294082378609668,0.003825401186408473,-0.0031913198173751933,-0.0013625654106559286,-0.017748838516995356,0.05611265719752824,0.027875589535871517,0.040197727459681226,0.008530180874201904,0.01676989892143331,0.02952837850696036,0.029508485050496976,0.045005589247204845,-0.02098193451277236,-0.00713566853728428,0.021982465382647764,0.005393308178679715,-0.01487721892441409,0.0048596999007628535,0.005875388524744271,0.05110509218954863,0.04262699479595633,0.050626570492490974,-0.003125912745740404,0.03449959514258892,0.026300468263960708,-0.003342392392179909,0.005675606503484825,0.041391775627901285,-0.026085792240788663,0.004752200664597922,0.0012682096999872777,0.04712202059479469,-0.03933896339936308,-0.027350731344486654,-0.013601638288140691,0.030904619569733296,0.0309176963939552,0.03992735160983709,-0.04608273709717269,0.01824963839595343,0.002475833206399075,-0.030280912624215395,0.015096214583673022,0.06595365073227173,-0.06290134884150998,0.011133639235660171,-0.005246193923858725,0.05774957022020305,-0.044573144716915196,-0.03948598001992276,0.0002822655159749226,-0.05164326219989187,0.02111757423671371,0.021610311234926963,-0.05310598891906096,0.009581919992227482,0.0015820118523768242,-0.011606532818577037,0.038279613617592474,0.07389842556435827,-0.02153408345613965,-0.013044384340758613,-0.01626473151386128,0.047446364523718025,-0.05419851852510958,0.002168868938669925,0.012675172928413806,-0.020412570444076863,0.03813544015813731,0.041297171874166295,0.008394423939349098,0.005250037568733701,-0.023414250315009818,-0.02459631854548,-0.006248770568237589,0.029769599777807316,-0.0130697124234766,-0.061095653492026385,-0.016970526383326016,-0.033961329540345725,0.003961590114838697,-0.013340369372265716,-0.041760230747406944,-0.06148371003503634,0.015286207908959971,0.012983463689895298,-0.02001890537972067,0.013855780125616238,0.02549343238092545,0.02947272115923038,0.02005205000171514,0.035494483678125625,-0.07962814651978406,-0.048982435201256835,-0.01807979797908829,-0.004668811780384942,-0.0047345323399013515,-0.045121405348756784,-0.05679470799550946,0.015070817028951628,0.019718586638479974,-0.0007856127309639849,-0.04895152411850507,0.02443912171597314,0.008538803091684985,-0.00845631492779368,0.01377438683499859,0.013474802353561856,-0.06716997635127561,-0.028608110294126125,-0.0038583146776005714,0.007411395830160553,-0.011762068910848085,-0.03707730835898954,-0.05738451250090557,0.015232454220929448,-0.012437285078215945,0.005760044038336093,-0.07888030191057346,0.020209158982348235,0.013174500090401327,-0.025109962104553955,-0.0040242190075748295,0.017453418829532344,-0.08777068286846398,-0.030230597394738008,-0.027825227924440768,-0.0026244791202519532,-0.02366842739283733,-0.08924186457883686,-0.04521334165477137,-0.06967417233709343,0.0026720535491087855,0.002027423659739126,-0.10142639881806566,0.005821214837811643,-0.02054205674779072,-0.01110879632973024,0.004093663676332888,0.0145600799446179,-0.001854266285501512,0.008251098139562953,-0.015494341325818095,0.0004912827630198583,-0.045713110025875,-0.07037126904763508,-0.010058544402312556,-0.031035606543257446,0.025717232943515217,0.01214998880382438,-0.053201336000511044,-0.014276642182602581,0.004305508511557043,0.05416059105120374,-0.020402376152369492,0.09616769558604163,-0.03729263580430122,-0.07486816731502507,0.01003590879267045,0.04728927062735806,0.016019081931488967,-0.01607586576256505,-0.05309307025034863,-0.0414662087060115,0.04733504412928352,0.006627562270312176,-0.01589460899137713,-0.013438566343877491,0.003926245198176906,0.06682741931511703,-0.018802507821835898,0.11080591244017117,-0.08737743122081491,-0.0735639495702631,0.010994041006680708,0.07119835406918776,-0.0017590277299118617,-0.062363690896674415,-0.08976492344301797,0.0354004903415559,0.05822049038423778,0.027205131348343643,-0.0628935323283843,-0.00813002419258628,-0.004518012390191395,0.0381193767736982,0.003689060114526475,0.09961829557539376,-0.08736876136605189,-0.040823334930696384,-0.006113723641355426,0.06479079567617249,0.006287171790437931,-0.051788314989565876,-0.0675813021551515,-0.0006706703801312476,0.02544354006882275,0.02632770021203298,-0.056689478871746996,-0.0203082937027554,-0.008297403891235561,-0.022966825076178025,-0.008351390851643652,0.056498888288020285,-0.1169692962917647,-0.043144461234103246,-0.030369095841569844,-0.016793276551825425,-0.011026502224265293,-0.10665604702866593,-0.04516937309885836,-0.06653641806946951,0.007282103143589272,-0.005437451854506383,-0.09325543118299973,0.0008033915308938319,-0.011477085562056977,-0.011734939830992283,0.007311347005327416,0.022367202457623976,-0.04702154343050618,-0.023014294137196085,0.007502911523871588,-0.05086274631122878,-0.01726211338343891,-0.09917336795361258,-0.03556244496509755,-0.01934332711254821,0.027622180105271073,0.008485934745891282,-0.06326920625039026,-0.02113062044445107,0.008864679393446694,0.006566182135900105,-0.0069554111749978885,0.041603772905635404,-0.003121978882824733,-0.024348420344336347,0.005908113079670974,0.022561357010359658,0.0204800152467658,0.00766315378990812,-0.04512356461439834,-0.015254753130650119,0.012536716893096645,-0.01931156829724493,0.042624646078479544,-0.0071458298530147814,0.015792138867466245,0.021637716469686288,-0.001568178420833339,0.03272814476043949,-0.050609797328281185,-0.04911902095085259,0.008373764437666041,0.06309350677757661,0.035812848521980314,-0.024189261737789673,-0.09552517750555262,0.0463731071514865,0.01348423287058149,0.011322296076300434,-0.02730401310360443,-0.013573186896486518,0.015256364207641433,0.006661780608367362,-0.0017778966128232357,0.027284119639264186,-0.05824301847272021,-0.006570968439952318,0.014997559526221782,0.018953006804443968,0.042059637650748306,-0.04121297468532041,-0.05698182300823531,0.008154090929835255,0.00695380403593153,0.0025412507985719574,-0.048595909068236666,0.005379110339563834,-0.006381416234187532,-0.03003479402432461,0.006456539615826591,0.018052684026893417,-0.07486389931358312,-0.021439774360324706,-0.004114045864735931,0.0009995955415665132,0.04643565047658303,-0.07348762607774789,-0.05574743555157493,-0.039677105190046386,0.006138360570069167,0.004099768869928767,-0.06078230344115523,-0.005572482017048652,0.002061387435948088,0.006336493319629117,0.0031418847312719997,0.014595948092743819,-0.056692642078346143,-0.008511785601224491,-0.008538429860338134,0.035915578700888,0.0569273745341111,-0.08988983177707824,-0.02081341691965014,-0.020068581282288323,0.017784015596099146,0.0004332473694878257,-0.04951207541217398,0.007664216209000779,0.010771983014734393,-0.028827288542556843,0.016999455094139276,-0.041674783071742945,0.07084936684428958,0.000762561007393641,0.025808846273003144,-0.055285228239494236,0.018018980533086176,0.0029781420795430714,0.017828569698409284,0.013842539332521664,-0.021300396171188948,-0.020526680792102896,0.0670050797280992,-0.027015831840574,-0.004578641911215099,-0.02982990387811077,0.011306930321423528,-0.030615855827628782,-0.01534139955863116,0.0036795658887500394,0.006702755246848819,-0.07196618172335764,-0.007889500435486429,-0.013987289957929118,-0.03583851125487467,0.097921930122504,-0.014017286535533774,0.016727728013247317,0.0192612900806629,-0.00927096896859942,-0.0033230939743369194,-0.05751185990756767,0.017037686975835086,-0.04225750975685493,-0.021794307499323207,0.021702013890420913,0.01966117104907305,-0.09146843771878575,0.011388437760872047,-0.020901682683300917,-0.03857624606373244,0.030114202259697215,-0.005427695158822401,0.01877497565696134,-0.049379274271450745,0.006885332156543359,0.0021703298484169525,-0.04293508557162111,0.02332886234813297,-0.03613143434327125,-0.02656255265727918,0.019156336325765615,-0.011834483519902688,-0.05945890103602513,0.02671726748800908,-0.06875512306087485,-0.005163109718003443,-0.02241092988361234,0.024716259120865936,0.011121688699127705,-0.046888359900160936,-0.015088942503599002,-0.0032231659129751088,-0.048787289787669566,0.0312749268652975,-0.052564509853538145,-0.012757227699182637,0.011948496239217106,0.0021796211591828102,-0.06284344634287783,0.0034945892193529817,-0.05906021923342572,0.018650478420331282,0.007180862879663468,-0.015494635338133528,0.00815704696831585,-0.024083549441530332,0.0007717320294669035,-0.0032216925038603805]},{"sx":5,"sy":5,"depth":16,"w":[-0.021098757900102103,-0.09771148827436639,-0.09028507194127186,-0.024943631590493804,-0.06147544711090615,0.017464403505450463,-0.005131387093240815,0.005706551428471799,0.026071687084661687,-0.06183522177953858,0.009128239703853432,-0.1146187661357711,-0.0819903082974753,-0.017739918918334957,-0.010776727214312415,-0.0024435902723123517,-0.011993400222548547,-0.08847634233453723,-0.01434712614997716,-0.03721238047784408,-0.06544178083359564,0.014665744267335393,-0.009318846401439705,-0.016773045033119924,0.029014285806061413,-0.11961894930252749,-0.0354141700322992,-0.06449397068724094,-0.0552490007394205,-0.023864560243348175,-0.017345745681869053,-0.042854013860905,-0.02318748122080093,-0.05949304536470714,-0.008784180601946063,-0.05342010840911284,-0.054005967621078683,0.0020465267617134366,-0.019150778905245924,-0.005033554319346178,-0.00696840289078716,-0.056844383037470386,-0.06740987373868253,-0.05078294218268322,-0.049601260491872856,-0.048376772427825225,-0.010545856123594372,-0.02528646323908875,-0.019400252041156748,-0.07059239427755504,-0.06990848188127526,-0.08162423420290141,-0.06463964119412137,0.01743383318151165,-0.03601756151699822,0.0017040684107256265,-0.12132723051027802,-0.004806602954350427,-0.018742177760415927,-0.06332583349904372,-0.09964708354239356,-0.10762955698369839,-0.00658298337078364,0.0036388080197626207,-0.030503272223604532,-0.06851193701552304,-0.06637148971290535,-0.009917424961426806,-0.02758266831462946,0.017378103261799963,-0.015422271587176876,0.016744826197936893,-0.014723834369773758,-0.011598218164213735,0.023562851725222544,-0.08072982872723655,-0.08927483170534922,-0.029852771426079186,-0.021736516438572235,0.015741454652875488,0.0032371342456380993,-0.01796363454299353,-0.02636789843919594,-0.01585957612799367,-0.03190502197096539,-0.027709833761877013,-0.024415355189920912,-0.00037550892127623036,0.029287970398457135,-0.060734357932121105,-0.003486059423733503,-0.05673401307527243,-0.006282226445732636,0.011438662072448104,-0.04835936123355124,-0.0372887885500945,-0.027137215695416477,-0.04900031332799898,0.04986822650769653,-0.05775177770420695,0.005692213053920402,-0.0427242213820155,-0.06992214594470869,-0.011429545383393892,0.034270930056786345,-0.07839750644166932,-0.0427639341621093,0.028708304672320283,0.016804014154142222,-0.009055305997362427,-0.051880673587338444,-0.03564247866183341,-0.044450799866520216,0.05224343877352678,0.07362431921936083,-0.015190202234817202,0.033557831246412,-0.034885793980194826,-0.062169242276784296,-0.029669134634883673,-0.0011755148230925576,-0.0005554443760826521,-0.08328492010290009,0.04895021668419265,0.016907439215223422,-0.06956111869630309,-0.02272426483383992,-0.03671942424233103,-0.05070872760048294,0.031039931981761224,-0.021454416569261715,-0.06256526999403494,0.04931748721843345,-0.02783699187801502,-0.08421751807990058,0.0025837372697324525,-0.07959544981724521,0.04367548384345967,-0.06492130025793243,-0.0036242315905363155,-0.020276619550396766,-0.09918551843144567,-0.037988191802258375,-0.03018916438966713,-0.02850638714426546,0.006762665150081949,-0.05087431189953075,-0.10044424148751324,-0.05380067430674416,-0.024827111414298775,-0.03693742544962682,0.016376003246407898,-0.04244492115987746,-0.09796753137277438,-0.0125530331985668,-0.1009871667262366,-0.08951991634994738,-0.093196324351711,-0.02060984561851527,-0.01983511363083102,-0.019106776749655326,-0.01920013236927087,0.003948759680268743,-0.026129404415557132,-0.02059253001838101,-0.037836953941021476,-0.044891187615364835,0.05710370606586036,0.03396503204219545,-0.01665629361611716,0.025988975814328456,-0.04716489367443612,0.014182811032840003,0.06842411224611138,-0.01947716650275474,-0.017180501719320937,-0.04625457668955965,-0.002412730523354525,0.014259566146830058,-0.0553927375073028,0.06292817882437347,-0.029406647789111597,-0.03297820867333885,0.03307475182487528,0.04707522357701756,-0.049097919256196366,0.04134866398796705,0.02214229882240928,0.06745504666532938,0.03961239655115268,-0.024032814711491005,-0.03513341058881279,-0.08150862520312581,0.08113577270790895,0.03828582908327871,-0.012387737955372227,0.11264650605467783,-0.03677653366516397,-0.02153486988598043,0.03877916256898756,0.042907777697370565,0.0684330933078059,0.03496092929170986,0.07474940952699721,0.0464373186252863,0.017100490631254555,-0.018955840097794573,-0.05291747188132849,-0.0983867020034768,0.1098191765441298,0.06053807459239304,0.03486674708248317,0.11682210593539848,-0.03001854839144556,-0.05681671383349899,0.054659011820856834,0.0010589375108055305,0.15271535106542194,-0.04391564113321935,0.038916257412080844,0.03254754342712547,-0.019570873109490197,-0.022241138678924438,-0.03989853091393508,-0.07576897074760963,0.09740428208517984,0.017712057682313393,-0.012580765430975747,0.042391809490380614,-0.026640287377651513,-0.032287360498238445,0.055612406878783924,-0.05479407573708,0.06220723454520004,-0.014760543682177834,-0.030411819260788384,-0.012025467046581587,-0.06007839743434389,-0.0036720907766584023,-0.053815079577352515,0.061883057382122596,-0.0103098712882746,-0.036495728874326235,0.029211842136403907,-0.006465774749312768,0.01077055111481913,-0.0359012128411488,0.0536575056481961,0.06223282012889104,0.003094367072023016,0.045648184139972944,-0.024803881142031727,0.015915174699674448,0.05679841229256456,-0.01710182900168462,0.00785059047052839,0.0702809153136869,0.017967056571670786,0.009734980659313507,0.012093466330622298,0.037368513944707554,0.032463039013209,0.006206288901969271,0.024636800877568303,0.09262578468747172,0.030213802568703072,0.044154737794828085,-0.041188525235655596,0.01413075326751879,0.042855200384707914,0.011219728967224906,0.017841643924116874,0.05426224087002273,0.01781201317441777,0.016693336440946883,-0.01505735162234729,0.07822644256096035,0.020471230823790047,-0.0003798089964740076,0.023095386689626584,0.00394383356313687,0.028364143847334076,0.08178882560036806,-0.02979470804625641,-0.008725244859999698,-0.010001360075072494,0.020396140929305095,0.009979950880470035,0.02972324855110046,0.024043690406169355,-0.03374819537621186,0.04258752836346086,0.10852114474997926,0.02099503443364269,-0.0019355555646176999,0.0634509471157437,0.00035216306707123275,0.09677423009643436,0.04466642482101512,0.009062831255173319,0.0026870116322746506,-0.007418535742622411,0.008065156010539414,-0.002791381913804763,0.02366008603921351,