{"layers":[{"out_depth":3,"out_sx":32,"out_sy":32,"layer_type":"input"},{"sx":5,"sy":5,"stride":1,"in_depth":3,"out_depth":16,"out_sx":32,"out_sy":32,"layer_type":"conv","filters":[{"sx":5,"sy":5,"depth":3,"w":[-0.1771755747842062,-0.0300346363599802,-0.18050807054852816,0.26812445520156236,0.11051802474160242,0.12178560260829947,0.32100559315613786,0.12749093412579776,0.3500595435810423,-0.051498361534815226,-0.2736721556095829,-0.2068055026198255,-0.1821143739202819,0.018968945416768964,-0.30269365557740413,-0.011336937458322795,0.08550872330055258,-0.08442131234767128,0.6757144881425933,0.4364344162934815,0.36260366318185894,-0.2068166434311602,-0.237340479022518,-0.23673170525156614,-0.5983056517079561,-0.5726528059310406,-0.40995186738878703,0.15611092600204626,0.24302599026704086,0.19622823797470218,0.318456216518938,0.2538345544803375,0.36766380319886094,0.16607732552038357,-0.05334484520628358,0.1602584898820416,-0.8898993295451517,-0.9628869800192582,-0.7743997423632428,0.08879425079663548,0.036495320848042724,-0.0494212618991492,0.3631811645095083,0.37869372227379355,0.43568054006770085,0.07776185049133147,0.015086273098492144,-0.012061642197024179,-0.38641844441346773,-0.7098311558609858,-0.5164981018833942,-0.16689035138551941,-0.3836479212972866,-0.14221101099362013,0.6281161100266422,0.5564070891576225,0.44133419185353595,0.02682052447775392,0.07963435710861994,0.3074196896355059,0.05459953084950991,-0.4575197389945761,0.00866975273581633,-0.14352247551874756,-0.11154917823185,-0.050957008816766076,0.24730833300016142,0.19736447584654948,0.3730955618328307,0.15341886518142034,0.1836361219615079,0.2895543291986675,-0.2707848231646235,-0.17049416971828382,0.01957114326505955]},{"sx":5,"sy":5,"depth":3,"w":[-0.15657152950516634,-0.23873939752578272,0.12131026288671717,-0.15676271545652912,-0.3814292265709263,-0.062213721017578105,-0.1502379375454876,-0.1656956952030471,-0.08889906261497592,-0.060583335617619485,0.19077806074891887,0.19742989485144585,0.12684657429897495,0.14674110683361427,0.14329936965554002,-0.04797679796703611,-0.3272915960554468,0.13104370138048385,-0.04203669114238869,-0.2556060780119458,-0.02315994079512984,-0.3288801105612414,-0.05178873955464689,-0.09940016382597608,0.00713142545551975,-0.04428280675032855,-0.033736624709142765,-0.06227464197642338,0.22098812475856447,0.30006007050153627,0.06834507339330592,-0.17750317449926944,0.03289589424860397,-0.2872475230813113,0.042928370021514166,0.0059329201117377115,-0.3731984197614979,-0.07936460703725004,-0.04721580128998304,-0.19551678049715568,-0.12387658631745481,0.0299912141111705,-0.1921445653115126,-0.17418786335504874,0.1277634436824633,0.09980823013077747,-0.05210693489630651,-0.005104967436329855,-0.09005911491186172,-0.03084586169576681,0.12789696193674957,-0.14397432687341238,0.02896868286058577,0.09773405312700087,-0.09750226210968864,0.009674622144464462,0.05849525462357818,-0.060881037892356354,-0.16325153987271868,0.21093994676935246,0.22073623947148197,0.052682655324251794,0.18805575651621506,0.012875093903181369,-0.011157529271695716,0.3181899713806647,0.1676625009711156,0.015661043829914758,0.20384117044519576,-0.22044963554661393,-0.07119552451040621,0.2056991961363292,-0.1661442615053293,-0.03504791993023358,0.08858914335495269]},{"sx":5,"sy":5,"depth":3,"w":[-0.02629406657196572,0.18577650376275945,0.11794786906247924,0.06148366044195626,-0.10727090129888013,-0.08275840484651215,0.32185000947601256,0.3316967200590868,0.44862748478885606,-0.4569403161526436,-0.5299899222170514,-0.11040277505526304,0.15519793040985783,0.10756531399935784,0.2640374189576665,-0.39082746342971547,0.06993309833253032,-0.1442996225279175,-0.2908062468820799,-0.27359108065401855,-0.4177644894950013,0.22730023538667113,0.1703379795011985,0.4744921219246306,-0.41153839919808105,-0.8188712944588393,-0.634898711187222,-0.004539328335553394,0.21151927816435545,0.23657753228802214,0.15306606393447908,0.19383907961727903,-0.0009825560579023646,0.30683424418792,0.289066268488509,-0.3416966397717476,0.3161737551900943,0.5432285861371602,0.34500891917006604,-0.3634766461592403,-0.2796262044717089,-0.1604447196314721,0.282654421854586,0.4546324969247734,0.437466572333614,0.04856189531237174,-0.0002973255188638892,0.02519813596499701,0.0900647828027466,0.062089548608473384,-0.11419169548174453,0.18051222720665644,0.12522954306075212,0.11555459843995447,-0.41287244743139784,-0.4651815777075326,-0.31223201492718144,0.0576591418565545,0.03364404120699283,0.18660477177938362,-0.06486204417062671,-0.19821561137641588,-0.20738118854304244,0.004530605396749637,0.09132799619828633,-0.012864878841410668,0.16983276638601244,0.18764374494710917,-0.09913804218255172,-0.059382151744154815,-0.4473350652090441,-0.08557808224605663,0.0426013025948274,0.1484927081250903,0.15119450823898306]},{"sx":5,"sy":5,"depth":3,"w":[0.14462782397829235,0.08024348172587513,-0.00700294187404266,-0.035375742205626476,-0.11985607641820321,0.028925946191612293,0.3355076851163786,-0.16651883514318652,0.2221578766010758,0.4172919700764167,-0.19747790653002473,-0.17226222052811646,0.580568580842736,-0.211921207640022,-0.1421126767459902,0.2043697892925582,-0.15195735738865862,0.06634157921120917,0.45580062309122293,-0.14726207438982086,-0.010048135013215798,0.27892293423751885,-0.15166140101729067,0.1291187474885872,0.5061119034136815,-0.07882632965230453,-0.2231545342489682,0.6271165700277957,0.07057632556965239,-0.12961465274019332,0.18627918911369462,-0.4250005497819441,-0.14015456051826206,0.05719782690315943,-0.5525789970927875,-0.08933541237728124,-0.08633601001453986,-0.42814965835217944,-0.13580045783248829,0.007858295456000215,-0.5159519642967909,-0.3776967758538506,0.21244617430342919,-0.24320035985358388,-0.17366260000730224,0.06851013123211178,-0.1116107850390514,-0.004265372955338018,-0.0902683072629639,0.0060048042016096325,-0.062231524473602674,-0.0688387381531508,0.010853577217517939,0.017187965134302766,-0.05864584077059366,-0.23967782783390876,0.05597771690226793,0.09731220148329163,-0.34446479526180845,0.14503947660592367,-0.4346430763854818,-0.06061111203934428,0.21732318211730195,-0.23682829907947203,0.09771777529404758,0.3683653270852768,-0.2666895101922151,0.24579576543337556,0.29743984290801734,-0.4103936246137256,0.2514198388604223,0.25559926011961553,-0.2668154604369149,0.15518190289004388,0.23607002956666331]},{"sx":5,"sy":5,"depth":3,"w":[-0.1991607429470978,-0.05673980015737833,-0.1357016932859344,-0.15099203341133746,0.15238624439734297,-0.1210836600506556,0.09027558262640212,0.3856323767802253,-0.040583739816465486,0.12077840611257099,0.2487971300060987,-0.00079442550090706,-0.1859034228349082,0.02246724638276548,-0.17899872149366625,0.016411398733497187,0.015115365043479167,0.07743537101599401,-0.336470436192186,-0.32154041941112566,-0.3800886181485594,-0.22847851285215545,0.07640842814594342,-0.009205458222767816,0.2243533582246686,0.6478230696422204,0.09504377745778117,-0.05437243120501419,0.008806915454276497,-0.2951264702132397,0.25496679316283,0.4322329584026076,0.2734415983378709,-0.03985177212006348,0.08857158315429406,-0.05082607889441886,-0.7352646326160971,-0.6514237929999334,-0.40790917657219455,0.20766288393451782,0.16112143763329184,0.17423083734145764,0.042592422843492156,0.35479900012962484,-0.009824921802402414,0.0494080895424348,-0.03718326694998734,0.017383255943876953,0.653968811237086,0.4047790811044928,0.39021806275086834,-0.3658625885600271,0.041731595093958754,-0.27272275388894796,-0.4518796902962292,-0.4384464187094236,-0.37122355616429276,0.16409384634514038,0.4680371513890941,0.20621442190906555,-0.49611383364871686,-0.45799544123972413,-0.23148218045995497,0.06178469451985666,0.07968059309885901,0.16195235179668124,0.325023459380474,0.2187202365440381,0.4480953513870363,-0.10612443356960172,-0.037728150819001376,-0.1170674999464694,-0.0648107849506273,-0.028242779088407912,-0.17995661337717866]},{"sx":5,"sy":5,"depth":3,"w":[-0.05120873120988426,0.06553747169482772,-0.028322626631514712,0.015277531145649443,-0.025356500042299834,0.055319458449501806,0.10771213287189695,0.051410027679471476,-0.07453530762417573,0.17516661371900305,0.0704101171672865,0.045436602833513966,0.11517521680734552,-0.10854026630257486,-0.06022985063638027,0.17464695590666274,0.1284978310883736,0.05980972822882046,0.22350065186717893,0.20416347697709228,-0.06311406318965783,0.15749545821274258,0.27184237215414153,0.06355544190882383,0.17322601291596762,0.1422874807951777,0.053688557388963526,-0.20512357396895303,-0.37868375913258573,-0.05523476359340535,0.11516158268434536,0.08517334904458206,-0.11454079323913698,0.14303874047317164,0.059614457699894936,0.06955698506362962,-0.005540149411071215,-0.004509493109540353,0.10524271033631435,-0.004978898133246647,-0.1877802740492333,-0.03931202117282234,-0.616704989677854,-0.3868854603537138,0.02354108798119011,0.17606596575718036,0.08700600965335999,0.1942127769751833,0.10704794758738023,-0.008757057979691302,0.056915329757933474,-0.06371606955699878,-0.19711377311350356,0.09211063788957836,-0.1876096722592771,-0.19223083079591038,-0.17009737477356043,-0.3131547616291455,-0.30504538517052543,-0.0991327039692386,0.12991110475449422,-0.01710671168470218,-0.10493509559522571,0.000003442462500294065,-0.11658502469267201,-0.06217070550830266,-0.17431348736282404,0.01438718103704561,-0.10163175460882745,-0.24583374745196002,-0.11155604106892551,-0.028782802138330257,-0.1354632127896995,-0.14520954428018973,0.13938773168536192]},{"sx":5,"sy":5,"depth":3,"w":[-0.16380992725799012,-0.04914519841467712,0.12868056543496112,0.07099423712336113,0.09401628819366316,0.28767837767120363,0.24467424075337618,0.10766355934952627,0.05911442852963304,0.05907701819186079,-0.15918939611565128,0.1463400517572656,-0.23365817358026336,-0.11793745909374968,-0.15292675104189762,0.13243189081848442,-0.054041165295910056,0.10534190562863904,0.17478895962955346,0.14020939075448935,0.4526711536015712,0.2343628561284629,-0.014808298553068117,0.14356032631901186,-0.17579555652745835,0.03322184976802818,0.052086605667225665,-0.12064328328439344,-0.09478930332832566,0.07376214599154224,0.013499450874898166,-0.024711925808864586,0.13666296451313714,0.12291154439263388,0.0695740403079911,-0.12637534166994208,0.0936546697214713,0.18271567655124316,0.10926631798636574,0.014611211670474241,0.04300121830572984,-0.020989748973780933,-0.11492168565182291,-0.1896429396356325,0.204356618475361,0.09174002846887812,-0.05232927234755696,-0.09183547477273152,0.17873405315874158,0.1759883216533909,0.01952264225511645,-0.04530287923626608,-0.021132908256779687,0.16325550491869337,-0.1133031577069973,0.042358747221429585,0.1956316603818924,0.12924092056353753,-0.052059391513221864,-0.132447841920675,0.1196554677210271,0.1444611830021393,-0.1193377586633137,-0.032985425317066774,0.09596931010708726,-0.24226445876689495,0.019170947157890198,-0.19273198907887534,-0.022995039528701883,0.2010226536195613,-0.07754631649558417,0.042665762484868426,-0.05526513043574673,-0.10368119322752845,-0.20141181110396117]},{"sx":5,"sy":5,"depth":3,"w":[-0.13197971717523052,0.28537844866638046,0.1775070002205534,-0.004662411058609022,-0.056034749890387314,-0.02567965318016567,-0.3203348017093147,-0.4448266957673942,-0.32515508452463493,0.28927933858541044,-0.14912478126341464,0.20886917280722248,0.24843350085263086,0.09659151020687796,0.00017527877879384063,-0.17889110166058783,0.21762895646326275,0.15731873772306662,0.10732303660420309,0.3942388028461402,0.49313919969309883,-0.3385819933772057,-0.6236390723143606,-0.4933256604786629,-0.02771296124048141,-0.1351219449585863,-0.27519953817403237,0.48608010736982826,0.1039075906521382,0.12046259852231296,-0.14130442941573837,0.25491125126005076,0.02793411298801483,0.2897479361911369,0.43199714657466176,0.41083814530621104,-0.3829201347624263,-0.3863999362204323,-0.4459310209681848,-0.08166353395049067,-0.4691457200443923,-0.3557892821335179,0.20205025254310247,0.4520020274322448,0.27427106001948526,-0.05890752263616969,0.14428673532251593,0.04856100248850376,0.1687001580290126,0.27174698118220564,0.4101183155612857,-0.4040452816062814,-0.19859527707596875,-0.2111349583501735,-0.07076434988924475,-0.4391390779863176,-0.21214430554138874,0.29070950363657105,0.16017952790606518,0.0703703934801953,-0.227471851773387,0.07443078916096539,0.248290881092476,0.2093159272241768,0.3594014277780766,0.3268087956746241,-0.07123814767131621,-0.24186794847570675,-0.18039652436892367,0.03137171266321025,-0.36275396912961294,-0.1360119662576403,0.048522003141998477,0.12970491370289716,-0.05489582925371126]},{"sx":5,"sy":5,"depth":3,"w":[0.35686201370324055,0.15379773616249354,0.20392371786880498,-0.4046983929093642,-0.2894200377767148,-0.41771541526071937,-0.3334223230101777,-0.47538428982497477,-0.4646943277442191,0.3833885472662916,0.556498891082796,0.4603189552400356,-0.002931417098366438,0.003606060360972836,0.1476131788467156,-0.5599524510994065,-0.3299845527576072,-0.34031224375804914,-0.034437155200998416,-0.22980292692470547,-0.03306609020731466,0.5415897436439204,0.6639771875889726,0.7197663672404344,0.47834298137898434,0.3840412237033115,0.25149021895023405,-0.49644833299881985,-0.32614576070167167,-0.31393414703414624,0.22168575844097063,0.3198089846791366,-0.015877522215337028,0.3680021132481735,0.5154507244256649,0.46692125884215646,0.09673146932637228,0.4871282906606572,0.19824577599848625,-0.6181516839732208,-0.6733382845636998,-0.6712311191633651,-0.16286591829708452,-0.14824165660477,-0.23399151826742798,-0.14786226463407207,0.111360769731799,0.12790537199780977,0.13572408899661767,-0.035565338338886886,0.1258896541332994,-0.37356050890536047,-0.3334810299756556,-0.3202916205775325,-0.36480208586727225,-0.24507658830536286,-0.14868379734358256,0.43514384478015883,0.16659317745676516,0.3926478827416966,-0.010722264050349085,0.012681100735956002,-0.053489954483081775,-0.030235658980569485,0.002749644999309076,-0.11221884510505446,0.03313426942461127,-0.036979969952039594,-0.06856115352979195,0.28684397081249596,0.1294928253151242,0.272004974721676,0.04928871918731367,-0.10368509534186734,-0.1370958164719454]},{"sx":5,"sy":5,"depth":3,"w":[0.1332361349735584,-0.1010197679992952,-0.04457157354550623,-0.2199084900956238,0.04409951465507821,0.2531924474214011,-0.1959448029411528,-0.04595730383602259,0.14919025365063854,0.03908670916369951,0.012751717055490852,0.1494443754471657,0.04673338829503465,-0.17483516539462438,-0.028865877589865106,0.030704900141957106,0.11737883066992832,-0.062265916824734674,-0.2919794101894258,-0.02324143027125362,0.27449884184843026,-0.20506505670159864,-0.1151125382481819,0.2805036856762745,-0.09715610205222157,0.15219915722182625,0.43018566821719995,0.09787755665256012,-0.07577382670755735,-0.05384515618372139,-0.17829118883746956,-0.15607525715660817,0.047409889175760445,-0.2454265108570777,-0.03519367386215312,0.21075553642512124,-0.40106419363420454,-0.11129364995807245,0.4118696183599056,-0.43217925988426015,0.1659156834904894,0.24544627150761175,0.007802729866694619,-0.14372659664978954,0.07631742820793823,0.07247447049804613,0.17402983901250227,0.20178922057354676,-0.28783317933088387,0.16152916871077014,0.4217120692451739,-0.2682976053743032,0.14240814661102416,0.4202525642624231,0.010713172489058516,-0.0297967128020729,0.38236169265392866,-0.16976263295815022,-0.13463840381786266,0.13841173916104613,-0.18173446370575866,-0.13507031106068793,-0.05386259261811876,-0.23529170692878695,-0.13442989374510436,0.10587789872592988,-0.21688670847186964,-0.02406485047253772,0.035532679590729914,-0.14620282181967212,-0.049262459932072435,0.029521658503421762,-0.10047642473399546,0.08035353603185956,0.031926325552497255]},{"sx":5,"sy":5,"depth":3,"w":[-0.005713338074663438,-0.18713203998478825,-0.26191864252903,-0.012277430714168674,-0.25944356381956774,-0.09298119055127278,0.2124885054780067,0.06499773371539729,0.051534719447486034,0.0637756045050377,0.15448780394454734,0.16516651994065648,0.08006354564156645,-0.0005249200868077819,0.06739488178170637,-0.2506167824056275,-0.235518232767128,-0.29111939850932217,-0.10331205511825786,-0.061036150221349686,-0.19368767583889743,0.24777649925277903,-0.14861695285549345,0.10456079758778555,0.27512842812124033,0.14216660032860878,0.39323069444827513,0.08605917949251493,0.16538440428971804,0.01778433999801507,-0.14050052293387144,-0.06997474067346164,-0.43372992210121736,-0.06831621757332719,-0.14756883594938303,-0.09783681731010044,-0.041745851053489845,0.1088262736894032,0.47533664776575846,0.0762113437471341,0.21146119233080699,0.23739880874789818,-0.03465589812240032,-0.11375350242125869,0.25003950446824436,0.0279207371053295,-0.34665998356948974,-0.18281574693838878,-0.09560735896037083,-0.1121963581789997,0.06815493522308166,0.005475511459678615,0.13547142556429428,0.2097005100649498,0.0037328214015252444,0.15815324037178977,0.19544223069143637,-0.15585476684041452,-0.03988186907477087,0.10757529829387816,0.04939878176372231,-0.1325927183542998,-0.16481700224215992,0.1909653989164724,-0.07686018949913784,-0.03716951424165487,0.09247077499934897,0.10649420694066486,0.25217005309864343,0.04299205254371941,0.18253179460699548,-0.19563568811526963,0.0587084082705187,-0.4337240430868634,-0.04488615467516263]},{"sx":5,"sy":5,"depth":3,"w":[-0.021271096206721834,-0.027504654289864077,0.18258976575649297,-0.2369552459288172,0.20427953228363785,0.2787163402086053,-0.1977452426638992,-0.1356852699267443,0.18429799447038855,-0.23121944818483142,-0.15757872797385797,0.1913643822244398,-0.18637310193427697,-0.14775786656938478,0.07859457969644108,-0.3395411363211295,-0.16169058945143702,-0.15593154697445996,-0.30293361312412254,-0.348387335466742,-0.28719026880835363,-0.6705493037776644,-0.26109156254242183,-0.29372792428367406,-0.5307578288370238,-0.2783919654298606,-0.16299030714602272,-0.2782086358500987,-0.0793390197428664,-0.03385542072190406,-0.1516983260838028,0.027687544589136723,0.12449695118632845,0.029446057096789557,0.1384687545321829,-0.08856132148935131,0.16262148365261125,0.10056936043182908,0.17053911960888077,0.393447916489958,0.19501224602423364,0.36379190464294164,0.34575007111929956,0.27684512647440246,0.25185358453057916,0.24589759293183042,0.02252218448121335,0.11067639046099287,0.22746128723896214,0.4109859766017696,0.04703677006782645,0.40076638285731636,0.12520766204213185,0.06430690584812153,0.3877335213531502,0.173182081966689,-0.06679675277333968,0.4347783481175563,0.05552102487721409,-0.0637557353942913,0.2977989887452511,0.05012408413784485,-0.0005244504995609131,0.14306390879264638,-0.11591003024321246,-0.1677744905178485,0.04837514253806228,0.02562520649260733,-0.24885662652307677,0.040386214927095564,-0.052784642730647924,-0.15105135786192225,0.03151342284596883,-0.2105536575056317,-0.016764322886616213]},{"sx":5,"sy":5,"depth":3,"w":[-0.07940919308197686,0.03228412827676878,0.046903036885410095,0.14514966305122992,0.17063321147007546,0.19874633109149314,0.06603512860502155,0.02038714706677859,-0.2795684595411212,-0.21565876125363967,-0.28497878159592843,-0.18397663910894035,-0.1365338359760682,-0.38563724180998227,-0.11116775331805508,0.12960758646921136,0.17083174971247136,-0.14039405807177238,0.09122986647202397,0.04373700304054042,0.08827255130167609,0.33895449670787836,0.27930901727914437,0.11068768595744305,0.416641566833831,0.3452944654518787,0.4378299143679852,0.02341741778842104,0.264952150586314,0.13517316373891955,-0.2035426219661314,0.08338913336643822,-0.02296688597640684,-0.0026373706385737204,0.0573684602275552,-0.004413019151977795,0.10004640911894647,0.005477014459791753,-0.019081442071874587,0.35490950365728846,0.36622560949075855,0.20579784787243796,0.4103586916201853,0.536456348488074,0.32916193041367847,-0.1967536870679052,-0.22004856976542908,0.052477833764755094,-0.20806077881836382,-0.2910979302649889,-0.033842015812568516,-0.4275894913367628,-0.525683245699107,-0.27930104126344696,-0.7950378784251544,-0.6071362943628832,-0.5014443280173935,-0.2888610263145112,-0.13271378464746258,-0.010228791289122201,-0.12717922950365138,-0.13704678966636274,0.12031049519928211,0.14144728612980975,0.01574847446430288,0.04717846937239414,0.06397061690382846,-0.13260415821946556,0.32381020241919833,0.15052022555911332,-0.15885692427191722,0.20587147973751904,-0.02347100617543746,-0.26040108825468716,-0.037486922291911515]},{"sx":5,"sy":5,"depth":3,"w":[0.028360407337334612,0.0725394382224985,0.1208723017723507,0.11918881606304844,-0.11073402260542158,-0.153067677098187,0.10495307722053235,-0.24507106729957318,-0.13524518715260303,0.0508954802809383,0.012879351869128666,-0.15868304301476685,0.2986102818317457,-0.20335917205412732,-0.20070091031913131,0.07131517854397752,0.16471159722296164,0.3248070093055581,0.2049594741719284,0.05266872110289029,-0.054366053618369325,0.09765918201702774,-0.21566651180927457,-0.14069622149011196,-0.004829990191398686,-0.41206909249872364,-0.1545660604468441,0.0611891527507482,-0.3081579565117568,0.15607995689714063,0.04848382590720998,0.036453880897607906,-0.0014419119879557792,0.3199987008234222,0.019548175517468232,0.23769881233820167,0.22185748710508138,-0.11368338929925507,-0.011695240380185552,0.13518785277381892,-0.2692370849907153,-0.20746862609526662,0.05135519303511263,-0.31169698960319464,-0.1680484941704317,0.14498013606510268,-0.2903956354002186,-0.012489687118828191,0.30021907057819186,-0.06223734422939276,0.25364551280863695,0.10240165407168944,-0.038098528285877516,0.30887511905037585,-0.011443902698864496,-0.1366472143487752,0.0953789793245882,0.00040500840520129287,-0.5251393822298396,-0.14279522289812302,-0.08412397483187437,-0.20280927175688795,-0.024162148620283735,-0.11887037488219349,0.07218367303459824,0.29407498305628843,0.3057884542055009,0.03002485611321565,0.3623177861871336,0.03249265684628384,-0.01832729635905846,0.22817834057010053,-0.1059731207538629,-0.4262055180335521,-0.1797109542246991]},{"sx":5,"sy":5,"depth":3,"w":[-0.14628232571377497,-0.28473071812154227,-0.0005842356004623746,0.2588308711926118,0.1802029260406187,0.2312320683226245,0.028232467280915694,-0.07357891187852039,0.0824783880418725,0.061026481151669004,-0.15208194577106413,-0.047144238038761034,-0.07438157198128371,0.09634268941779167,0.1367412510518561,-0.14718833345570098,-0.38406387146666193,-0.299551460605838,0.393623204876082,0.3419301792738095,0.18422073724645238,-0.05946366626088389,-0.13180347547065716,0.06863916757571603,-0.15180121173691444,-0.2749982752411102,-0.24708198939090567,0.03974143814687496,0.17593577462302862,-0.060097754026176425,-0.33296289583696265,-0.3893896087779077,-0.1610754427446782,0.5186511059204398,0.659683834110258,0.5603308843680176,-0.09217361201212847,-0.007962685508885684,-0.049772869257853965,-0.3031269106608876,-0.42920552865416517,-0.18177707535559914,0.07508601548918582,0.4099903348201086,0.24225663093740443,-0.1943626295265129,-0.4169536930858792,-0.3753576167959258,0.4499367696570243,0.47515781348736946,0.3124012775504367,-0.02178864087666238,-0.19737911828895938,-0.022365532652043923,-0.3802537497153267,-0.18656858308348068,-0.2976694978164131,0.0808034081545024,0.25836222850785057,0.049213359562433355,-0.06315557786182062,-0.2867778295595509,-0.10978531723945066,0.4257904505279392,0.48505683506542147,0.35672286205449205,-0.17947590247467549,-0.1502223407396081,-0.03985497484897686,-0.0945968847260565,-0.23486130910966763,-0.10879276571259387,0.08302444506741012,0.12481916423553552,-0.030345514661087248]},{"sx":5,"sy":5,"depth":3,"w":[-0.08082158277380665,-0.01669782730924627,-0.1881367216917383,-0.11607385102734545,-0.2710305226714067,-0.08272114113914371,0.14190418523249676,0.08084946936224936,0.09151788707905284,0.438921032933816,0.36305105984760344,0.37476334372246556,-0.20523095802120075,-0.0158850862865591,-0.03187186296139309,0.10426494081662009,-0.057032256413344744,0.011797590011503094,-0.2645870416553963,-0.1867079549139188,-0.026304919404831706,-0.3584785826209732,-0.356514597352777,-0.459714197924978,0.05039437852056081,-0.08577365998536411,0.10567958719360185,0.561112152570539,0.4292604194404793,0.4604414033099236,0.14422996929964335,0.23744986087112033,0.06125800153338137,0.04719473564886213,0.2028802438360653,0.04528420377098439,-0.38096448131607247,-0.3220052813169085,-0.1036091226154115,-0.6936483633358119,-0.7186316244920772,-0.5582970596675781,-0.15251815269120714,0.05685136054601386,0.05685460698885845,0.22456492144966628,-0.05678704543816585,0.1529417777305641,0.3086694629950696,0.3553570070859267,0.3555105119265558,0.22921019867639475,0.32773426397236566,0.20198954814630962,-0.11330903218914502,-0.004297311588158272,-0.1904343689214696,-0.37081737070782655,-0.6486501089278873,-0.2629528741089716,0.09304726611990155,-0.23841238266065648,-0.2631399763343258,0.023815386011805016,-0.1262052630598289,-0.08478068468135132,0.17000312292272723,0.20334680064353108,0.30886528588784645,0.4146334551086096,0.1872859028644611,0.16435920396390222,0.18045688011028954,0.01160624411466679,0.006951693658480486]}],"biases":{"sx":1,"sy":1,"depth":16,"w":[-0.1409684318188737,-0.4556066336571418,-0.06932161166041931,-0.35324022211902656,-0.09927105517249069,-0.40833510094997166,-0.20999487835293282,-0.12805557061054013,-0.07317339634871019,0.21927658639373737,-0.18545074131297656,-0.24133609497441422,-0.2504363784421196,-0.21001358791976008,-0.12512502065249156,-0.12944700943251666]}},{"sx":3,"sy":3,"stride":2,"in_depth":16,"out_depth":16,"out_sx":16,"out_sy":16,"layer_type":"pool"},{"k":1,"n":3,"alpha":0.1,"beta":0.75,"out_sx":16,"out_sy":16,"out_depth":16,"layer_type":"lrn"},{"sx":5,"sy":5,"stride":1,"in_depth":16,"out_depth":32,"out_sx":16,"out_sy":16,"layer_type":"conv","filters":[{"sx":5,"sy":5,"depth":16,"w":[0.014251057709592384,0.03244818639367631,0.15780686316468795,0.11441901818029708,-0.030559944951287207,-0.1416858340466235,-0.0012736166845239087,0.09192684403314831,0.04621954309314136,-0.009059258126465354,0.03421161419830143,0.10251055561382466,-0.031178130440044395,0.11154175973608288,0.03667319258541208,0.25179778953751397,-0.0731569344265323,-0.12996785075895603,0.13943268322899585,-0.005111909789450232,0.05978723246946287,-0.14960073095129892,0.1359104311194609,0.0652770051409961,0.17267978513541024,0.07298259277749987,0.20782489510123364,0.0599659861570005,0.09894958687881376,0.11736944140749013,0.07721741796086787,0.14740770354759364,0.028003054062925505,-0.12003486791400744,0.10022891323351694,0.15153816593162095,0.012316656437568135,-0.15812296497622974,0.16253757140225963,0.01288008378538337,0.15441170005677643,-0.029326129471866823,0.046146390164816656,-0.08343591035447187,0.00880112658282168,0.04747595644536646,0.06721899964295538,0.014346576180126832,0.10366913277617186,-0.15823901971680293,0.027772912632070726,0.10091480551101194,-0.030383780526745785,0.021555773984308392,0.06872390880926321,-0.11224269814398975,0.12677449891400747,0.12557121907347757,-0.06861587951601758,-0.05824345899089029,0.048784320798194454,-0.09110735121518251,-0.03400199532095317,0.004518738304252197,0.07716411480955179,-0.14002521438045595,0.052981289805174636,0.04438115649371909,0.05043566793493014,0.10582015907803677,-0.018027986095091666,0.021586738460797204,0.2571339314723084,0.09175194886169404,-0.014074111244513002,-0.12339891327384155,0.19588435533227597,0.01266011530554998,-0.00637942690121683,-0.03055814463857319,-0.08511360462980806,-0.06571612380168744,0.029484165761094208,0.11009023450488138,-0.00037493169742513425,-0.025411065093090948,0.050728373699203286,0.024206509936452483,0.06507492903707328,0.10635432060764613,0.04500760743564306,-0.02537250891138105,0.21512552627387566,-0.011333344993789145,0.02478751727811558,-0.13480262976794186,0.07605329544098947,-0.14165402232511334,0.012833873542152471,-0.07527643030963696,-0.020383818209916287,0.04128294663959455,0.07943603592656215,0.055645649479550724,0.051991325450452784,-0.005457046073464231,0.0619156627981237,0.05150539264369243,0.2051172719193194,-0.018401904739907163,0.03530780843953408,0.02253726787139515,0.006418522403470585,-0.2084087982773155,0.0024427300134069224,-0.04117112160138252,0.03606975365412363,0.0825947526374347,-0.02773385060571033,-0.12601209037398922,0.0913957034899086,-0.010054361557852939,-0.010476057827276824,0.0755641466439482,-0.018474992442261074,0.03299165988198274,0.006445376495231718,-0.10781499028568163,-0.05103752335243943,-0.13005544538142996,0.07026406191483056,-0.12745891422524425,-0.0494221471642977,-0.09712055498742664,-0.04396489430496453,-0.04969356985604578,0.0872033467835577,-0.047993401657888866,-0.03434206189914596,-0.007366896716098512,-0.03995772263546812,-0.010023879159479544,-0.08682108087128716,-0.061738406985853006,0.20768078466055398,-0.0700780616272747,-0.03493612136082326,-0.14843705575208177,0.036007481751747325,0.05813123050947343,-0.08539828771703192,-0.1170748556391002,0.0765646108861434,-0.08472358944977217,0.03287951328534192,-0.025302881935747923,-0.11150655188755983,-0.08369594798764624,-0.005051102186950283,-0.08252334404490182,-0.05205112358496038,0.021182913221498227,-0.00930198308189621,0.072679975399511,-0.16569631597728623,0.1308378627372732,0.020774130915221085,-0.07239658921173477,-0.02041690735696567,-0.05311158193257299,-0.12876328202284573,0.02643250295958033,0.09429015682313893,0.020098639404926153,-0.06513050333455504,-0.039785354972248735,-0.02220528208639202,-0.0909756529571208,0.0035012061285201114,-0.076991621429087,-0.1389343256379924,0.09141999994553172,0.05858437525345465,-0.0837318471303373,0.009191536102801413,-0.014143047315619696,0.024517747426667964,0.08415124837569989,0.08090593853626044,0.014235911970571138,-0.03253772034879786,-0.10408901434446739,-0.07642436547537396,0.000025172916088608694,0.02123626741110557,-0.0019994089756648586,-0.13550379813875355,-0.043887007307062596,-0.009412666935512851,-0.12793036639167182,0.020229903961350715,-0.11041389288452902,0.02744100185400931,0.00866453739394582,-0.02047621963261671,0.0648474108805564,-0.002034873341335028,-0.08649845480697424,-0.044913653383447084,-0.0673630280303679,-0.03679723823332905,0.0008354708692667222,-0.05788420475338349,-0.016170249999279542,-0.019401815625427428,-0.19589739944431117,-0.04783433166666608,-0.024731725053179155,-0.08688647149218713,0.04801153783424264,0.02852750054304885,-0.10446489270935523,-0.015089324316002892,-0.08420058060491602,0.23819316278946373,-0.049842398060820366,-0.018395538309708363,0.03233071532937937,-0.0599369905318615,0.03798808680839526,-0.03175707290674847,-0.13497043029983452,-0.03895188772200232,-0.02383505608847383,0.011455597344267066,-0.003385115115927902,-0.016064424359095938,-0.08258368362689018,0.005286142175484798,-0.12989117110963225,-0.12025643733489509,0.15345689195687898,-0.01882823834157118,0.09972944334082401,-0.019316352530308358,0.009284264217849962,0.02030076026126441,-0.24933510667169792,-0.07463328460621597,0.08885687214978577,-0.1940991030021806,0.016056801422346032,0.1863407944884338,0.003648795220782615,-0.15245801385000227,0.007705705490430756,-0.21550413003585536,0.013204405596435721,-0.01758146058947007,0.009275409869394029,-0.17680330591154308,0.11390485568703754,0.03916463711228826,-0.19447388932955426,-0.11615111854702312,-0.0610413858673529,0.004387419719516594,-0.04588066004670016,0.021962829979297573,-0.03264119075946053,-0.08734265081029297,-0.10562397194692336,-0.13328592578629195,-0.007274490757161452,-0.042687626368557455,0.06823133831507047,-0.06889613674491739,0.0022525740769087812,0.07514280536690209,-0.20720762724783162,-0.02790027687367229,-0.08597174246463068,0.01067338202476959,-0.05159678066020398,-0.02921942784926251,-0.03771103637805774,-0.023149969803717182,-0.06468870425254956,0.016849865982112414,0.07060385485367729,-0.031385235964197455,0.06114070310994409,-0.14504086191987936,0.06255307234231237,-0.009436348820025819,-0.17387923035075437,-0.17723268008772394,-0.0039473514406748456,-0.1555622691591997,-0.0950491637429048,-0.015822735357484435,-0.020197688415895726,-0.050889989618383806,-0.08261860869205596,0.20422129825620225,-0.035034227450669995,-0.06986452117931345,0.11639674680884955,0.00925103409479068,0.038480290789329456,-0.0364697979590975,-0.06766676669165936,-0.015127766303384985,0.04915346180488865,0.019499004325931706,0.016208019431641116,0.05327172249665445,0.04444714473683148,-0.028001843594992675,0.028407928777435993,-0.23081485696132337,-0.12764360083281343,0.030166643748332785,0.045248841873241824,-0.14409316964151148,-0.06922185145566372,-0.09190857794525807,-0.1656580510037086,-0.14338054212867382,0.013644605460206384,-0.10686750785891189,0.10796655138320028,0.05784428975039723,-0.0575210295891581,-0.027839599850742018,-0.09278574919297315,-0.033845589832888996,-0.12622844057735835,-0.07341190566726881,0.02135044299818219,-0.039530689753896106,-0.010870105715245952,-0.05482820326314857,-0.18315073778262664,-0.06541820832861685,-0.06126103142208623,0.03106697599420507,0.10541433117186086,0.09835159975635983,-0.087893365563044,-0.0482123302639396,-0.05512810314769785,-0.16627754764601238,-0.10135193620354198,-0.008397504858732216,-0.05788558633380693,-0.14992944868238905,-0.03306432258263646,-0.0821287699813662,-0.22085108094606565,-0.044643653465526865,-0.012484583756057512,0.035583813415389715,0.12519564511650888,0.0700865587452952,-0.010550710924991507,0.014234218168093952,-0.1752964751269684,0.05549021162637677,0.0598490693725945,0.05387568222404572,-0.0624779139339333,-0.10728125834762071,0.05985475968071761,-0.03981601408186276,-0.20534162809201068,0.012828979553601155,0.017673800453040116,0.039167662559354346,0.06842786989215463,0.0037553751380544277,-0.08570919049739108,-0.04631251248789492,-0.14901831379277333,0.14868207402980677,-0.01781408430533162,0.0030191848899588257,-0.10527340701457132,-0.1082909960819253,0.015193695103100886,-0.144603652033345,-0.024938444969055045,0.004526235838102409,0.10061585227834366,0.049429264383818894,0.032873395683618675,0.07684076190377208,-0.012560990158812622,-0.12320955288771296,-0.17173954275946768]},{"sx":5,"sy":5,"depth":16,"w":[-0.08362035206319743,-0.06003377285449686,-0.06352518274471491,-0.06825621305849826,-0.12045468172493835,-0.017008122623540834,0.0872420532287196,-0.11760967739315471,-0.024564491354028727,-0.018900500036676083,-0.11022181896758054,-0.018102298009605913,0.0029820331059314674,0.015663946907426018,-0.0912422372645084,-0.013944017542125436,-0.08386657282290107,-0.03042751264456589,0.006923196774906082,-0.06866946512843913,-0.15309593536095387,0.11651728689144876,0.042835899506451454,0.016515333642659898,0.03247965948893537,-0.03450330705737122,-0.06916953317307128,0.02368938794995218,-0.005315768702547092,0.05869042949824774,0.04190915383809837,0.09319952612594398,0.024835771192614618,-0.048661977310576164,0.08523703847720002,-0.016733371136954747,-0.12043201529127687,0.06615132934901038,0.008479325204998858,-0.017426987829118487,-0.037199873622347106,-0.007579719483303148,-0.060564385499177815,0.028141642719589435,0.0015658045627661267,0.10422225207836303,0.09865129642549857,-0.009606247279722339,0.007509656378860182,0.026475653509649144,0.13873601051451534,-0.00011763026885189582,-0.047795322461519726,0.0534051752287387,0.08199708596194939,0.04581895964687493,-0.07295649919708994,0.05555673089795665,0.00947579147376222,-0.05655502289391233,-0.04640988595862973,0.15009868848171026,0.10401534290926705,0.06585677688452893,0.048514441377478124,-0.005494729544023779,0.07518348082549463,0.07345299281077992,-0.0605522527852333,0.10742985823975551,-0.09360238829339677,0.12266790850247714,-0.025945770358433,0.27026552236238693,-0.003092861213465229,0.10118630205434592,-0.03802129552083593,0.05249615926268259,0.06223419075945619,0.06538684699407996,-0.08631550642995908,0.017228444162210192,-0.003573920716997905,0.016630728258698203,-0.12834672148485513,0.11009715825077425,0.059223164514108265,-0.13736411166399387,-0.04509948235414205,-0.020599119146400714,-0.13200859132088966,0.016902584729893096,0.19589313206415748,0.04148291823129095,-0.034967463143166594,-0.06900815820668389,-0.14871658530686752,0.04969766904788944,0.06645051754183277,0.0806679282618617,-0.12720498240712055,0.10916077381752542,0.07907967027932852,-0.07294850056465428,-0.07033348503091075,-0.04174290119946806,-0.028576924643883825,-0.029320784089647046,0.10480926748012293,-0.05688654402853301,-0.11916691403899725,-0.036862895575907356,-0.13477092210546907,-0.0011063620738489795,0.1180066664492789,0.01857359856622643,-0.11813081630715759,0.0570746719994212,0.05909934106782176,-0.14274045782076272,-0.041327010982400644,0.023834914773344536,-0.019724233739563033,-0.0512838514556793,0.1565596452490988,0.027319985476616338,-0.12365628032148633,0.06463972886486496,-0.05465201050774301,0.11181569252060743,0.11143138461975327,0.08199870747741206,-0.10251382020662554,0.08676597533235791,0.03927648861078644,0.05220972483628112,0.041147820815732095,0.0026044438239887064,-0.05433861591913021,0.03972455687648626,0.11572493362818341,0.02731855369506255,0.21112805323031295,0.01751562614488694,0.08383354636188174,0.1803094210727002,0.0052852455975646384,0.10507502682059917,-0.000361398500513188,0.235932597728226,-0.1070552139987383,0.09439430876329938,-0.0013947586231151385,0.12600985377182186,0.0020222879115601704,0.007413330184602288,0.1640635082435334,0.0693564976864008,0.02572812337979344,0.00881471602988974,-0.19324167982978932,0.04342308701473826,-0.07724452975691797,-0.08426707717774543,-0.053761705987079016,-0.14844655371770676,-0.1324916627034078,-0.22200468389244746,-0.08827877944828443,-0.03745575302518462,-0.12286401042625426,0.09685149860211255,0.0766657659139792,-0.02522424850521994,-0.07473613639815765,-0.024745028593626494,-0.3151974495006753,0.04027493873975976,0.014643923087722627,-0.05986213826966154,-0.10161205895108551,0.03668050370271194,0.011005926521800304,-0.09942398047192431,-0.08660662600263988,-0.07225014234343599,-0.08426318127777416,-0.007694599267739453,0.034251651572603334,-0.06639181577240648,-0.1507041280920164,0.028067650394012548,-0.21106887927150764,0.051813937816097236,-0.02272848817519429,-0.06322349593311058,-0.03264411844245939,-0.045630627694813554,-0.03470245858203017,-0.16096934621885742,-0.11029987751824069,-0.10280520394050435,-0.11570214392355352,-0.08235079515553079,-0.019311084755973436,-0.07169932499923959,-0.11252246432574947,-0.026919356132835418,-0.11574996513217899,0.04137612842058654,-0.01055121758325751,-0.09293061528306001,0.05876727401909821,0.12456346411560114,-0.10596912104934651,-0.05734899432793156,-0.10288240189772589,-0.05691945743452873,-0.06037645292403557,0.113783524736926,0.01781370865554637,-0.05642295646134532,0.055669673601740834,0.007394241488375433,0.05123091106153566,0.2080848321659578,-0.04960007040001099,0.013877076342449585,-0.05221402593673762,0.013334820891520523,0.014215198746577933,0.12089145522509913,-0.029235818281926708,-0.0032707059835310123,-0.08164069954974562,0.09992046224484856,0.03912968644271999,-0.036476879515110465,-0.030695376140552514,0.18414341240962148,-0.10363006109587135,0.06070121102224064,-0.07614129695111865,-0.07991009843080309,0.0236810758791068,-0.018192779185999444,-0.0330514630102518,-0.12778505255928355,-0.025397719330131296,0.07403668342199943,-0.20593908600069313,0.06475493569178792,-0.11854335502285089,0.014679254971423574,-0.10431170677988298,-0.09289606392439871,-0.023641187044842252,-0.06760074979210302,-0.0434563347294146,0.00329502400237814,-0.037394634273222524,-0.16921370391335172,0.03634535740926031,-0.09037108241614593,-0.032392743063640345,0.007332060353167529,-0.14292654814256336,0.07753329183002981,-0.10258525301019719,0.02267563748315042,-0.05641497579866507,-0.05628034754957494,-0.12888890202246384,-0.00349568308319278,-0.07508229999372447,-0.030961741467127157,-0.004874961631884035,-0.04070498212891948,-0.09156682211610864,-0.13240027485646114,-0.0025948180248132244,-0.026183056778559425,0.011826547105078732,-0.01121201465694954,-0.17724581980487125,0.019030098816271306,0.016701929917907383,-0.07740505040216723,-0.11804774946297453,0.058890285211379755,-0.07636919799170654,-0.08608597011734467,-0.00517963377631243,0.015399354728050896,-0.08065210773184006,0.07998577501825563,-0.13622962611481151,0.027751140861109663,-0.06865103503717512,0.1245378965045524,-0.08902541933765841,0.036376336727808475,0.01788886198630082,0.050430902744761835,-0.10111904232700261,0.05899188611966738,-0.10870721864102381,-0.06025365641744,0.011709865675880832,-0.00835645045424774,-0.05780213111486674,-0.01678041137336018,0.029312734095393925,0.10931204600994052,-0.0783630454422961,0.2233485665535209,-0.04560959601330388,-0.015687500135286917,-0.10410466554455511,0.014975198178058282,-0.027082624828973143,-0.1018322272280439,-0.040911265222563435,-0.10543572277582472,0.03589397082214989,-0.1643305743491979,-0.07704094122163756,-0.1602072544372105,-0.060555642625355705,0.07307060654524064,-0.20044863294816467,0.03388460355943947,-0.07763492036440264,-0.08781065076213265,-0.10201153678926998,-0.06463886087137871,-0.023905079375742454,0.047738170966472385,0.006845535228719355,0.015510784649411578,-0.0001375282573994683,-0.04734823502549314,-0.08931428103981762,0.0015928138436624027,-0.016706240787341762,-0.041827606837706456,-0.13032682401172424,0.04510324183415568,-0.0965861514315996,0.008881226939293765,-0.005851316271923055,-0.065846873537595,-0.003377292636688363,-0.01445945730404082,0.028108477370443127,-0.0005818146141568563,0.03286867326586169,-0.03893737153883232,-0.10799396857549624,-0.08191997015900415,0.0028055708712451583,0.0336064572204153,-0.013942340359182386,0.0672770493192672,-0.08633491360128015,0.02004559638577508,-0.041384997342795826,-0.042908381256825646,-0.03129339150086654,0.02705432069735505,-0.09490125359296435,-0.010661467269457941,-0.06576799144032675,-0.07901023912319975,-0.022554992686355177,-0.012643122655781542,0.0289678514344065,-0.07950029593241059,-0.0513199909576887,0.003998251295756892,0.07141173108057766,0.10757988205895297,0.014672221295880711,-0.11683367084390171,-0.07559859368936715,0.0030318855486256785,-0.028809737038922912,0.03855588211345587,-0.036270403799599095,-0.06967492803788786,-0.1281210530292578,-0.09220097232970463,-0.06315319870027779,-0.04119201309526583,-0.05454583566930572,-0.02908440977443336,0.0329215746795939,0.010660605235942382,-0.009820757726637633,-0.02911416840530489]},{"sx":5,"sy":5,"depth":16,"w":[-0.1211452468091414,0.025285360329515456,-0.025865957183449185,-0.0739269906428684,0.005312083719276697,0.06598000997139024,-0.06443866905735363,-0.006675763784067938,-0.07847179951844269,-0.0009615829553025509,-0.1282591067646417,0.11150204257669909,0.05472834621834776,-0.02930547182308363,-0.0296742283855752,0.10472699020941119,-0.11729180521105173,0.12144008735376735,0.057150555264056484,-0.008934596187126631,0.020009284794883366,0.12751408876785736,-0.03433219513274864,-0.06811854619440262,-0.12455568628245392,-0.07950823766312054,-0.06217500172022753,0.13585565117368825,0.039394048618634936,0.08952441578511401,-0.11691180682283397,-0.005828159441588767,-0.12410544072482027,0.06713522383042897,-0.05194835890172023,0.06408501780105405,0.04439809104924549,-0.09624288211552785,-0.03819929304955577,-0.046124255620144716,-0.023525503649126027,-0.17461382638707976,-0.029738885274171404,0.07813727010472261,-0.03703824981644525,0.024486518350475463,-0.1202849585247571,0.07407820614059221,0.1397167652485385,-0.00020521711027378858,0.01430961007655792,-0.002844198892038088,-0.025385861494984067,-0.062494727394945264,-0.015334412156952928,-0.03486598838062185,0.054137440078192725,-0.1945407475896541,0.03624550696604891,0.02054179777555744,0.00972574592524219,-0.07030910879014407,-0.05449689760418537,0.00932035638098135,0.10726092362485076,0.04476082619144429,-0.04065652945890491,0.09580062789314589,-0.032868465498841565,0.028802355677424167,0.012502330915850207,0.019792574432900053,-0.013681987008481023,-0.19925175423490007,-0.10024254841473725,0.06857008171620144,-0.008535446433822523,-0.014600874968338616,-0.06284860315126631,-0.013104378131627806,-0.07023987254888936,-0.05840463606497007,-0.0679060341006535,-0.017913561578699486,0.03423311963805689,0.05157417307690038,0.07619742560279884,0.06579369130454821,-0.039608483496877636,0.030429071261470902,-0.16394870106556655,-0.06151789412272582,-0.05088031636840301,-0.06329585063281495,-0.11953150191347338,0.019847571904636256,-0.015537981209633492,-0.06239736574380122,-0.016301012778862266,-0.06681896793836901,0.01965487371078742,0.08548136981260396,-0.0882904747867843,-0.09641317714783462,-0.012451284553509287,-0.06154633947284062,-0.07010816907659592,0.01886273633900376,-0.05860594085649451,0.139280904174321,-0.009245256754563983,-0.0134103553090646,0.012705108811796267,0.04619129341466574,0.00736748338354032,-0.024201488873529745,0.04393507693745047,-0.03719905771784888,-0.06954603784625688,0.05012963040261874,0.15829236069866423,-0.12148635554624977,-0.07132368625782715,-0.04250235237219221,-0.045762959060635044,-0.001208178278116832,-0.08938758911760933,-0.025297527724258903,0.327865594280366,-0.0939820837772154,-0.0970069492961584,-0.016338029585700607,0.03787953562364542,-0.05355259042795323,-0.19420128542203272,-0.010408468514135506,0.03275240068152428,-0.24776290914192414,0.0016531287935352328,-0.02278699781834078,-0.1705402235128604,-0.08846665181077826,-0.06915742474247377,-0.06893092826499268,0.2628531530529543,-0.005093139871389724,-0.0896922124177161,0.08231207053693926,-0.18413005353689255,0.06661060816710014,-0.10691664156232765,-0.11067885912347906,0.052467910068146696,-0.23773121028611977,0.0893826546429671,0.1534111748122481,-0.09448302445843217,-0.09581890143047747,-0.005235972416462451,-0.08706000593042865,-0.10559934513741813,-0.10301075487103666,-0.06209663737433831,-0.05465436893550062,0.04362928028111074,-0.04365435357418681,0.005943370379550843,0.012379134291061194,0.019588754080790863,-0.02450415781272231,-0.026019703372842436,-0.03782321970229522,-0.0987088203556372,0.05168978522869039,-0.14739705114852306,0.07105635948135597,0.08825696743022891,-0.034059728789164447,0.051224823572138006,-0.10944962341452079,-0.024286446515222705,-0.08010313556974735,-0.12440107151494492,0.11804246382830552,0.15500519030621415,-0.1584882058672598,-0.09334772415368787,-0.12144553482605251,-0.019570491154501154,-0.02862606097364167,0.06767306095101099,0.06781044642811682,0.27063389413605504,-0.05686094095047781,0.11686608633242178,-0.06761575311118814,-0.03527377116060672,-0.07604457650553699,-0.03923574754111676,-0.025974003438106866,0.13283658705212234,-0.23983288295779231,-0.06415786072600921,0.006484548564430851,-0.07865939405853656,0.0009889408027791132,0.04175697097674317,-0.10692542661779801,0.3149545034450124,-0.12675859159708155,-0.03161959182069942,-0.0890900304950333,-0.038842755150733786,-0.06602194942663404,-0.13795895638412198,-0.08040776215546223,0.17525066936735015,-0.2176274520570741,-0.024885905854348786,0.05838046043400897,-0.12419019281854975,-0.21142578532227826,0.07885589124802594,0.012877595380713843,0.1954843668327849,-0.2010573830453168,-0.011229739157120366,0.15451989126503232,-0.1645415055353955,0.011292437418825163,-0.07463227729736516,-0.07879821305640068,0.05778901382696392,-0.15824369266021895,0.044364010095793424,0.1091300893261802,-0.0394588518682301,-0.12313292771303833,0.06777805408900547,-0.18073115498505904,0.04349066742906999,-0.04425424779254509,-0.043388029968315735,-0.12581733811069346,-0.04049568287698327,-0.05699709378620312,0.12591390164677288,-0.003580731764704737,0.03381193644930039,-0.09267741030918418,0.014779635723813297,-0.11032386608722392,0.007644492937341127,-0.10082326899117987,-0.06585005489128773,0.04480733062777195,0.007974228537245264,-0.14683275605274976,0.004842051881201316,-0.0835199619480244,-0.04010630293276978,-0.16537278163356364,-0.004493432166376999,-0.04799082733194438,0.08893687246561464,-0.13831389905563488,0.05302838650924967,-0.17740205075305504,-0.1199270434179246,-0.05807671379844999,0.05040293116965632,0.042212466157348534,-0.011675021477210548,-0.1421534677660262,0.10683964752864594,-0.04817003010210038,-0.02257062049723155,-0.08079039526772525,0.030211670978937975,0.03288927883250598,0.05609567288252491,-0.3465464916568901,-0.12417177174026775,-0.146020082379334,-0.022485235045339877,0.014163177933012779,0.03465784467068003,-0.00629798410030148,0.004759502743372284,-0.130421803872253,-0.043631079253714455,-0.07107414903386919,-0.03382108428886273,0.01509786265669158,-0.06842576591094374,-0.03299105922141763,0.13258174672854592,-0.1885607475212077,-0.03044054657486399,-0.03488933926476159,0.03158466821747831,-0.012796403196761357,0.019174804293475716,-0.00885714643730681,-0.1505406774546783,-0.030516983837589287,-0.13777756952570874,0.09141790520428765,-0.08699746459710989,0.09712451707754757,-0.026128376151617116,-0.12097703617192584,0.11415963637772722,-0.09398723464014207,-0.10724401922101842,0.011649538129687867,0.12837084449545663,-0.060379223571777996,0.06793812821795184,-0.04700663181230772,-0.022979956962838274,-0.07531070204442811,0.09665449717243052,-0.06809569936229358,0.06329169376628684,-0.050014541930507306,0.0236675435122152,0.0010847259114442804,0.052372821125136686,-0.0873894558377574,-0.06739127958366253,-0.1400022115377213,0.00016721547065443886,-0.12361877513476914,0.0011696623777133384,0.06963458942653716,0.07068018699936436,-0.12745271674184006,0.1893976893401772,-0.016402430408956368,0.001498695690172096,-0.11202829953234558,-0.03982317847701204,0.03453837036904419,0.03272245933724632,-0.24602122947307078,0.01218761416877547,-0.13215349204174454,0.08652540864763299,-0.1460543286786883,0.07672439415814399,-0.01389804589101047,-0.05625061208835741,-0.15671714616947205,0.08475946045938583,-0.13766627960731267,0.02872860599724618,0.03291416679777306,0.065570406685623,0.0029700920177102826,0.1453084348373414,-0.17925681507613803,-0.013339472874067488,-0.06768747891001088,-0.006875519438568594,-0.013626110870194174,0.11439583106582946,-0.05897737113507797,0.06718774610203643,-0.1532124055505701,0.11131475639409029,-0.014335467723743597,-0.10757761901300218,0.2050719198165558,-0.023365957920257873,0.03812032949425639,0.20918757740734306,-0.08330721021353096,-0.09513906710270845,0.03693425951104526,-0.01633203668027735,0.08825532843070168,0.0785199230167145,0.07950745051700135,-0.00951599406430732,0.0016819306377519382,-0.06750567738179236,0.19505165936283478,-0.02003025748031074,0.3283372642920904,-0.008294767982007631,0.05918859058360357,0.10629544618006295,-0.04411058172156278,-0.11266260551525506,0.015834288135225392,0.13408883228338117,0.14654010342989854,-0.04467566739653418,0.19858379831591305]},{"sx":5,"sy":5,"depth":16,"w":[0.1382944981538464,0.10409971523129574,-0.029211504240233797,-0.20128826162538876,0.14195884675084694,0.22084964829561402,-0.1314157390944399,0.0934840301428685,0.19441094618010402,-0.2359205764868917,0.10571557271635308,-0.03543770542981251,-0.15378390546482146,0.14770789584760893,0.05091552878909977,0.0566216744049854,0.13194197630048884,-0.001999031499107245,0.00681695598972884,-0.07399965059719686,-0.008406326736061646,0.039559316544313515,-0.15899452877930761,0.3978703061509748,0.17028131613446063,-0.23795883497321563,-0.022564755947763086,-0.10537367017124001,0.08244432915217992,0.14194331127009632,0.03973305798050203,0.009702746982276887,0.19288231762117147,-0.005240344916343505,-0.030667042096973338,-0.09039181608237401,0.13028064365765368,0.10639111347978629,-0.0810005837025884,0.09484690891190133,-0.0656416650889375,-0.001853756221314925,0.005219322100062793,-0.1928586633396874,0.018561609822460332,0.09473644022881723,0.04400284370288211,0.0012172248893401532,0.2957915570313593,-0.009485237276067563,0.020884390218029004,-0.057201748054047256,0.14061717385501243,-0.007939828424015343,-0.03421134930095261,0.027899962721228914,-0.03150616116787302,-0.08951659744698083,-0.0652740819867323,-0.1050441640275737,0.020621036461896888,0.14486613364754994,-0.03805157176406203,-0.055980855946518596,0.133393895224169,0.11113889771547521,-0.046770399869962974,0.029052322567565143,-0.013044202463389797,0.013440913024144614,-0.055857843310237576,0.030814808998917528,0.014815865055801979,-0.06797171836772298,0.00021293870990639699,-0.17164255224876082,-0.03160366964839415,0.07181013491762062,0.02096189807542526,-0.13134712759611644,-0.0573235649886563,0.0243676841612274,-0.051752477587985436,-0.1646873825902568,0.012462085205210718,0.04451257518536794,0.01172703252641973,-0.05131232533217974,0.1652734564883278,-0.18036839700453902,0.11346429555510094,-0.2898784451206831,-0.14931601528184543,0.08895602939678288,-0.006330347062336784,0.1141384309131602,0.09944322895793273,0.1031247350694173,-0.05866014009037718,-0.03086246664294889,0.07570773903437465,0.11943243538511424,0.026738871005297406,0.14856287527849807,0.11256111844482039,-0.10773036422744749,0.00812795332094072,-0.0012076847967332949,-0.008576108985872574,-0.021757298115097305,-0.08064246420130448,0.17799057646185815,0.1421045844566313,0.05117981552795828,-0.10069571223849529,-0.027424449733918874,-0.08343329343815609,-0.013672057871738474,-0.04473527410083276,-0.043698487136558065,0.01154180770205743,-0.045227577114725435,0.13166709496664883,0.11315752624829813,0.12310348642979543,-0.05668682813886544,-0.043052532083710085,0.10954569248403138,0.19943309724726452,-0.003970370435388225,-0.07969000866745797,-0.00677698054435088,-0.18901060934928957,0.07046453492591999,-0.15498973078707057,-0.11336885105347111,0.02888175062740972,-0.1000587124256743,0.017836726296868628,0.00012880224584589436,-0.0923996988947257,-0.06594453541285833,-0.07553579477059791,-0.0854529776968231,0.1377218792709644,-0.05073685165634646,0.0040308843303060275,0.0011238058888436637,-0.17766362208668152,0.11355689148601145,0.05259363378189416,-0.014659003050439249,-0.05616366842263093,-0.12749856656414849,0.09492492273814385,-0.16818731047645377,-0.0645968101473344,0.008515154769524393,-0.0378808737700603,-0.1752509038648181,-0.09361700705648827,-0.05919257533781935,-0.14840016250029112,-0.11537810593115512,-0.1314952967996839,-0.2418709873867379,0.047835277732793155,-0.3066027935719844,-0.09580073450343833,-0.04332119546767847,-0.042301623116836225,-0.013611184486693882,0.13626742981710854,0.1069127162221853,-0.13786246828002585,0.02380835302255162,-0.07235023381053697,0.0003656121380241456,-0.1320464598559593,-0.17236992596336176,-0.023039086557749208,-0.28188583845340653,0.09427452064896835,-0.17234720221528574,0.08155727899733706,0.09427135008916199,-0.06204258733017954,0.21130473672610686,-0.0152404859003293,-0.010749827485497205,-0.24532437272287505,0.04912182670341569,-0.1271057732838947,0.02698887614775026,-0.10488537774493904,-0.13281648277664637,-0.06313201325331377,-0.18319742964201613,0.04510833581776363,-0.0569542464374274,0.03913771525840207,0.1056347336967681,0.09024109822082198,0.22046539379178942,-0.1257888334393969,-0.030858754543724526,-0.18978851090322565,0.1204900666133148,-0.18514771565504587,0.03308451861492775,-0.11688508407293964,-0.14074642630669262,-0.19064249636029823,0.007874181342172963,0.11397663342406086,-0.18968160883042443,0.07887745215514638,-0.02054429714736633,0.02724803286103931,0.12073762762314832,-0.04311331017753989,-0.06706574731013407,-0.2071651123934738,-0.0323143302229284,-0.03325696682218211,0.007656217539162106,-0.07973220676002653,-0.1216708851553339,-0.25825429388575444,0.03983112811191483,-0.07925481835675967,-0.0964256508593812,0.014878948172229246,0.07764157335948657,-0.027215659916044046,0.030061662074946267,-0.02762119972335181,-0.09706665678937992,-0.054226373908219425,0.03566874948619618,-0.1053432862600475,0.07360508327013336,-0.0355087307029629,0.09513820118685162,0.04341968139951272,-0.1451641938898038,-0.06741427928426127,-0.09272129288305994,-0.13167147954369457,-0.011671826978368846,0.18218273557818415,-0.030900725833809806,0.13764342356289472,0.0011407174084232035,-0.18558265131937418,-0.011721706337125588,0.007052639008699779,-0.08862603840754284,-0.11180682557306112,0.05176609460129149,-0.08230802690361509,-0.13870827959345486,0.019102877308415114,-0.23911507660816514,-0.15614880803671896,0.11295804283965229,0.005318790887869389,-0.10044777577339932,0.11850340258812912,-0.026941594712457863,-0.11580118376984362,-0.08757553412386278,-0.06905220848706774,0.006506371115684641,-0.1794425158030591,-0.05552541235175038,0.07140915117248656,-0.1018272359298031,-0.007250500082764253,-0.06532613249495785,-0.04872353553302383,0.041469075878592804,0.00024553063300419354,0.11997047161606235,-0.1673972427604996,0.08566988339453818,-0.07976077251222892,0.07607076366262111,-0.11693797570707601,0.0378499921697019,-0.1401182880410367,-0.16817788593410948,-0.12215656912543374,-0.010139921257596454,-0.061259753771661776,-0.06648144693387277,-0.0912276100309907,-0.09531205710794356,-0.11288163481102642,-0.006756568843148794,-0.1001140972231539,0.08453261443627556,-0.1399275530349196,0.13303618140758866,0.09923338594658122,0.0037165039552285555,-0.051939211849908004,-0.1616514406106101,-0.0753373633075976,0.021931964757131963,-0.0493740741505101,-0.034201260839457216,-0.06463645350237798,-0.019587552312237893,-0.042208773295321696,0.06316645700042223,-0.11191727105481147,0.03052902545781321,-0.12612044276630466,0.008447988912168324,-0.042347259627320694,0.11187096151380267,-0.04169602771985321,0.12419735165436953,0.0881195832329571,0.007010239795177163,-0.060574047943166814,0.13882995043349824,-0.011316995248231975,0.034135360911112946,0.11420607130645345,0.07558973174777106,0.08179078876602437,0.08843947833123306,-0.13616651529213786,0.11500250245701982,0.07155530509786333,0.02427295642756519,-0.085233403085747,0.11381131259734582,-0.012171970142555,-0.13456005085501063,0.050618493880798206,0.022616516459526746,-0.03433236209511319,0.2648346888201312,0.21151895162701803,-0.06158556465359579,0.026116386252588678,-0.06270845575858375,0.030602475955952793,-0.008084440086700192,-0.015451205039906553,-0.10003555045174906,-0.045539236391821024,-0.05648866054627781,-0.053144177184441185,-0.05715120228227961,0.09659718499167437,-0.012573189572431998,-0.14482286703463154,0.11399440659055855,0.27743495207864305,0.0685022324178106,0.011737138636198062,0.07676004731434709,-0.006171124348547066,0.009777703739004445,-0.09195760480113402,0.02377666050182416,-0.023651989028287326,-0.10162439497655497,0.051922289971359045,-0.06505260392730908,0.00911698416996692,-0.09306622653013584,-0.05403570498290975,0.027914498866033605,-0.02554203236686843,0.10607669438537186,-0.14595681591151163,0.1581028440300032,-0.07739075604881611,0.07804311243485088,0.13721350987244568,-0.09022151422068472,-0.07014174928731151,-0.06843803254472984,-0.06195692177555421,-0.025194082791335778,0.04463697375546909,0.04882249210907068,0.024797563695927845,0.0182744109665249,0.030921911873306198,0.2586399427805322,-0.05973887198200118,-0.0033368123905100316,-0.020030920711489722,0.013870944924315795]},{"sx":5,"sy":5,"depth":16,"w":[0.13922250297483688,0.13797334891687835,-0.11371902897498996,0.13595679803873295,-0.045354089934098195,0.14703141389262753,-0.016392979968610825,0.02104988645922351,0.1694247615542757,0.1288170070694391,-0.09185609125201902,-0.0238360693292883,0.20015716186010155,0.11110198574163235,-0.08562610491524725,0.07274685524836744,0.04581054430854254,0.044466612029550684,-0.039967359522939123,0.2003061149207013,0.05489417148123208,0.03198235090839358,-0.06473309685170796,-0.06034101631062372,0.07335353113276696,0.10969667883660839,-0.05466211054886661,-0.056579365334993616,0.1504698415134938,-0.07849568612141385,-0.1741244159290242,0.03820430135739349,0.17615341993528896,-0.08167951191553667,0.02599023436755089,0.1180254111006849,-0.03508710838567255,-0.11805899216429835,0.008533669153167873,-0.26048629786355737,0.015232915881534437,0.05928554221919337,0.027925068658808675,-0.13546501923419835,-0.007239894579779662,0.0013540812669291466,-0.10574620820326987,-0.1353000868324337,0.19261972215108025,-0.16702528404076225,0.07654636217307909,-0.14676451946843028,-0.07085270142859111,-0.10482494338873782,-0.02390481096563379,0.01031100693051476,0.02760053151405669,0.02908567127697359,0.04274516661033652,-0.19534215706060676,-0.14923715724998843,0.11509657571326402,0.1094967178373417,-0.06836023968307126,0.006873176774226816,-0.0970891924048428,-0.06900590992510777,-0.13746412268221456,-0.0008781239841196901,-0.1848939759751912,-0.04176271242765779,0.16997257665105528,-0.08724362228061605,-0.04195752626480555,0.19377942531003764,0.04202475912859305,-0.18301669870897289,0.12697231320163446,0.009747515312983627,0.02694168706698086,0.2188057778404444,0.003737796443307823,-0.02230388873288105,-0.04994626644354172,-0.1914403804381791,0.08090578510141705,-0.029439729655443673,-0.06978513972722232,0.21285264106205615,0.010664574171392228,-0.13739103317720555,0.12479391437979268,-0.06053988789400419,-0.04008709823663949,-0.05016048173626224,0.06495208247200498,-0.06777705120833447,0.14194560648718887,-0.041861373768568445,0.12295313623682959,0.02429773935901351,0.028378422595219208,-0.12205909162248735,-0.042467266509155735,0.05952470313327588,0.05786766867315233,-0.1301270324605576,-0.042956459071973985,0.07231595486515766,0.023363806397977974,0.08684564135134822,0.07460203080678152,-0.01771229986820045,-0.04013654125515953,0.0958601283091201,0.053949715091656913,0.08432581274227031,-0.054839199615649356,-0.1233210145384571,-0.08163807968200851,-0.13830501548008756,-0.008951960897365142,-0.018695111315937304,-0.1796714634362296,-0.03358705998394277,0.06984292400852887,0.015430859044573666,-0.09770572208849275,0.10486315189415392,-0.022677749140427486,0.07157019018715491,-0.12129101940112025,-0.1956324396649986,0.041411465178157664,-0.029547314141420894,-0.07575972818408681,-0.11369059016613363,-0.028808658705490438,0.14148669894448831,-0.15075542758326427,-0.08821002197720197,0.0924790534378207,0.04164775058992217,-0.12291766198364021,0.06339387827707318,-0.11572099367523173,-0.040505825389246894,-0.15491090542768346,-0.12581071537033933,-0.00245229705754697,0.015253605893216744,0.015840196994250346,-0.06433853247064901,-0.0814905161608893,0.1480686493251835,-0.06241910930572186,-0.2089106071826849,-0.011586053424554776,0.05173717551378466,-0.05602247238954439,0.18694451452609753,0.014978332921871207,0.0807925025382184,-0.07879471816605553,-0.02924579317069143,0.09981763044486996,-0.17577167572454747,-0.08084028912074412,0.0980083417150955,0.0421248231922325,-0.011849497600865318,0.04680873341722613,0.06703356417696758,-0.18018498188160562,0.04497837808939782,-0.03544669477201842,-0.03633134841962621,-0.024832360532498852,0.023616936300706454,0.0986473857516972,-0.06376137930333543,-0.14913170802101816,-0.16189656895572144,0.13124059588696116,-0.08109200244601852,-0.015108404354387187,0.018470327361411534,-0.033582859183206866,-0.1759533123381927,0.07391642706195176,-0.03294172510156636,-0.01924324958737925,-0.2578865709331628,0.1161884884831095,-0.053940135003846944,0.08480007532731051,0.06837293245223704,-0.027118563789527293,-0.16641440211363898,0.12518143129173454,-0.0873955453756323,-0.2215097219843425,-0.07113384867462613,-0.2479247970256141,-0.09100657979328061,0.025119259878055616,0.029016334370764292,-0.09513110663340238,0.03375357225993348,-0.06850019823429292,-0.03189161267297384,-0.0008943313447399953,-0.051890482782184014,-0.053746286660876365,-0.02324644565623553,-0.07941913584559256,-0.17136355503375844,-0.0735773723181756,0.170344776688311,-0.23395151737944647,0.045730975376018966,-0.1353478923934652,0.07696483295796323,-0.10203402678402002,0.016401069563075604,-0.09448601030835224,-0.06707286503586578,-0.0448366044420612,-0.07307781555487795,0.032500007653702416,0.061744614185802994,-0.05639136599143456,-0.07338856030722846,-0.027782054689790097,0.22131674456601627,0.0010070414216872894,-0.03161640037299048,-0.11170055675218916,0.015405158295417649,-0.0677086703644648,0.07846019967434208,0.06246431696046074,0.09410167719725594,-0.10981688701607145,-0.05137976576038095,0.11822068457756062,-0.12233766024085872,0.053035979747013344,0.0470668040191316,0.08254142356972402,0.022120662354798315,0.14992091019978782,0.016149163509140425,-0.0413988707759763,-0.01006115089979806,0.10159261733377015,0.12381656406304001,0.005987916305949635,-0.03619980060895102,0.005804832201386759,0.0560629467278146,0.025172853676014868,-0.11974478817338134,0.08797407248367844,-0.006598237115475292,-0.008402171998987537,-0.008833871216564227,0.028434791313031373,-0.024177897291084487,0.167389213087714,0.06620524260366474,-0.026075780132440437,-0.053602916732697806,-0.04706449245844906,0.0478198388369178,-0.019850859585279105,-0.04587593730739649,0.08202889293958283,0.03518924046966527,0.0955033713230782,-0.0194982119841388,-0.19760182048426594,-0.10096603026678064,-0.055540400636647135,-0.08482099598793985,0.11583591456796548,0.0516518978231392,0.0013149405459871302,-0.13025600612239277,0.08297263333141623,-0.05391486222060678,0.053501434750680026,0.012413704310601532,-0.13568136070185474,-0.03310901518193205,-0.07213911717749118,0.03150107539990878,-0.029590122762051498,0.12415113148850108,-0.1148009072638932,0.1624140744589637,-0.13302297548537703,-0.043560307542904846,0.09898344077435227,0.015230234548708255,0.027116553428494818,-0.1239818956017311,0.1438673348135157,-0.01882161256759961,-0.014512163878740292,-0.04029064423913597,-0.1979423260969295,0.07207632725033108,-0.003521214264460794,0.14706897766179763,0.1282878673165228,0.10581614356233955,-0.1847324641722523,-0.10274996144039741,0.006957413327428264,0.04745858583452892,0.16010551700242415,0.06115660290504771,-0.049901941423795323,-0.023239201878648405,0.12706750632970104,0.06549476595896868,0.11333391807446014,0.1261549926541304,0.11760518528502212,0.049770266689256736,-0.0843120724431578,-0.05227200725036265,-0.018009345784615185,0.008130530575624233,0.03935075828364728,0.10694793649942073,0.002750405656834706,-0.02028430915146593,-0.06642307797345456,-0.0970552780019734,0.2157841478334692,-0.11369683169892977,0.01727056872155925,0.09598899992909268,-0.0005830524474831011,0.05804569619629489,0.051078765513154864,-0.12120942294038109,0.20887386367557467,0.04650077085318286,-0.03559465315692525,0.18190869872169677,-0.11049843203072908,-0.032773830597895286,-0.05826273014867634,-0.04702839437294045,0.08466951330902106,-0.07674628886639451,0.050761805398510086,-0.034095453019295,-0.13092648246437677,-0.12885777992703643,-0.06610329666246337,-0.09977770713118446,0.02578094771155723,-0.050196176003371826,-0.12881821390548512,-0.059764289283838375,0.06819405337703484,-0.15248759772417855,0.015301070757721982,0.04745919260753931,-0.056348340853922096,-0.11599164028372418,-0.12400211540403996,-0.14414067206880216,-0.12011159391636562,-0.14613371980865084,-0.06980939807091784,0.08631716576910457,-0.1855091888817427,-0.004321906626013456,0.0359090561263795,-0.10984243072546299,-0.033723737250826356,-0.08542391970701799,0.053101283869162116,0.08281096552594411,-0.0888944096740561,-0.038267334481354234,-0.10985021931613638,0.02990148459486202,-0.04314024017724903,0.03702327730705405,0.0942000061259846,0.15262056975028407,-0.15185959044338576,-0.05927873268311848,0.07435696869908509]},{"sx":5,"sy":5,"depth":16,"w":[0.0036554935781527922,-0.1190663206031972,0.033285888301820235,-0.01630500054124491,0.03466279052344522,0.021215637398752117,0.023763774899995833,-0.14231997543565833,0.0612864236819685,-0.05849528024371112,-0.08225092324974435,0.23759215997521552,0.02889660550400978,-0.15003732560758465,-0.052709785244014845,0.02726871151396551,-0.12783241531940093,-0.0006417553689242456,0.05513514371505069,-0.05061616663335999,0.011832576994184598,-0.031749360118800946,0.06901437139673543,-0.008261073158347735,0.025222094398399297,-0.035959544618322105,-0.13117434323111746,0.025097421389090144,0.08761506848267303,-0.13190910333951328,0.02613537872665845,-0.04526855612279089,-0.11187651273604216,0.06804128144128722,0.12826083048565726,-0.09410710122247268,0.0838198825655155,-0.051765163472241256,-0.03234844466968823,0.25118613443694293,0.11599985188013782,0.1297120089273499,0.06151635852940667,0.017563905260756005,0.011693040680061315,0.013683724058353495,0.0494424528023741,0.09097429352409407,0.07475864541749097,-0.004762319889593047,0.13015243892539516,-0.1123386027987278,0.16060019235303635,-0.009760085661808592,0.034945770189750563,0.17384377919447608,-0.014419051683036406,0.13022417834276317,0.09075018870056287,-0.05848057185066228,-0.06643001845884232,0.07097538214472268,0.07093554068540966,0.00918190154600467,0.05037249661618593,-0.033220598608089055,-0.015660536904581458,-0.10157417842974627,0.07275269022651563,0.08147130218675502,-0.04503844826625645,0.1790318344335497,-0.009020665852570425,0.1692361634342041,-0.028073512563876853,-0.10506855761642502,-0.018583155008120703,-0.04281167609401368,0.061119923940735565,0.004166805004355851,-0.18216992269322518,-0.06300387965428096,0.02610730934708295,-0.07606690914271833,0.11229900928708102,-0.07636628718386064,-0.0343272938733726,-0.11456804653363041,-0.06082022727081304,-0.08340692495240558,-0.14256534698132653,0.1766944155774956,0.06794517125000474,-0.154153440790035,-0.03646299904516467,-0.011852467345049494,-0.2248266667383797,0.015832458538411604,0.029097999592680304,-0.08046606199491198,0.03950249407131563,0.05492554571329221,-0.0828336404030493,-0.08400068895171742,0.07878874833445132,-0.027609382649157063,-0.09089282726521189,0.15409109478226218,0.056915597909786925,-0.11737827517516994,-0.02999253405317487,-0.005922492969897571,-0.0027477313599068866,0.07576827940767096,0.1530289016501303,-0.11754504693428157,-0.010373073548424495,-0.04793992958015681,-0.03641639900171948,0.009684562629907368,0.0862701673660786,0.024970479572257117,0.0008657185323002733,-0.0058778251217830105,-0.021476511164374094,-0.028350986780593095,-0.07579022354262888,0.0494162594973469,-0.008702655220227564,0.07440448602728594,0.009327934183387017,-0.059993312007092785,0.09075323498739393,0.08054845355789897,-0.007708745825049206,0.09951797041561161,0.10293159951133475,0.08138067770580404,-0.004147390257236465,-0.03190095092755948,-0.05586159420138819,-0.04607376450565025,0.01997057179756613,-0.0604356822415754,-0.011435304791700124,-0.04095798669688888,-0.10425578067373757,-0.06393663476304118,0.02329246405945081,-0.028918515189673664,-0.0074486703553659234,0.0301499644476102,0.04210142728046536,0.17269108919536652,0.0382134467286664,-0.018602752352051274,0.06223916205010751,-0.05884100233084496,-0.01762910115098811,-0.10258107555071039,-0.2709788648544906,0.017023735836384182,-0.06216840645111656,-0.006664434356526064,0.12765274239133986,-0.024811260954497323,-0.2008976023736177,-0.17944764296789992,-0.1005015120973374,-0.058127481116260725,-0.16105133439943994,0.04496138070782142,-0.0012297407736620019,-0.11368188084702793,-0.18824650074078575,-0.05327474759855332,-0.1996472763771648,0.08193241418032837,-0.0967602614397957,-0.0074848951395849435,0.13017219132248495,-0.04228143067728597,-0.15562790745285746,-0.2124805998611416,-0.043756700648634475,-0.052378551012493405,-0.1675928652630382,0.0391279529522157,-0.08204535507038788,-0.16510900296247852,-0.09765900733681618,-0.14017637631931174,-0.005579261790754213,0.03594159204880345,0.10260308901306842,-0.1311623792012703,0.012822620862408532,0.02134065268340196,-0.04852062040471997,-0.06322011919811008,0.03152852374618158,0.021671485359316144,0.024488968131195624,-0.13969043442921156,-0.022398026196738745,-0.07632166157222096,0.010540554454429524,-0.23873241120948607,-0.04275484326065059,-0.11488681555514753,0.06915832959651498,-0.11543021920191221,-0.011050071061274789,0.03182508422396609,-0.08773064683444472,-0.06163960195638093,0.11125992432772408,0.06488565394134925,0.010703054518936626,-0.12023074809681775,-0.08573262985343018,-0.06405163738093402,0.004316985111821987,-0.17523788331403597,0.06102381321451269,-0.038257857311993854,-0.08740810945109749,-0.020637903452621946,-0.04759808194790609,-0.029959107494635564,-0.07558764946899278,-0.035793808932910315,0.14176335517428534,0.1350397971761455,-0.005357388011440973,-0.20462922905480432,-0.021111577369936244,-0.061496289384802456,0.08068065405943459,-0.13824678480074665,-0.12999183551237364,0.07736939598383194,-0.10601263494344493,0.05310115890346294,0.14595090456867651,0.06334443195035074,-0.06310418223687322,-0.22484948871433236,-0.01645600382773472,-0.04598684026358659,-0.15235368612371514,0.0843596528653254,0.22211834159261037,-0.048755710008003626,-0.14081589778866255,-0.0719788336682001,-0.1641358382307883,0.02398465040674866,0.019157218843702133,-0.002135193906291967,0.02832343546707231,0.036175031855098586,-0.046121139266250444,-0.25856793900690717,-0.06416477178140598,-0.1046684857223981,-0.07801319928879444,-0.03832846980931837,0.05080017021943841,-0.14665331638870044,-0.10377894576565268,-0.04362892525865779,0.1380070237500683,0.07950479776669359,0.10390924545552917,0.0023847187778014236,0.039450794052251395,0.05432185864124012,-0.09181764802028673,0.08968488707841808,-0.006440332908351969,-0.1638295616410523,-0.13701976980301547,-0.03231064176138423,0.0262822680791155,-0.04274899092258402,-0.04424845374025178,-0.050930126876313556,0.09735805381017995,0.03530286315304388,0.06363102486495177,-0.04746963221835178,-0.1005875154505463,0.0565874659484399,-0.04786060092299148,0.0015723077458526696,0.09095069383841964,-0.027393715512383142,0.025608755523826906,-0.14699076133602093,-0.055241491878173586,0.09564225328886199,0.05678336943743728,-0.20706333470560298,0.0616468491880179,0.06742724264521704,-0.016038683810922154,0.03326086805153672,0.020865355614649764,0.0294433313004204,-0.11203333749282875,0.031040998454108005,-0.02676367819637145,0.03645991342554047,-0.07952403350919279,-0.07504657131150362,-0.02575580034263399,0.04038908365395515,0.12672819377156264,0.0057889759103807335,-0.23834014636036235,0.07000109231022893,-0.05128832345016754,0.03260224482155128,0.08311137394161539,-0.07934699187923801,-0.11621879743760659,-0.08939517742388742,-0.040729898254582765,-0.08405355882203687,-0.1786028106849592,0.10343946918896499,0.09831597368222504,-0.0641135146556995,-0.12079737280426482,0.0404001430692369,-0.12982093223195468,0.00979895397577507,-0.03756860391062833,0.09223643849579687,-0.02585573271688903,-0.015063518625279857,-0.1307350548398182,-0.08498546954465062,-0.22825201109075874,-0.1331093920972757,-0.06195329293101774,0.14661157879067874,0.2071876730533509,-0.11780400795022039,-0.08440862198716216,0.06042577402863901,-0.019032324358483614,-0.013995077065724127,0.1561917542053611,0.052937899854162654,0.04720011015918453,0.043356116028507606,-0.12448478458536735,0.08291485640905878,-0.15639306720576387,-0.23537408021333978,-0.06277378469614606,0.08235315204307828,0.20285168404834267,0.024245602762883706,-0.06958776851559736,-0.02541429853461758,0.10935903984371981,-0.05875567651010547,-0.014704945804827419,-0.11079276394677134,0.014261579606881897,0.13418927506082423,-0.1413590434442643,0.11969213899562851,0.08106277928200872,-0.12862260679543933,0.021643327307461966,-0.016756057092511396,0.00026018116444262625,0.032461797668227516,0.08070480796787062,-0.0542396948721369,0.10123066181674349,0.009257581488903618,-0.04604801845153365,-0.04766606695410443,-0.00006190453586515257,0.00917340934908272,-0.15026883712950953,0.06473138092463149,0.003454380429337022,-0.13011346268163113,-0.0688169839446424,-0.09250371201690107,-0.03563755367114064,0.12558743463382618,0.1627405488613773,-0.03046549725253112]},{"sx":5,"sy":5,"depth":16,"w":[0.03131281187165996,-0.033052211798490626,0.03938556891473009,-0.09360446772428825,0.214564708400114,-0.05974395297315468,-0.09419750420076013,0.025404771846865615,-0.004499758472303773,0.013670774135220451,-0.11479005465881736,-0.15205942092784336,-0.05812886132610772,-0.025431239085736055,-0.0011575032941097893,-0.014749458222610128,-0.14139324925392102,-0.007290286732919588,0.03916993397656641,-0.13731466916578242,-0.011610490061485158,-0.05607731463896078,-0.09099595559514406,0.019635261571594807,-0.05784186917985757,-0.03243456099839362,-0.15545749323750288,-0.22747540120751186,-0.15842098932763404,-0.1278959676909603,-0.02637276552034185,-0.009191601590534665,-0.0845340958169502,0.014617573233517298,0.006725572994478237,-0.12322222259944836,-0.011117828524621993,-0.04307604532302058,-0.07817303018470063,-0.12865000032234578,-0.04944659252404408,-0.09056285022988776,-0.05929974100079436,-0.19806244479983176,-0.07374983098833236,-0.09712378063096802,0.05018477700987683,-0.07426594242352565,-0.07476848182939169,0.05400235420296623,0.06683139734017735,-0.0972487184228181,-0.039456123729750096,0.013112829029245755,-0.06474726469438995,-0.04129914361445008,-0.10555397859329745,0.12994888686913883,0.023240557178962763,-0.22606903617367224,-0.06558305585287272,0.020100559953366754,0.09715565997148491,0.012138400049026877,0.04595203994664256,0.03674994993811253,0.08265381212774826,-0.03197976239390894,0.022552569563643685,0.024386749607265692,-0.08093981300729895,0.015452130833883354,-0.07370251053772917,0.02843562909309804,0.011218214522439292,-0.03223457395587894,-0.1959174470381804,-0.06314936938981157,0.015589871678581103,-0.06843854892248608,-0.12419373212749234,-0.09197758542773503,0.026239288591308,-0.15114777623319986,0.10882690567585863,0.02767659253896688,0.022714795412847794,0.030423353057250878,-0.0665287659257551,-0.10265169354836882,-0.09946020346360655,0.049176733190034766,0.011744123420706822,-0.06875807012380125,0.06741647959921843,-0.05331450487191861,0.02484811353104859,0.020882099334867656,0.03485859451106001,-0.15891813880408384,0.0032187144989069003,0.01243432032369235,-0.08330342845441759,0.029341831132176796,0.013222628239936187,-0.1265852593180122,-0.028591763220305193,-0.03154977616480793,-0.08280852295272693,-0.11262322607529508,0.05084081332414978,-0.05734720021389047,0.02172063186254239,0.007783520722760719,0.04385924814157056,-0.11843121650866706,0.12415565428548282,-0.10029455328737343,-0.00926795675107115,0.04510575356342439,-0.001532780975709822,-0.06336646564060107,0.018586741264403357,-0.029575206820095488,-0.04328475221653022,-0.010150494060921257,0.03958653814136097,-0.12756145778476807,0.006610233209188071,0.03107330809868243,0.03113053759021271,-0.11079896092817197,-0.05234783352964204,0.1217377045078818,-0.009246364432871017,-0.07413670270303681,-0.01363245902067679,0.06741110955909317,-0.03308230168078446,-0.06048083474868417,-0.19782296828483203,0.05388370663822226,0.00015716175906334092,-0.06518630514964126,0.041237603900122294,0.07799477689862226,-0.019568888045449803,-0.14985767888491394,0.018811090203917642,0.05227501809751973,-0.016797906319130532,0.001050721835077989,0.05446703437278748,-0.06621097131525353,0.03834285132151809,0.0233496953341683,-0.1030950850708077,-0.018905314134715172,0.042897209262067304,-0.13711998452452712,0.06943596380573883,0.0005700946148512477,0.09300807881993219,-0.19023963289701723,0.037228134030561764,-0.03180857007303503,-0.020325542341505975,0.10355110244123714,0.0628653879577546,-0.048296515707342995,0.07281089673173144,-0.037943258674507575,-0.06914281030055033,-0.0165136928292392,0.08201621056347995,-0.011588514875875205,0.008153348366896788,-0.040638679921560755,0.022440956370948558,-0.2104075544663076,0.10800941913089723,-0.07868468436899778,0.00889958528731716,-0.06725922393700468,-0.012008239900267623,-0.07558001682185017,-0.05682745817962452,-0.1903262895858532,-0.08093016010077869,0.011833589706810074,-0.006828204988587707,-0.0390006894577796,0.04344872283753879,-0.10744210500250924,-0.036002018030142205,-0.27140504599632836,-0.0671953349121747,-0.03222955240981302,-0.01845898500818369,-0.08430934040385112,0.15167188683656174,0.009117364711115284,-0.02123411703469908,-0.14429981311604997,-0.1270846042274,-0.08651721126124372,0.03171595216958495,-0.024068237195521567,0.05013352007923853,0.08429483643848794,0.021979895984537725,-0.13999180501103622,-0.04618806129686072,0.021786774548161754,-0.03755112742517009,0.0039419662769326095,0.06433370798525351,0.02499581895582695,-0.052615784541792,-0.12256407417434634,-0.17146942792563447,0.04852073311390846,-0.045151857455663066,-0.0979952198482531,0.09678991539196286,-0.015811307500603295,0.01900401923251504,-0.18642071790880363,-0.11267212431228382,0.17256581017086142,-0.04356515195649329,0.0016219311866542082,-0.0020579310951251446,0.15130622705301444,0.04012096422704593,-0.06533544868897044,-0.10856219450149714,0.1157624015469743,0.04884269209645043,-0.2283791555012128,0.31026865260865066,-0.1535882587356631,0.09827699282519078,-0.20831324125658635,0.08170558095252062,-0.02363274986303247,-0.02486199573043556,0.16981893948946333,0.07892656958733757,-0.02847019779800249,0.05172771787551891,-0.02408237690994743,-0.13613548946749288,-0.13680474934173764,-0.027364735623584213,0.009180535574230602,0.08298227923019039,-0.11593550034006742,-0.025895927716421158,-0.19740357326984578,-0.09853468034079513,-0.16813318935153151,-0.047295631267396325,0.005870874486056054,-0.007063255211267549,-0.04041723700793206,-0.007656472642747002,-0.06238934804446219,-0.15823301132948198,-0.04253589218014429,-0.11764908450945487,-0.09919190592400097,0.0007552662260055178,-0.05912766879669367,0.024752118091446833,-0.10080800850545406,-0.04529886613105853,-0.008004748679248934,0.03040302586408697,-0.030615142716666197,0.13390514900078065,0.09821493199255352,-0.07751381229277828,-0.17247415407361033,-0.20128086380140917,0.05549445746525796,0.061413129556855364,-0.11877330247077567,0.1668230580628174,-0.01977920715655806,0.016137971998799877,-0.19476878577526424,-0.0588643201379985,0.011924992465734013,0.0649769828523705,0.005824423100686594,0.16218229271431392,0.03654820030614097,-0.006178583602086632,-0.12737296025433664,-0.1671323131308023,-0.05263576856547226,-0.03264754650012603,-0.19228829451018709,0.11012940269927438,0.12806389472302263,-0.1146139920578206,-0.17635085152296667,-0.1531793999990364,0.03697056320113379,0.04329000066448432,0.048217684621638834,0.10514046968057277,0.10482263473134326,-0.0438087715092309,-0.15904316899147794,-0.1630099365661656,-0.07394589047091683,-0.08061734003513094,-0.28197462003681617,0.0202786312556722,-0.04086487342570946,0.09968938602464703,-0.028601114975117883,0.16599705751088564,0.032583944330270835,0.08687788661708455,0.3223087193152412,0.04642745976785299,-0.17229423249208178,0.25217206328448727,-0.06677321223133514,-0.024934610714554,0.1012516878547406,0.02418653057591237,0.09165696416552269,0.0397387609313257,-0.14633771314111096,0.0005582814267776367,-0.06395237533225803,0.011718689400648984,-0.09821476565132745,0.16241768219506048,0.06038575140672425,0.12002501690098884,-0.017152350228225966,0.06696591874358573,-0.07452130840499147,-0.06581101959595341,-0.11154772705384756,-0.10292420918645004,-0.08762585188677824,0.31600037940750264,-0.09647382255463066,-0.07523578496607816,-0.11465882013384628,0.08956969893790385,-0.0261653186404697,0.06846101615953609,-0.03528150385031359,0.2998088831682357,0.009427068871717074,-0.10604844209299212,-0.09238076259725689,-0.04487969607347305,-0.17927099798663879,-0.02358755743775514,-0.08755699708051454,0.3073470510818724,0.026210159932387584,-0.021134266700066445,-0.23162577085400804,-0.03447959257384542,-0.005499259773229579,0.03673979142531153,-0.03767452537795446,0.09541235690701717,0.12413754211873183,0.02828767486080337,-0.0102194036719779,-0.24499813735615308,0.06524854877291601,-0.0321317399834582,-0.1322882030799126,0.07289874445532438,0.052540539956761015,-0.051896799226938115,-0.14926408225763493,-0.12297281106546651,0.08941606622213141,-0.11695024943484326,-0.04468022453908321,0.17444672788130774,0.14501903111515646,-0.004708235643298746,0.06489139411040573,-0.1503719397318666,0.005852191816126961,-0.013137951968288014,-0.14946779226392312]},{"sx":5,"sy":5,"depth":16,"w":[-0.024591352951118462,-0.08976889052958917,-0.11963099980765203,-0.0013707240670448604,0.11994084481263965,-0.030155088869943853,0.08354363728623455,0.10879909712803583,0.055451636422249616,-0.000525423011092266,-0.08006741026835738,0.11308134152957802,-0.0752141417900953,0.14860493127053784,-0.02311472654110005,0.15072863479323062,0.09117097382341745,-0.014202992604815336,-0.04176308550419205,-0.037674504856799386,0.091405196550357,-0.023095801977022188,0.007110885559311571,0.03611670437615628,0.09315774289445888,-0.0883773419335603,-0.017442066666421167,0.0013409822666514844,0.0316672538607163,0.019232163027244134,-0.0184376057810971,0.11839905230714512,0.08140446082907221,0.05308346963464002,-0.15920211718885227,-0.11457174632848625,0.04991518686441326,-0.0968304094666903,-0.00592890423495713,-0.10223665416208136,0.0018473730100390265,-0.08508847848218863,0.05102064328241866,0.08035724334111821,-0.1534760514309727,-0.04427294876940013,-0.11290863983742504,0.026443626397341758,-0.05993419539808156,-0.046516830575942754,-0.039709784668812816,-0.0755163833501579,-0.05813235131626283,0.16663054425943247,0.0865251320466937,-0.011175979757296825,-0.038825320974182446,-0.08138396513740112,0.031029361455542807,-0.0926061682252077,-0.08063118557039435,0.09274704517209931,-0.06718709009707285,-0.07856074350916496,0.015946257667676843,0.05162265024457776,-0.035554602825351465,0.02488527692482682,-0.06410119857832249,0.16257063501281588,0.08766186564052673,0.18856434027162766,0.0005802370072996874,-0.05109015251414464,-0.05703821865155081,-0.16269051299927526,0.030223505827776952,0.03318704841708423,-0.021741477564333398,-0.042016939167009375,0.029875132688819018,-0.023770196781311165,-0.1273525341302159,-0.10365057633430909,-0.034090524449186956,-0.07405203512263946,0.18730063119425214,0.0019433796589883967,0.02967116531353835,-0.061830422337812184,-0.009586543747653449,0.17976761220848578,0.054388546732772935,0.04750797787123441,-0.1075871982110265,0.07915772836609557,0.020949309912230072,-0.0397375771356299,-0.14950147387642787,-0.06947637717064521,-0.056690226022675975,-0.0473033340204663,0.06866861586054271,0.0005040938487239729,0.04212487196575674,-0.12282355882556326,-0.07281598170423277,0.11288078789040051,-0.1901881055648222,0.06113287999325877,-0.07368386716399922,-0.02201090676817961,-0.1266026473363402,-0.07097109510179281,-0.04188533025141461,-0.137617835963683,-0.051748058940739285,-0.09083931400307492,0.005946909108998891,-0.047235784018995614,0.025650744753042357,-0.16237425544668435,-0.006896804083785068,0.05861111409336349,-0.03955198644804633,0.023500942935122376,-0.10818726957299452,0.0038917607574225047,-0.1192088818712558,-0.08777657271038367,-0.09284917767854735,-0.08264676513124887,-0.06480558482176445,0.10846853132123867,0.0388525717875004,0.10260026170036063,0.06778408136184565,-0.10414050105552505,0.008194519109956127,-0.10966563156904105,-0.08779870690772511,0.1231632188768109,-0.09205349096621883,-0.1093369268310786,0.06746529966633881,-0.06262500693569135,-0.019362422298413094,-0.06021454276314456,-0.082298280899097,0.18054295463940295,0.014923202545557483,-0.00003398460664960815,-0.022981755777948837,-0.07251639379192873,0.0022016967874526664,-0.11776135433208494,-0.052486373111195556,0.15003848898022748,-0.10283954040875214,-0.09703375952075631,-0.05207469427242705,-0.08780883076219038,-0.19341977516739664,-0.17480461685157359,-0.13236942716190211,-0.09662559904404425,0.1860091948016064,-0.14124629607854072,-0.017698747471335895,0.04072331965759626,-0.01372541047672418,0.02074480468832998,0.021307153685102907,-0.0067877925764734965,-0.13431838358217213,-0.07316021174648825,-0.06888541576723427,-0.1106239059979948,-0.04675459045354869,-0.04288761757184945,-0.10740097560434678,-0.08915064130614463,0.023480466814173723,0.002864101030820796,0.02560892143707127,-0.10997317273338728,-0.08065117359966008,-0.030053916107412152,-0.09428408668725101,0.055890202756787216,-0.10247583203801411,-0.12532449772395737,-0.07487901663127623,-0.08336348616349472,-0.1400071108305157,-0.13003519288071355,-0.12078452786661031,0.019393718598552826,0.10724596963698663,-0.11587510123123229,-0.06047775451144562,-0.11476780216169366,-0.05273045839047105,-0.019854331143751895,0.1113657041906943,-0.004789434091276486,0.018764887413881326,-0.09427767949677933,-0.0862261973405198,-0.1252641474243202,-0.08446300403288393,-0.11008941819077794,-0.06595601480499104,0.06589078821795695,0.10394685952875354,-0.023861735673489433,-0.06402387285406956,-0.08570283907780282,-0.054386388895209616,-0.1032715263481458,0.05733335543873072,-0.0026880116858135454,-0.1610303830831444,-0.1001263029040098,0.09998837013878897,0.0770917695359163,0.09600952366000753,-0.14382778515011319,0.012654274976745037,0.23840695814417584,-0.02357089483252758,0.07564649120834196,0.051066984650554655,-0.06902610920755455,-0.0268251285915563,-0.0037157737602709242,-0.05003843277366938,0.022848059217446422,-0.07830763448608735,-0.00854245578743147,0.21612456774070643,-0.025511583816382886,-0.07656678304456142,0.035333918941500765,-0.10337911625968407,-0.1892571753400024,0.011345197473022723,-0.03840436097473115,-0.019486541640687433,0.041801185202906356,0.0548966905517694,0.047070478775726225,0.010149377571513987,-0.0927926276786211,-0.0992436068436203,0.016766371362072253,-0.049219999116589,-0.0813107406000078,-0.07219521597483321,-0.06925029273154261,-0.08300726110184724,-0.07448718458957941,-0.01315841804211467,0.06830309283018739,0.0854416184739807,-0.036288627142725724,0.018757712608876546,-0.1402281898461677,-0.0549337836078809,0.03996399675410809,0.013530813432087008,-0.06796345962804443,-0.127502186251296,-0.015714833352902823,-0.15699523053038061,-0.09060183472442566,-0.11240392904556952,0.1983445393764009,0.013645173196622963,0.0503495249685701,-0.05274567402193612,-0.08413708177855082,-0.044044430601811416,-0.13550460065673375,-0.10449672207389268,0.14409331778161885,-0.06183675261252967,0.026308891194659713,0.02646117082318214,-0.1091258534221748,-0.10940689688962502,0.001515212188856982,-0.17097188708750835,0.08254258877018285,-0.06143802597300081,0.18640104105125135,-0.08487206685005222,-0.06703244603389157,-0.05824018346429587,0.007459480554825339,-0.038380123238028044,0.028473453672579054,-0.14000960595314746,-0.05125095727545224,0.004261620388625369,0.021225474174900078,-0.12685977128941311,-0.11232363919152893,-0.07261445578924963,0.1405675361044685,0.01772704494901566,-0.08762999094978648,-0.015410847309894178,-0.020294102419220354,0.020306488055755165,0.0383764712981439,0.002487739075710409,0.002879327972315785,-0.08382011690979733,-0.05339218726650254,0.1910370539749558,0.047925489014410155,-0.1664502479470278,0.05260393573672042,0.12139111429996385,-0.1082749260369514,-0.02616175280635375,0.11535503304912864,-0.07876574794844263,0.025743717448580786,0.18929454788076364,0.011004707365294247,0.06629210437471542,-0.012820996831765484,-0.11128700321263486,0.166081197933839,-0.1303604304371388,-0.02919442595790622,-0.09184569450234151,0.023256042420345065,-0.05164583296204357,-0.035508684759047206,-0.026516551894607356,0.09253523484998548,-0.09318454828011451,0.06187542886578676,0.1740007199360399,-0.08696562905515841,-0.08435070637824098,0.26281406388158873,-0.027456402533566855,0.13018036636031308,-0.018751282796284623,-0.06930037758789426,-0.08652822261822456,0.03253567623472053,0.08572304007154156,0.050866945775273106,-0.13628902290170508,0.17035332345023768,-0.007763869389454573,-0.1819097437019979,-0.09692401565836836,-0.05218801656199669,0.024622816647692027,0.2383070981858162,0.01398737735015832,0.028401510420585065,0.09573474095751154,0.09885588675800072,-0.08766147395806576,-0.02293248965682002,0.13167743027418272,0.03737398083953601,-0.12767959091397008,0.00004293971791669483,-0.023562187841568195,0.02282501466453238,0.0997267526297069,0.07917172135125096,-0.09728533567750143,0.07536898848544767,-0.11331082426315532,0.1497025415827811,0.07188471367064833,0.09230670693781011,0.03523820776431179,0.023021519120092808,0.018768222478102357,0.011248397488726818,-0.05601803024755692,-0.04444812056295898,-0.04524724207782425,-0.04563322442490894,0.02567112861319386,0.03400944775665277,-0.08373855264720023,0.0003944501402732341,-0.05075677242542354,0.11704440086585306]},{"sx":5,"sy":5,"depth":16,"w":[-0.12431220365921032,-0.025399704894146106,0.013347019790663996,0.03939336575660792,-0.024445641998343166,0.061920653388000055,0.029891836653927608,0.05427407363942125,-0.05818175186259601,-0.09453631023962995,-0.044621612559499604,0.11665857436778378,-0.04733976647201112,0.06214955893705778,-0.04022275622066805,0.022295266213590043,0.030580355141181893,-0.04512969422829404,-0.01603700302798571,0.006589621769883207,-0.08345270167313042,-0.005379288962886522,-0.03890136633765416,-0.09943631907175866,0.02953959472755757,-0.08522643722231125,-0.012921212831255979,0.06633182477529366,-0.1630094329380563,0.12809185807208762,-0.053261131821054415,-0.018056393826502645,0.053006229651939143,0.03495756052576427,-0.002659540457018106,0.02761072610818868,-0.0022744260833627546,0.033052696948781525,0.04148277035256142,0.08705967369493678,0.12522644813571643,0.10648609301874815,-0.013796530346340161,-0.065264780026672,-0.09539732658022917,0.09320857835826701,0.053812887275844115,0.0489458222820404,0.024358786160152607,-0.040942681712425426,0.11069211644386652,0.015861114795048818,-0.008968405860279114,-0.06695036501903022,0.044295243694413164,-0.05260506329915825,-0.043761179838311653,0.05678212341528155,0.07407006094235384,0.04162557990862898,-0.072938396417756,0.14210005712215446,0.09559868255007821,-0.02245968681040717,0.13758984428677606,0.12222231527800503,0.1025350737375264,0.04938211811332571,0.007611990223906917,-0.03589001159459465,0.00035899766538467195,0.01773452616509057,0.036140605540098944,0.07124214670157468,0.050381441465567785,0.07173567088721096,0.04747592523266668,0.1391037484085195,0.04210341417012589,0.11650856048795896,-0.06239895227338832,-0.06521805948835947,-0.020754035466484754,-0.044406023176278564,0.01881330391484691,0.0402914902319698,0.0896579550995347,0.0008729766913329155,0.035022459569990255,0.03629950486174616,-0.016795307937679752,-0.031234781748099696,-0.10225641518944538,0.09189827301787815,-0.06033100206704613,0.03134956567308231,-0.11110635988856046,0.022052688624691147,-0.06906517419293125,-0.004017611733388589,0.056214915631464815,-0.031074496555166798,-0.053246032656505925,-0.02549600771271426,-0.08175413811538335,0.03206870487690955,-0.08045130082890639,-0.02908018114792099,-0.09262353021355088,0.05401843814178686,0.035903295809214884,-0.017856994165029852,-0.06854131206882974,0.040726694911975184,-0.00712117672294629,0.06178069294686993,0.08194335443080479,-0.0833544350033892,-0.075576721457416,-0.030004313853719756,0.0013008360929860133,0.017433016682198012,0.027908357281359156,-0.01602160420243889,-0.054986045660841476,0.0988362978901779,-0.0013408812543085928,-0.02196922431622095,-0.10425220060626175,0.022778368005739482,-0.10517524734174173,0.037469191021639786,-0.08564566746218563,-0.128084781202173,0.030276368253666596,-0.13004966557668746,-0.07241676030318688,-0.13562115179089362,-0.06533822770546444,-0.09567158973995156,-0.05538877571683632,0.027705664661961307,-0.004940972362705944,-0.036231730736475315,-0.006171181489014408,0.14064913491606548,0.009740478451457039,0.07586558903780237,0.03711025981430131,-0.023776301511242732,-0.05488611292608606,-0.08207336204831053,0.17581060890278102,-0.06724119713557211,0.09600017414571692,-0.053255769626666824,-0.07253060445907161,-0.006689485129212953,-0.06987514979291165,0.10393331190497036,-0.0772894659582601,-0.12228291281516433,-0.13431164107485855,0.024706936056582782,0.004033707285735007,-0.009087342531834448,0.03241111774109042,-0.08472902612637005,0.012047344599851696,0.002768621901414233,-0.09610661778932973,-0.090046577347068,-0.06922486260956251,0.000010557610115894161,-0.16378627581207358,-0.1300965190878785,-0.16277126341699902,-0.09599555627386362,-0.10324854838574546,-0.08814729402796528,-0.032281381113749896,-0.09113985582317853,-0.005029767403897083,-0.140084584284474,-0.031098211669460658,0.12218498922589097,-0.09227139285765598,0.00494716625549948,-0.04634261681274957,-0.11380309887528169,-0.10133444560714311,-0.0344305475371002,-0.1447963467300329,-0.09773828020634315,-0.009745273471373406,-0.15420408532777777,-0.0049123814806082645,-0.07916045719882471,0.07402387264247703,-0.2399618311716626,-0.039745386554578495,0.17513075814973378,0.02812412566870619,0.022602366565461964,0.09309210903064824,0.029804942641451518,-0.039454574554775836,-0.0068407424369756505,-0.17459804799584824,-0.12714509410702668,-0.11851556051407704,-0.01209925533824655,0.012551917312007648,-0.055956088043880206,0.04707717396345494,-0.18711789807515222,-0.12465280308836602,-0.0029186609239150274,0.01722407402354231,0.04592376674882801,-0.08047950334999253,0.07567571627130504,-0.02039480115580529,-0.0591347357179736,-0.0696640851316347,-0.06201946769276337,-0.0972138003774984,-0.09275620516414433,0.038850748338724594,-0.11003342345995622,0.053059802448730216,-0.2234965370175728,-0.10026806174693853,0.04420417851412121,-0.04678269356686586,0.12305378284795891,-0.025761706214292343,-0.05933079752657341,-0.13033994791498074,-0.01814707689325252,-0.17786426424056623,-0.057552795573017124,-0.057268100613265545,-0.10100691201822608,-0.0804733491614207,0.02037941972233642,0.03624975898870558,-0.02938218536578133,-0.048272795690535684,0.051568840476722534,0.056663342054263745,-0.06106692779510796,-0.06939551818825186,-0.0217365871270247,0.0208995696412357,-0.06875856704508818,-0.11360505474065369,-0.05509082044407138,-0.0565255918475822,-0.031798854229815675,-0.10151934672010667,-0.06800205091358785,0.0052157648358225235,-0.1381983105461162,-0.0400678072716531,0.020421901922704946,-0.022987625223440028,-0.07098783244902011,-0.05804880653840291,-0.08687821100237277,-0.016624088748053302,-0.0034366866560725665,-0.15427500177427148,-0.006938563408458528,0.07224261900875041,0.009065652708503319,-0.18395098216326075,-0.016742612115084463,-0.0027378190294440647,-0.03285625240394516,-0.05341006625152135,0.03771173273401388,0.0473678128538362,-0.14128617851268818,-0.04883900244541274,-0.02078917658753324,0.025004334863232804,-0.06989361466659179,-0.10709890678245104,-0.008742960541038174,-0.14195507064175153,-0.044901500465402915,-0.15570839878896175,-0.05581365676510914,-0.103545616968372,-0.13783509252463128,-0.10931050014952963,-0.11936343582526923,0.017585694220686583,-0.1108730532817179,-0.10933867538230793,-0.06875210251262742,-0.0183106388178858,-0.14064492182389315,-0.16078719439762876,-0.023572052704431027,-0.07097038852715593,0.018779124647709047,-0.08928119823987181,-0.12058237002294031,-0.08083421445840036,-0.050362478679094276,-0.18009881934989685,-0.031121930668747327,-0.023659795029288277,-0.06827959514286899,-0.11592466186922219,-0.020570216836924348,-0.09706203679748801,-0.17336522701971194,0.014225156355696343,0.008097265280613806,-0.0564330100165553,0.015644072092763407,-0.08864569558631762,-0.10383084567220802,0.013996059010931476,-0.015509621479414863,-0.06266286139307163,0.060651245831412244,0.039406401613803536,-0.0640884126702774,0.004613517704703595,0.01515026085812201,-0.001811501088323717,-0.07496460276703742,-0.08837126844174106,0.06297628787373187,-0.05212684531696979,-0.0720353370284424,-0.17092528683509056,-0.0922864739464442,-0.11471055461043693,-0.09599753678450887,-0.044931082659783086,0.10117156861049686,-0.08700219634247203,-0.050741828095254196,0.043790726521173835,-0.12035960307818842,0.03599932641216979,-0.04548388266783531,-0.11383591979375858,0.10094708357298562,0.01436174024237628,0.03664400077784905,-0.10482192302956604,-0.05071969434712279,-0.03195336759949974,-0.10108443367178295,-0.11319833139580392,0.13333502606121092,0.07611767637837276,-0.08912279123945431,